svm_type c_svc
kernel_type rbf
gamma 0.001
nr_class 2
total_sv 52
rho 0.789579
label 1 2
probA -4.36961
probB 0.639783
nr_sv 32 20
SV
0.6641120946985879 1:-1.595308 2:-0.67474652 3:-0.028469832 4:0.33837814 5:-0.4960784 6:-0.23310621 7:-0.05468967 8:0.56077531 9:0.05990565 10:-0.73654178 11:-0.067225622 12:0.39002467 13:0.49851125 14:-0.16736547 15:-0.072877137 16:0.34149287 17:-0.15648362 18:-0.5988427 19:-0.24652405 20:0.3013924 21:0.12663699 22:-0.75337176 23:-0.23167359 24:0.52925005 25:0.8597566 26:0.11180675 27:-0.091578352 28:0.33772094 29:0.027556108 30:-0.56983824 31:-0.38448933 32:0.13133128 33:0.16841898 34:-0.5359881 35:-0.30008176 36:0.35775174 37:0.98063842 38:0.3133203 39:-0.067960632 40:0.20009879 41:0.11574385 42:-0.63047636 43:-0.50328866 44:-0.018425433 45:0.13759202 46:-0.75168496 47:-0.46037305 48:0.24136151 49:1.1592237 50:0.67894639 51:0.010475216 52:0.098287666 53:0.04847006 54:-0.44568817 55:-0.71449115 56:-0.12747078 57:0.069670882 58:-0.68846636 59:-0.58323218 60:0.19713233 61:1.1614793 62:0.65940946 63:0.10351031 64:-0.094177577 65:0.18694751 66:-0.36947862 67:-0.64036468 68:-0.4067634 69:0.15580347 70:-0.52407874 71:-0.65059983 72:-0.076547218 73:1.2068821 74:1.0785379 75:0.2257628 76:0.083200283 77:-0.14366114 78:-0.2424744 79:-0.52227647 80:-0.42932855 81:-0.038114713 82:-0.5080435 83:-0.77968921 84:-0.17205394 85:0.82116484 86:1.5173957 87:0.46502612 88:0.14230443 89:0.044277191 90:-0.30018852 91:-0.47425479 92:-0.51024807 93:0.015812719 94:-0.45694786 95:-0.78347191 96:-0.25563822 97:0.95953849 98:1.5056502 99:0.58453453 100:-0.025189573 101:-0.067147021 102:-0.056934812 103:-0.52652228 104:-0.6122846 105:-0.35714055 106:-0.33967998 107:-0.77292472 108:-0.3315308 109:0.57450056 110:1.5338114 111:0.88622063 112:0.11537343 113:-0.1209831 114:-0.07604878 115:-0.42853708 116:-0.54608353 117:-0.30277739 118:-0.34723781 119:-0.71014268 120:-0.52858492 121:0.49595478 122:1.6344003 123:1.2738503 124:0.22640866 125:-0.16073221 126:-0.055352645 127:-0.2757103 128:-0.66990217 129:-0.24534332 130:-0.54958114 131:-0.79601972 132:-0.72307436 133:0.24330144 134:1.6481723 135:1.0554174 136:0.31109809 137:-0.51120713 138:0.027889128 139:-0.1837793 140:-0.40026383 141:-0.30134738 142:-0.48297929 143:-0.73493916 144:-0.80523681 145:0.066840892 146:1.7334477 147:1.7023461 148:0.43905223 149:-0.18428258 150:-0.29447528 151:0.00015637187 152:-0.52386832 153:-0.33572809 154:-0.27503461 155:-0.83724154 156:-0.90837495 157:-0.39424682 158:1.6312551 159:1.2750003 160:0.6507184 161:-0.55724511 162:-0.020262971 163:0.10120414 164:0.26152345 165:-0.99664538 166:-0.64998679 167:-0.69670427 168:-0.72384092 169:-0.11770582 170:0.61612831 171:1.6454285 172:0.42132284 173:0.20081739 174:-0.57343324 175:0.14507792 176:-0.26944878 177:-0.008066225 178:-0.27309298 179:-0.73990711 180:-1.0413785 181:-0.47966939 182:1.0357655 183:1.4933346 184:0.8610793 185:-0.39150884 186:-0.66555012 187:0.1830255 188:0.14884543 189:0.026920641 190:-0.4065755 191:-0.77200771 192:-1.1329859 193:-0.51551158 194:0.64627162 195:1.5220758 196:0.75518028 197:-0.29838423 198:-0.5600061 199:0.025108867 200:0.26593051 201:0.1509641 202:-0.2449691 203:-0.44128865 204:-1.0292455 205:-0.96095375 206:0.51691412 207:1.4196715 208:1.0243327 209:-0.39076536 210:-0.91705047 211:-0.058483215 212:0.26771096 213:0.5118451 214:-0.04610071 215:-0.34105758 216:-0.83365969 217:-1.2070514 218:0.25954439 219:0.93799834 220:1.1618931 221:-0.13848278 222:-1.0802262 223:-0.17989383 224:0.23819052 225:0.51083257 226:0.16693083 227:-0.24037069 228:-0.47113857 229:-0.8564345 230:-0.14731218 231:0.83927575 232:1.0612608 233:0.098769379 234:-0.91719554 235:-0.37075417 236:0.36398911 237:0.26003951 238:0.27024125 239:-0.17775237 240:-0.28182499 241:-0.72140923 242:-0.32655122 243:0.70172022 244:0.84342067 245:0.069896214 246:-1.0267509 247:-0.61023708 248:0.35449996 249:0.54297241 250:0.37750867 251:1.0732227 252:1.2061208 253:0.027179387 254:-0.90443779 255:-0.068111946 256:0.90850189 257:0.20348569 258:-0.8592612 259:-0.10443945 260:1.0892211 261:0.13553996 262:-0.9466989 263:-0.80050454 264:0.41334227 265:0.12062243 266:-0.4727991 267:-0.22272838 268:1.1056682 269:0.37038699 270:-0.30968226 271:-0.15481463 272:0.86823745 273:0.31079765 274:-0.79331986 275:-0.96583071 276:-0.14166814 277:0.16203524 278:-0.54603858 279:-0.30417165 280:0.97573814 281:0.62669234 282:-0.11748442 283:-0.17915508 284:0.84047138 285:0.48296092 286:-0.70992014 287:-1.231595 288:-0.31369861 289:0.11379715 290:-0.25862105 291:-0.56672827 292:0.90235353 293:0.89220703 294:0.1126087 295:0.070409683 296:0.89933089 297:0.60087348 298:-0.48843744 299:-1.2889892 300:-0.68114617 301:0.0036786177 302:-0.036741294 303:-0.41303124 304:0.70276716 305:0.91965715 306:0.31343663 307:0.097157566 308:0.7005721 309:0.83077037 310:-0.36669957 311:-1.3809197 312:-0.79875525 313:-0.14817411 314:0.15908691 315:-0.38330047 316:0.44424291 317:1.0014448 318:0.59631707 319:0.13184412 320:0.60796722 321:0.76725937 322:-0.063063569 323:-1.4527774 324:-1.2599153 325:-0.33905044 326:0.038638748 327:-0.022578206 328:0.31193365 329:0.99857813 330:0.58016766 331:0.29185717 332:0.61907252 333:0.90262634 334:0.12594937 335:-1.1243144 336:-1.5760641 337:-0.53853261 338:-0.068197644 339:-0.05987746 340:0.24277013 341:0.93094262 342:0.70207179 343:0.17415617 344:0.65066299 345:0.92111423 346:0.30851995 347:-0.99495534 348:-1.527028 349:-0.80442977 350:-0.016023512 351:0.17182764 352:0.12036494 353:0.78874917 354:0.97770458 355:0.53337702 356:0.61182211 357:0.91138094 358:0.44741399 359:-0.71920084 360:-1.7025656 361:-1.0284349 362:-0.076553857 363:0.0040118302 364:0.097536565 365:0.59799109 366:0.87910163 367:0.4107659 368:0.50512029 369:1.0302802 370:0.74281509 371:-0.61291757 372:-2.0112033 373:-1.6694654 374:-0.08592519 375:0.10976417 376:-0.021082989 377:0.31488023 378:0.76730429 379:0.5056651 380:0.49722564 381:0.96245521 382:0.94487108 383:-0.39162591 384:-2.0089517 385:-1.6100552 386:-0.37778459 387:0.62106123 388:-0.048092988 389:0.18401242 390:0.44266915 391:0.40261129 392:0.60568544 393:1.0342593 394:1.1338148 395:-0.38108959 396:-1.9367799 397:-1.8679924 398:-0.45615802 399:0.34638643 400:0.12346602 401:0.02562979 402:0.58460632 403:0.71734913 404:0.50701053 405:0.89376343 406:1.1855206 407:0.089307881 408:-1.8540901 409:-1.8168722 410:-0.52192861 411:0.57732161 412:-0.21830535 413:-0.18482173 414:-0.10930352 415:1.527015 416:0.47778359 417:0.91948229 418:0.86409598 419:0.44431156 420:-0.98964071 421:-2.0594382 422:-0.64863956 423:0.10756092 424:0.57103192 425:-0.26934217 426:0.11169619 427:0.51966532 428:0.46259937 429:0.92514036 430:1.2149847 431:0.59844055 432:-0.97496616 433:-2.1405968 434:-0.92925907 435:0.36513938 436:0.76724656 437:-0.19367932 438:-0.20269254 439:0.325212 440:0.42931517 441:0.83440275 442:1.2130379 443:0.75328713 444:-0.59958124 445:-1.6645188 446:-0.9102939 447:0.22867047 448:0.84491745 449:-0.062054656 450:-0.40764553 451:-0.032989487 452:0.2922329 453:0.54982729 454:1.2403896 455:0.92067764 456:-0.3927803 457:-1.6875919 458:-1.0551407 459:0.40959155 460:1.0361926 461:0.04354782 462:-0.6195204 463:-0.32924358 464:0.14666556 465:0.5852097 466:1.2570642 467:1.3606525 468:-0.12031245 469:-1.3058303 470:-1.1695306 471:0.3263148 472:1.0552436 473:0.25921865 474:-0.67457819 475:-0.41019443 476:0.041989843 477:0.34451474 478:0.82640294 479:0.95290955 480:0.19287736 481:-1.0065627 482:-1.278991 483:0.25723539 484:1.2212539 485:0.63648202 486:-0.56326634 487:-0.61638636 488:-0.20737897 489:0.12695259 490:0.75582612 491:1.087622 492:0.2836216 493:-1.0319705 494:-1.354482 495:0.22452587 496:1.3358091 497:0.6839597 498:-0.37031635 499:-0.99053668 500:-0.43835036 501:-1.2482656 502:-0.98332414 503:-0.036798296 504:0.6004446 505:-0.47638664 506:-0.5089823 507:-0.086903957 508:0.61511414 509:0.065279963 510:-0.72240767 511:-0.09994397 512:0.78333322 513:0.36451307 514:-0.36539005 515:-0.099793584 516:0.42124903 517:-0.24708391 518:-0.768487 519:-0.45403182 520:0.47068201 521:0.18635781 522:-0.9813136 523:-0.25726719 524:0.7368462 525:1.157719 526:0.061785897 527:-0.13262024 528:0.43322494 529:-0.00046261724 530:-0.83260988 531:-0.6399256 532:0.13937898 533:-0.045437753 534:-0.66695674 535:-0.44990972 536:0.71374556 537:1.0111188 538:0.2127291 539:-0.098677896 540:0.20371998 541:0.28896205 542:-0.80092411 543:-0.65110678 544:0.017254901 545:0.11110698 546:-0.98847683 547:-0.54997584 548:0.23210304 549:1.3525493 550:0.7014722 551:0.01079465 552:0.10284706 553:0.18974978 554:-0.49300671 555:-0.81506017 556:-0.094297805 557:0.17413229 558:-0.87845417 559:-0.68877814 560:0.26834174 561:1.2211362 562:0.78482127 563:0.13982379 564:0.045229612 565:0.50064798 566:-0.61349154 567:-0.77611226 568:-0.74395669 569:0.18260064 570:-0.59222878 571:-0.78348943 572:-0.035372506 573:1.2978057 574:1.0826557 575:0.22850628 576:0.030531659 577:0.017481465 578:-0.25283461 579:-0.84024188 580:-0.63780901 581:-0.20472817 582:-0.48808919 583:-0.84338385 584:-0.097088477 585:1.0379204 586:1.4441185 587:0.50278634 588:0.051503048 589:0.23264632 590:-0.24167765 591:-0.5704035 592:-0.54328711 593:-0.1855225 594:-0.48852679 595:-0.9049175 596:-0.30686343 597:1.1655305 598:1.560846 599:0.80134212 600:-0.072879981 601:-0.080043297 602:-0.0538446 603:-0.69853209 604:-0.80458333 605:-0.43237541 606:-0.4277642 607:-0.76449247 608:-0.43717174 609:0.6747449 610:1.8145738 611:1.1153275 612:0.23255591 613:-0.10795898 614:-0.097440714 615:-0.57544697 616:-0.74871411 617:-0.28664086 618:-0.46680945 619:-0.86324405 620:-0.60136403 621:0.57591376 622:1.8363673 623:1.5284449 624:0.26556918 625:-0.22168716 626:-0.089761071 627:-0.39158261 628:-0.99127091 629:-0.44464235 630:-0.50246561 631:-0.96816165 632:-0.78691121 633:0.25662352 634:1.6861204 635:1.4513599 636:0.35531915 637:-0.35531932 638:-0.060226504 639:-0.19145636 640:-0.70193204 641:-0.48717812 642:-0.53577626 643:-0.84361011 644:-1.0400466 645:-0.001132185 646:1.8757099 647:1.8946975 648:0.47451737 649:-0.31253375 650:-0.21590351 651:0.033582572 652:-0.57173205 653:-0.60375815 654:-0.3776616 655:-0.95639319 656:-1.0721354 657:-0.31823724 658:1.7186083 659:1.5631951 660:0.6226276 661:-0.501504 662:-0.02303993 663:0.14825675 664:0.12178905 665:-1.0926289 666:-0.56024951 667:-0.79118648 668:-0.8533517 669:-0.29102131 670:0.89258754 671:1.8193718 672:0.60218317 673:-0.06634127 674:-0.72008306 675:0.091232068 676:-0.24682401 677:-0.064672127 678:-0.44272406 679:-0.91750059 680:-1.3097226 681:-0.52045029 682:1.1502187 683:1.6388136 684:0.96424191 685:-0.48595303 686:-0.85151209 687:0.17221623 688:0.29243477 689:0.13246681 690:-0.51469204 691:-0.96559046 692:-1.3610514 693:-0.67159557 694:0.83742106 695:1.8045201 696:0.89575657 697:-0.53375437 698:-0.71872026 699:0.049360011 700:0.37016582 701:0.23410045 702:-0.38087166 703:-0.52878252 704:-1.3268776 705:-1.1008053 706:0.61709133 707:1.5830238 708:1.1820927 709:-0.41361438 710:-0.9582294 711:-0.063195013 712:0.37124559 713:0.58348051 714:0.023282519 715:-0.49379828 716:-1.1229111 717:-1.4615533 718:0.32681411 719:1.1614156 720:1.3433312 721:-0.20873875 722:-1.2670794 723:-0.26426389 724:0.32156697 725:0.53623729 726:0.22472544 727:-0.23305314 728:-0.59096556 729:-0.97172331 730:-0.18902036 731:0.94284404 732:1.2298186 733:0.048311195 734:-1.1233478 735:-0.54976135 736:0.49977387 737:0.35141266 738:0.32536869 739:-0.22036381 740:-0.43869702 741:-0.81744692 742:-0.34977555 743:0.81249622 744:1.0946891 745:0.052779408 746:-1.0843259 747:-0.73595353 748:0.40310093 749:0.68936466 750:0.42082922 
0.3406110132645099 1:0.58900587 2:-0.65473046 3:0.65742221 4:-0.78111098 5:0.020253213 6:0.083042 7:-0.19880288 8:0.81827072 9:-0.8937411 10:0.53315699 11:-0.2931393 12:0.025903782 13:0.12480865 14:0.042288672 15:-0.19316424 16:0.59906311 17:-1.2446466 18:1.4896357 19:-1.3213039 20:1.4681144 21:-1.4279333 22:0.73941666 23:-0.32970092 24:0.19964222 25:-0.48122771 26:1.0590612 27:-1.0977739 28:1.5779692 29:-2.0215921 30:1.4535629 31:-1.0223897 32:0.72711907 33:-0.27355795 34:0.16249572 35:-0.27186741 36:0.51196327 37:-1.2977666 38:1.5163873 39:-1.8144954 40:1.5646899 41:-1.5182749 42:1.0987685 43:-0.49505455 44:0.39855843 45:-0.42157981 46:0.60239791 47:-0.90116454 48:1.01417 49:-1.6263732 50:1.8140847 51:-1.2513727 52:0.97879721 53:-0.7712742 54:0.53162654 55:-0.42763273 56:0.65372111 57:-1.000223 58:1.2488861 59:-1.3905692 60:1.1433276 61:-1.0015062 62:0.73220541 63:-0.42925584 64:0.11691972 65:-0.20541528 66:0.4842202 67:-0.63614097 68:0.93719137 69:-1.0678089 70:1.2794287 71:-0.99799233 72:0.5065341 73:-0.19961571 74:0.20561512 75:0.054987422 76:0.10772435 77:-0.51176315 78:0.64970022 79:-0.79227862 80:0.90683462 81:-0.7882274 82:0.58314601 83:-0.18868783 84:-0.18200211 85:0.088994315 86:-0.059167218 87:-0.055698686 88:0.48184503 89:-0.86078153 90:0.83729602 91:-0.57961887 92:0.27530395 93:0.22930983 94:-0.34907146 95:0.49774181 96:-0.46470992 97:0.31351049 98:0.063947194 99:-0.29322449 100:0.51029171 101:-0.63595837 102:0.38407715 103:0.13252138 104:-0.53062109 105:0.79758873 106:-0.69819216 107:0.51077305 108:-0.17645027 109:-0.21562141 110:0.29606646 111:-0.32605494 112:0.22633214 113:0.11544915 114:-0.67376638 115:0.82896862 116:-0.79366682 117:0.78469616 118:-0.33769093 119:0.082013404 120:0.11866106 121:-0.18124177 122:0.099322773 123:0.22485977 124:-0.60183646 125:0.81093331 126:-1.357818 127:0.98760212 128:-0.67898891 129:0.33582146 130:0.1905797 131:-0.2155591 132:0.021864153 133:0.039704041 134:-0.27993136 135:0.66628302 136:-0.7410737 137:0.76787659 138:-0.63833424 139:0.35360171 140:0.24839126 141:-0.26279229 142:0.39434566 143:-0.066362715 144:-0.20344537 145:0.47260767 146:-0.87326455 147:0.86463575 148:-0.42217456 149:0.23749292 150:0.13031207 151:-0.62606569 152:0.42153945 153:-0.26489775 154:0.19981329 155:0.33518894 156:-0.48380596 157:0.24156187 158:-0.083734273 159:-0.050022473 160:0.60146043 161:-0.94038631 162:1.2739473 163:-0.93014653 164:0.83338985 165:-0.51915316 166:-0.45565836 167:0.30459107 168:0.27527796 169:-0.019712767 170:0.13716217 171:-1.0863976 172:0.90685327 173:-0.65523038 174:0.70966384 175:-0.50465136 176:-0.17762558 177:0.25228171 178:0.16302972 179:-0.46936386 180:0.65417224 181:-0.98456435 182:1.5178933 183:-1.274816 184:1.1467963 185:-0.72785373 186:0.41768535 187:-0.30539476 188:0.25469059 189:-0.33670946 190:0.87283654 191:-1.7808842 192:1.245267 193:-1.0641008 194:1.1598784 195:-0.80457154 196:0.38822262 197:-0.29951483 198:0.33885958 199:-0.60947676 200:0.862018 201:-0.97116857 202:1.6158101 203:-1.59384 204:1.0612505 205:-1.0445707 206:0.81744226 207:-0.41446437 208:0.47303657 209:-0.6784994 210:0.85030398 211:-1.6001148 212:1.4096274 213:-1.1128847 214:1.8032507 215:-1.3315469 216:0.62725643 217:-0.73262538 218:0.47803759 219:-0.38711999 220:0.87926789 221:-0.91246356 222:1.2865867 223:-1.5989054 224:1.0194654 225:-0.80741709 226:0.75155059 227:-0.37306457 228:0.26852899 229:-0.30617345 230:0.39313457 231:-0.65874924 232:1.0032877 233:-0.77570906 234:0.88593982 235:-0.87356529 236:0.26801856 237:-0.17264246 238:0.038852487 239:0.081047394 240:0.28969213 241:-0.44308984 242:0.50722576 243:-0.69882521 244:0.57058134 245:-0.34783051 246:0.21765385 247:0.2434541 248:-0.33147222 249:0.35436961 250:-0.35604462 251:-0.95020149 252:-0.14938158 253:0.10150407 254:-0.054859528 255:-0.1957144 256:0.28974862 257:-0.52223454 258:0.40787756 259:-0.6599592 260:0.48864615 261:-0.054224981 262:-0.17388395 263:0.2117627 264:-0.40232848 265:0.41894574 266:-0.32474638 267:0.1203509 268:-0.014776463 269:0.087304129 270:-0.069318998 271:0.33736597 272:-0.53276522 273:0.592786 274:-0.63943082 275:0.82251843 276:-0.78657229 277:0.46303365 278:-0.44704307 279:0.17127632 280:-0.031035792 281:0.18199519 282:-0.24846427 283:0.39783867 284:-0.4873866 285:0.40056204 286:-0.3369855 287:0.343152 288:-0.072403908 289:0.063451585 290:-0.039459242 291:-0.17521904 292:-0.26049456 293:0.4016992 294:-0.5123234 295:0.70283067 296:-0.47961624 297:0.34454469 298:-0.23098445 299:0.29181782 300:-0.21861359 301:0.34295932 302:-0.37392285 303:0.48443167 304:-1.0270663 305:0.74724961 306:-0.74453071 307:0.74359103 308:-0.46656989 309:0.29559787 310:-0.23300735 311:0.17937189 312:-0.088533145 313:0.33743919 314:-0.28656953 315:0.53800697 316:-0.82267252 317:0.55166465 318:-0.43739105 319:0.43860458 320:-0.32884932 321:0.1937649 322:-0.16279371 323:0.036878526 324:-0.37469967 325:0.39131756 326:-0.41411941 327:0.64811521 328:-0.63720274 329:0.32779278 330:-0.37440092 331:0.42347506 332:-0.36491063 333:0.36468788 334:-0.32630153 335:0.41938888 336:-0.54686729 337:0.42046 338:-0.51722737 339:0.4455113 340:-0.3574769 341:0.30545457 342:-0.39810961 343:0.27412041 344:-0.40927235 345:0.39742228 346:-0.37443985 347:0.34900299 348:-0.40394414 349:0.44054387 350:-0.45638804 351:0.73045537 352:-0.56471287 353:0.55733116 354:-0.64698524 355:0.66484479 356:-0.48942365 357:0.32088125 358:-0.2876118 359:0.35354881 360:-0.24664605 361:0.3629806 362:-0.45245591 363:0.54282312 364:-0.6769412 365:0.90537235 366:-0.68890445 367:0.60877483 368:-0.6148602 369:0.38614593 370:-0.36567999 371:0.19671404 372:-0.3011759 373:0.55367443 374:-0.48488771 375:0.62876401 376:-0.84397059 377:0.67113735 378:-0.5483141 379:0.47192791 380:-0.46511534 381:0.27367257 382:-0.23927087 383:0.34131474 384:-0.51371981 385:0.49967183 386:-0.6149675 387:0.89761922 388:-0.7140684 389:0.4874251 390:-0.62202748 391:0.26143137 392:-0.26628826 393:0.43021928 394:-0.40556568 395:0.25132406 396:-0.55603974 397:0.55274762 398:-0.39722994 399:0.31127611 400:-0.39803361 401:0.32575894 402:-0.28218589 403:0.45913261 404:-0.47538192 405:0.46569917 406:-0.40500102 407:0.4693773 408:-0.6426918 409:0.4110779 410:-0.21348167 411:0.38894408 412:-0.79021701 413:0.46587112 414:-1.0106861 415:1.5777282 416:-0.88808294 417:0.6550551 418:-1.0686692 419:0.53186807 420:0.0010991153 421:0.4453662 422:-0.18889926 423:0.072126769 424:-0.60568678 425:0.97432885 426:-0.75832174 427:0.87636729 428:-0.79624418 429:0.62490986 430:-0.47709755 431:0.24562624 432:-0.18131129 433:0.32591012 434:-0.24122016 435:0.29449879 436:-0.57855344 437:0.70390993 438:-0.48230201 439:0.47615257 440:-0.32486042 441:0.19195591 442:-0.21546349 443:-0.031197611 444:-0.099390754 445:0.34811333 446:-0.28656293 447:0.26425627 448:-0.60885614 449:0.59647721 450:-0.31958402 451:0.21496484 452:-0.1170375 453:0.11791729 454:-0.092204962 455:0.15739214 456:-0.35554026 457:0.47439344 458:-0.35939733 459:0.47238387 460:-0.59277109 461:0.345552 462:-0.20051128 463:0.13498458 464:-0.29712934 465:0.33504148 466:-0.45245643 467:0.56379648 468:-0.49255348 469:0.36218994 470:-0.26753771 471:0.32059892 472:-0.25291432 473:0.081098121 474:-0.16084914 475:0.14518233 476:-0.18484786 477:0.35536869 478:-0.38949477 479:0.21198347 480:-0.27837351 481:0.21028783 482:-0.13925822 483:0.17942578 484:-0.11547052 485:0.13106143 486:-0.14891409 487:0.18796342 488:-0.22207081 489:0.31318056 490:-0.07599583 491:0.15345572 492:-0.14190153 493:-0.0018345925 494:-0.020253452 495:0.13243311 496:-0.030361794 497:0.067985011 498:-0.058945193 499:-0.0061228859 500:-0.072871813 501:1.0234303 502:-0.37071872 503:0.43287318 504:-0.53763701 505:-0.13003813 506:0.10182348 507:-0.1011385 508:0.38109133 509:-0.35966304 510:0.23167626 511:-0.010291883 512:-0.018509543 513:0.036598291 514:-0.13942548 515:-0.12342344 516:0.42639644 517:-1.0722648 518:0.98783156 519:-1.013974 520:0.89705285 521:-0.38856917 522:0.053206662 523:0.015982833 524:-0.058325191 525:-0.053070362 526:0.71742332 527:-0.92869921 528:1.3696324 529:-1.8089282 530:1.2635415 531:-1.018083 532:0.53440927 533:-0.37754653 534:0.12591744 535:-0.18609263 536:0.49426262 537:-0.86966695 538:0.95156617 539:-1.291363 540:1.2357858 541:-1.4451559 542:1.074327 543:-0.69955349 544:0.6416909 545:-0.59943113 546:0.39064954 547:-0.75455398 548:0.69796873 549:-1.0154102 550:1.3047442 551:-1.265022 552:1.1311346 553:-1.1326614 554:1.1939435 555:-0.81001539 556:1.0957339 557:-1.1590153 558:1.1603431 559:-1.0899463 560:0.98516464 561:-0.79467645 562:0.59652075 563:-0.48601691 564:0.36633916 565:-0.2190831 566:0.31182239 567:-0.65724881 568:0.63863085 569:-0.8284712 570:1.2068345 571:-0.77015026 572:0.32790944 573:-0.20516691 574:0.1845699 575:0.011860596 576:0.093609388 577:-0.28248357 578:0.46255753 579:-0.76409192 580:0.73945938 581:-0.77170429 582:0.6427976 583:-0.26725714 584:0.1151041 585:-0.10451735 586:0.052900254 587:-0.1714587 588:0.4419808 589:-0.57140206 590:0.73707199 591:-0.52538664 592:0.36643345 593:-0.15617283 594:-0.0081983741 595:0.10767122 596:-0.10012911 597:0.0552173 598:0.18331539 599:-0.42786934 600:0.52367007 601:-0.72056225 602:0.56992853 603:-0.13910534 604:-0.1474204 605:0.25826063 606:-0.20333373 607:0.12920895 608:0.02668107 609:-0.27962926 610:0.4480332 611:-0.45701321 612:0.46034344 613:-0.22362267 614:-0.25654283 615:0.38244522 616:-0.37670371 617:0.5192984 618:-0.12416797 619:-0.049435937 620:0.13111927 621:-0.17985213 622:0.20044131 623:-0.053729524 624:-0.17675044 625:0.35452991 626:-0.736482 627:0.44798639 628:-0.33694389 629:0.0022714255 630:0.30584693 631:-0.24196463 632:0.11174542 633:-0.12004382 634:-0.082864918 635:0.33908192 636:-0.35801838 637:0.38891072 638:-0.35025118 639:0.022258035 640:0.22168547 641:-0.28011771 642:0.43489161 643:-0.08768269 644:-0.076862234 645:0.18866335 646:-0.51933368 647:0.48865038 648:-0.26960091 649:0.11295355 650:0.085498761 651:-0.44359998 652:0.25792726 653:-0.30388793 654:0.1677376 655:0.18693764 656:-0.24440471 657:0.045758467 658:0.06106731 659:-0.21516286 660:0.54786559 661:-0.84430563 662:1.3219715 663:-1.0834161 664:1.016307 665:-0.91302355 666:0.17949947 667:-0.058268709 668:0.56193889 669:-0.30919409 670:0.2295047 671:-0.90628931 672:0.87191191 673:-0.70867989 674:0.79946185 675:-0.86414712 676:0.32772141 677:-0.11059481 678:0.38813101 679:-0.66840295 680:0.61579504 681:-0.74173359 682:1.1212011 683:-0.84624916 684:0.78648898 685:-0.54803293 686:0.37308051 687:-0.33308497 688:0.34218281 689:-0.33163665 690:0.84357791 691:-1.4412938 692:1.0325056 693:-1.0014229 694:1.0364621 695:-0.79515087 696:0.46935141 697:-0.57422718 698:0.43187194 699:-0.63724146 700:0.81591152 701:-0.83968339 702:1.2936059 703:-1.3182318 704:0.78991557 705:-0.88103358 706:0.85182976 707:-0.44002851 708:0.45872169 709:-0.59959867 710:0.68289777 711:-1.213787 712:1.0544019 713:-0.84058597 714:1.4644564 715:-1.2642848 716:0.61402412 717:-0.80170345 718:0.51763901 719:-0.31860339 720:0.66970128 721:-0.60883941 722:0.76086277 723:-1.0614055 724:0.65908986 725:-0.65707174 726:0.69868494 727:-0.45194955 728:0.51077594 729:-0.41894468 730:0.40889857 731:-0.53607311 732:0.74149721 733:-0.54832915 734:0.64083195 735:-0.64592279 736:0.17807054 737:-0.21058874 738:0.15624407 739:-0.042808862 740:0.3914163 741:-0.36602632 742:0.39376264 743:-0.53671862 744:0.44697472 745:-0.3454197 746:0.2388226 747:0.10728052 748:-0.16468367 749:0.13913031 750:-0.24686187 
0.8800575818103223 1:-0.70127989 2:0.8730071 3:-0.64686544 4:-1.4594691 5:0.081578848 6:1.7195968 7:0.3109735 8:-1.5364897 9:-0.77205534 10:0.80572164 11:0.44680526 12:-1.2486217 13:0.70480695 14:1.1594374 15:0.33299827 16:-1.8217075 17:-1.034664 18:1.1874416 19:1.7521674 20:-1.0748558 21:-1.144288 22:0.19376138 23:0.77474494 24:-1.9271498 25:0.45422221 26:1.2961582 27:1.2583206 28:-1.0787481 29:-1.6649962 30:-0.3601523 31:1.5310949 32:-0.21751362 33:-0.12938156 34:0.11881113 35:0.7593165 36:-1.8653866 37:-0.33776036 38:0.61335586 39:1.7705903 40:-0.016757031 41:-1.1670218 42:-1.1966339 43:0.94957359 44:-0.27662578 45:-0.39735216 46:0.4593268 47:1.5799909 48:-1.4964534 49:-0.95325732 50:-0.027132858 51:0.90583839 52:0.80728487 53:-0.54248658 54:-0.87349384 55:0.76986514 56:-0.18640726 57:-1.2518456 58:0.070348183 59:2.1129738 60:-0.44230306 61:-0.7327945 62:-0.49170526 63:-0.2253756 64:0.920793 65:-0.064349402 66:-0.24476312 67:0.66234823 68:0.1428684 69:-1.4669995 70:-0.63025865 71:1.6230254 72:0.29930645 73:-0.36924728 74:0.24390894 75:-1.0148129 76:0.7269315 77:-0.48615864 78:-0.094234771 79:0.61193365 80:0.99132928 81:-1.2460236 82:-1.2256153 83:0.76745222 84:0.52052723 85:-0.45898042 86:1.286604 87:-1.270409 88:0.67028594 89:-0.77634889 90:-0.84797441 91:0.27511879 92:1.544316 93:-0.17785695 94:-1.19695 95:-0.067069092 96:0.17460145 97:-0.57882027 98:1.6909729 99:-0.74871369 100:0.63652697 101:-0.38649529 102:-1.4269928 103:-0.59993344 104:1.715954 105:0.56237467 106:-0.59646551 107:-0.071214863 108:-0.007312991 109:-1.2060004 110:1.425137 111:-0.56100097 112:0.73416766 113:0.62482867 114:-1.2077334 115:-1.2107059 116:0.49564846 117:0.89072845 118:-0.20548942 119:0.40004525 120:0.12680413 121:-1.1157249 122:0.82659895 123:-0.87370905 124:0.24123712 125:1.6020028 126:-0.57643969 127:-1.1459003 128:-0.71136446 129:0.84499446 130:-0.54985683 131:0.74759401 132:0.40654055 133:-0.84172252 134:0.65617499 135:-0.75400973 136:-0.80193308 137:2.0104247 138:0.39176102 139:-0.14166801 140:-0.97174722 141:0.40493282 142:-1.0688373 143:0.4228531 144:0.73753745 145:-0.39085938 146:0.95807014 147:-0.36084534 148:-2.1315837 149:1.4476853 150:0.31284113 151:0.91676857 152:-0.99485045 153:0.66228886 154:-0.90591934 155:-0.1438568 156:0.27611184 157:-0.62995714 158:1.5681373 159:0.72578881 160:-2.1812822 161:0.10121337 162:0.1773038 163:1.186773 164:-0.080865457 165:0.60125094 166:-0.55495251 167:-0.43796946 168:0.24225236 169:-0.9410914 170:0.64219173 171:2.0698081 172:-2.0082918 173:0.5141037 174:-0.78860573 175:0.66565025 176:-0.72298303 177:0.76562913 178:0.70716378 179:-0.18927356 180:-0.078380476 181:-1.5858496 182:0.41518632 183:2.1577829 184:-0.86626794 185:-0.087384658 186:-0.60754533 187:0.21562745 188:-0.55779692 189:-0.26050815 190:1.1539198 191:0.34094762 192:0.74984089 193:-1.6259069 194:-0.5898537 195:1.6841488 196:-0.44063264 197:0.04068219 198:0.37797882 199:0.2257716 200:-0.29791726 201:-1.3013161 202:0.98669794 203:0.31484052 204:1.484313 205:-1.5285946 206:-0.82423216 207:1.1554282 208:-0.26626477 209:-0.62494144 210:0.62556726 211:0.83685755 212:0.59655158 213:-1.8462392 214:0.35322547 215:-0.24842845 216:2.0280003 217:-0.96989358 218:-0.70562675 219:0.80080772 220:-0.11815057 221:-1.0547481 222:0.031999861 223:0.85442187 224:1.5523335 225:-1.6774815 226:-0.22920851 227:-0.91465844 228:1.6111233 229:-0.26517958 230:-0.86356594 231:1.0978545 232:0.23046297 233:-0.91012424 234:-0.7573109 235:0.064126876 236:2.6090992 237:-0.91583938 238:-0.16437628 239:-0.80291969 240:0.87029321 241:-0.076211445 242:-1.2403007 243:1.2550376 244:0.81084637 245:-0.42001183 246:-1.30302 247:-0.98594734 248:1.6089847 249:-0.37872523 250:-0.28354212 251:1.1826425 252:-1.1567077 253:-0.19133114 254:0.68221794 255:-0.33491846 256:-0.40307121 257:0.1817269 258:1.072438 259:-0.88572704 260:-1.1484318 261:-0.26130866 262:2.1781438 263:-0.5767013 264:-0.37807738 265:-0.69819431 266:0.71295667 267:-0.24322065 268:-0.022497917 269:-0.67184691 270:1.6587861 271:-0.034148536 272:-0.71115417 273:-1.2710431 274:1.9978451 275:-0.37231554 276:0.23842567 277:-0.71660206 278:0.28278878 279:-0.51544119 280:0.50062843 281:-1.0167522 282:1.265808 283:0.11263343 284:-0.12519799 285:-1.2941029 286:1.4687005 287:-0.86754862 288:0.25077194 289:-0.0087195934 290:0.57973254 291:-0.73275518 292:0.17443361 293:-1.2400114 294:1.0706592 295:0.68423767 296:-0.029862038 297:-1.2474501 298:1.6030632 299:-0.52538087 300:-0.45310028 301:0.19993492 302:0.41258573 303:0.11779624 304:0.19256171 305:-1.254478 306:0.13138061 307:1.0724962 308:0.11772001 309:-1.2781413 310:0.98016721 311:-0.16439169 312:-0.73824913 313:0.58101255 314:0.0094552686 315:0.3209502 316:0.15939705 317:-0.61873188 318:-0.43952684 319:1.0795471 320:-0.0419086 321:-0.86302683 322:0.81610957 323:0.2206818 324:-1.3805279 325:0.99916569 326:-0.57796937 327:0.57564823 328:-0.066178345 329:-0.021044157 330:-0.64431543 331:1.0796569 332:-0.18577648 333:-1.0064717 334:0.48627951 335:1.0360045 336:-1.7413984 337:1.0108989 338:-0.84998191 339:0.31787859 340:-0.055121061 341:0.3496766 342:-0.79622727 343:0.93621658 344:0.012298991 345:-0.98278242 346:0.17975025 347:1.2513019 348:-1.6922183 349:1.0647395 350:-0.40613729 351:0.28998642 352:-0.035114274 353:0.15311984 354:-0.91790471 355:0.99573103 356:0.52833362 357:-0.88914432 358:-0.17105279 359:1.5012432 360:-1.8198492 361:0.76557272 362:0.28947485 363:-0.16184764 364:0.11213013 365:-0.37837095 366:-0.44950268 367:0.42980753 368:0.94740304 369:-1.0069769 370:-0.45846361 371:1.2889817 372:-1.6913846 373:0.29618315 374:0.8894695 375:-0.68549798 376:0.6618356 377:-0.50537581 378:-0.25242705 379:-0.093213888 380:1.2584922 381:-0.81814738 382:-0.47912005 383:1.6174943 384:-1.2791016 385:-0.43478686 386:1.1088939 387:-0.84893404 388:1.04113 389:-0.61200288 390:0.019962025 391:-0.66263101 392:1.3240911 393:-0.97842001 394:-0.58362972 395:1.4141912 396:-0.55236715 397:-1.0815954 398:1.480661 399:-1.3055357 400:1.5425824 401:-0.77518511 402:0.74571652 403:-1.1271708 404:1.1379631 405:-0.74547629 406:-0.7203567 407:1.5037111 408:-0.13925839 409:-1.3495068 410:1.5884532 411:-1.2830892 412:0.62213217 413:-0.99176062 414:0.58951466 415:0.11085434 416:0.82243955 417:-0.45909157 418:-1.7568156 419:1.6328299 420:0.87142766 421:-1.6515795 422:1.7012232 423:-1.3649173 424:0.93117475 425:-1.3128119 426:0.47073611 427:0.089812986 428:0.72777883 429:0.14671266 430:-1.8050193 431:1.1258695 432:0.69581258 433:-1.5823874 434:1.1873268 435:-0.56622699 436:0.61954753 437:-0.49355098 438:-0.45986462 439:0.37859497 440:0.0062725804 441:1.2982736 442:-1.899859 443:0.78097279 444:0.62243843 445:-1.2761467 446:0.96263826 447:-0.17366459 448:0.17420661 449:0.082653981 450:-1.1070216 451:0.74174477 452:-0.65172312 453:1.6066373 454:-1.6408842 455:0.74388363 456:0.46268751 457:-1.3037687 458:0.37515078 459:0.40987031 460:-0.042767926 461:0.55988271 462:-1.4353454 463:1.3342926 464:-1.5231696 465:1.9673668 466:-2.0141231 467:0.93983593 468:0.92428808 469:-1.0131825 470:-0.11248045 471:0.48434179 472:-0.1876069 473:0.87332391 474:-1.5334024 475:1.3309601 476:-1.2436645 477:1.2923321 478:-1.282012 479:0.16985918 480:1.2334073 481:-0.80041766 482:-0.17492802 483:0.35204822 484:-0.14378345 485:0.95911837 486:-1.5075507 487:1.2820578 488:-0.69699999 489:0.77644647 490:-0.78571406 491:-0.36439324 492:1.4646935 493:-0.7335277 494:-0.15628563 495:0.25356783 496:-0.11620132 497:0.75319189 498:-1.141806 499:0.945262 500:0.11976885 501:-0.74320037 502:1.0865687 503:-0.39154516 504:-1.4445497 505:-0.019456187 506:1.4288801 507:0.26471171 508:-1.295984 509:-0.18102599 510:0.87942224 511:0.24764596 512:-1.2910075 513:0.77605056 514:0.81532776 515:0.31340417 516:-1.6636874 517:-0.77413455 518:0.75891749 519:1.7406195 520:-1.2255872 521:-0.066416326 522:0.374043 523:0.51348845 524:-2.440602 525:1.0503475 526:1.1543401 527:1.1399368 528:-1.2733527 529:-1.3153376 530:-0.35732223 531:1.8573049 532:-0.63632063 533:-0.16666275 534:0.36345756 535:1.0200798 536:-2.3156422 537:0.1581339 538:0.61931198 539:1.2289719 540:-0.39955749 541:-0.98520374 542:-0.83721659 543:1.3410622 544:-0.51872073 545:-0.59007436 546:0.19315286 547:1.5854023 548:-1.9486284 549:-0.29934174 550:0.38953687 551:0.81073536 552:0.31639914 553:-0.81463368 554:-0.61067961 555:1.2181293 556:0.0074547019 557:-1.4646751 558:-0.22784443 559:1.8756682 560:-0.59849414 561:-0.50763081 562:-0.1346552 563:-0.3658268 564:0.91835741 565:-0.083483712 566:-0.55033762 567:0.68680523 568:0.13274222 569:-1.3462402 570:-0.50909749 571:1.505603 572:-0.061515585 573:-0.37540308 574:0.54329407 575:-1.0690107 576:0.69888686 577:-0.25256189 578:-0.018699483 579:0.46901988 580:0.88070139 581:-1.3366049 582:-0.64976006 583:0.86986633 584:0.22077604 585:-0.75332125 586:1.3810884 587:-1.1871048 588:0.65142141 589:-0.42800169 590:-0.45030464 591:0.1361092 592:1.2520704 593:-0.59032015 594:-0.73386072 595:0.44734033 596:0.077983505 597:-1.0191293 598:1.7627523 599:-1.0044541 600:0.6046989 601:-0.36008914 602:-0.94706087 603:-0.4847773 604:1.5611584 605:-0.015568961 606:-0.52117471 607:0.29678953 608:0.069041907 609:-1.3510858 610:1.7545971 611:-0.71392304 612:0.61661005 613:0.54091302 614:-1.2123357 615:-0.84511998 616:0.72075846 617:0.68440833 618:-0.58751123 619:0.65319528 620:0.19100544 621:-1.2338152 622:1.1794519 623:-0.68971425 624:-0.11921284 625:1.4016453 626:-0.75727458 627:-0.69095719 628:-0.43833923 629:0.68277502 630:-0.92376984 631:0.8592614 632:0.48633981 633:-1.2404641 634:0.76208287 635:-0.4050638 636:-0.9297916 637:1.7553347 638:-0.23010525 639:0.16878411 640:-0.89749054 641:0.714057 642:-1.3699858 643:0.50967164 644:0.87602083 645:-0.79000231 646:0.89358517 647:0.075500179 648:-2.1225694 649:1.6363185 650:-0.22253213 651:0.84793952 652:-1.1037645 653:0.86190643 654:-0.88830805 655:0.039070792 656:0.34163216 657:-0.89753746 658:1.2227139 659:1.0376986 660:-2.4575501 661:0.61710755 662:-0.098252856 663:1.4430401 664:-0.37037974 665:0.3172578 666:-0.62809601 667:-0.12218323 668:0.82641242 669:-1.3954851 670:0.3171051 671:1.9849057 672:-2.0450502 673:0.80888795 674:-0.89778406 675:1.074441 676:-0.64657935 677:0.57797112 678:0.064833667 679:-0.16001219 680:0.71420459 681:-1.5488893 682:-0.10461994 683:1.8261998 684:-1.0349252 685:0.21490719 686:-0.60319669 687:0.26991586 688:-0.43471743 689:-0.30085152 690:0.99135009 691:-0.093161577 692:1.1195904 693:-1.7549857 694:-0.55107559 695:1.8276125 696:-0.54450793 697:-0.1365597 698:0.22308623 699:0.065111015 700:0.19730001 701:-1.2892057 702:0.90765052 703:-0.27298077 704:1.6469845 705:-1.5037752 706:-0.88849413 707:1.2781338 708:-0.27394059 709:-0.55846251 710:0.44603066 711:0.27585722 712:0.90714512 713:-1.7351942 714:0.76563458 715:-0.99191406 716:2.3116712 717:-1.0737958 718:-0.9063539 719:0.83138738 720:0.055255446 721:-0.74093967 722:-0.01961612 723:0.18891233 724:1.5562266 725:-1.8669208 726:0.48379124 727:-1.0291254 728:1.7063902 729:-0.37250852 730:-1.012636 731:0.99911965 732:0.25012638 733:-0.66065705 734:-0.5776833 735:-0.2847682 736:2.3725773 737:-1.0656217 738:0.27097724 739:-0.91397191 740:1.0617007 741:0.027238311 742:-1.2976986 743:1.1182524 744:0.61116656 745:-0.41062716 746:-0.80324407 747:-0.91570394 748:1.6544008 749:-0.78523702 750:-0.33369966 
0.8297440314417266 1:-1.4750019 2:-0.75372838 3:0.048128962 4:0.18971238 5:-0.23427813 6:-0.42972016 7:0.084334915 8:0.22496569 9:0.61334255 10:-1.172084 11:0.17653478 12:-0.11530557 13:1.3600045 14:-0.62921993 15:0.33490358 16:-0.28416611 17:0.65392556 18:-1.2301629 19:0.26461455 20:-0.65830105 21:1.4785589 22:-1.5853403 23:0.27038536 24:-0.56997716 25:1.9751087 26:-0.48171689 27:0.54818001 28:-0.52125544 29:1.1619547 30:-0.98807185 31:0.14101628 32:-0.75145063 33:0.92117696 34:-0.87017994 35:-0.031789311 36:-0.60172244 37:1.602224 38:0.20591553 39:0.60892668 40:-0.39518273 41:0.81443007 42:-0.44842295 43:-0.14025738 44:-0.71426595 45:0.46310877 46:-0.58270737 47:-0.53011757 48:-0.54118469 49:0.78757865 50:1.1523386 51:0.3205145 52:0.089205152 53:-0.0065705912 54:0.55292366 55:-0.60738346 56:-0.16515565 57:-0.55598472 58:0.088622407 59:-1.0728446 60:-0.27052243 61:-0.037337393 62:1.4196564 63:0.18972569 64:0.59219032 65:-0.67485216 66:1.3090223 67:-0.68192442 68:0.13656613 69:-0.90136206 70:0.4940058 71:-1.2172707 72:-0.32834512 73:-0.72628706 74:1.6311211 75:0.25818581 76:1.0776325 77:-0.96964845 78:1.0767864 79:-0.43347437 80:0.40276244 81:-1.0580986 82:0.36118809 83:-1.1675413 84:-0.39970959 85:-1.2713062 86:1.4717451 87:0.64804552 88:1.3445168 89:-0.60168336 90:0.70245366 91:0.0038493683 92:0.31958349 93:-0.54192171 94:-0.080767979 95:-0.67782336 96:-0.60356114 97:-1.0776363 98:0.35058614 99:0.9579281 100:1.0596574 101:0.17294664 102:0.038006339 103:0.60783681 104:0.22123499 105:-0.080602471 106:-0.59708565 107:-0.22402403 108:-0.87442796 109:-0.84833224 110:-0.73024027 111:1.3238154 112:0.81531102 113:0.98013878 114:-0.70160641 115:0.9132502 116:-0.035557199 117:0.78335688 118:-0.86342542 119:0.12933351 120:-1.1152099 121:-0.40498357 122:-1.5570786 123:1.3803454 124:0.80930346 125:1.4506315 126:-1.0127807 127:0.98462164 128:-0.19204707 129:1.4329983 130:-1.0295417 131:0.19357401 132:-1.1310169 133:-0.44979704 134:-1.3988465 135:0.45695385 136:0.62352996 137:1.5900743 138:-0.3605534 139:0.6280592 140:0.14700943 141:1.0945714 142:-0.22897847 143:-0.059404632 144:-0.79364363 145:-0.7080605 146:-1.5603314 147:-0.44347054 148:0.78226168 149:1.3732423 150:0.27569467 151:-0.28673648 152:0.20525338 153:0.90774848 154:1.0085403 155:-0.41971101 156:-0.34744333 157:-1.425234 158:-0.65455665 159:-1.0268519 160:0.88980454 161:0.35638393 162:1.6688741 163:-1.0403076 164:1.0087739 165:-0.21074034 166:1.8738272 167:-0.47276519 168:0.57525764 169:-1.4382256 170:-1.0081972 171:-1.8593032 172:0.45404419 173:0.88833036 174:1.6867245 175:-1.0948227 176:0.12156263 177:-0.013057963 178:2.0264928 179:-0.19781842 180:0.33138579 181:-1.2308248 182:-0.12553761 183:-1.6407145 184:0.363343 185:-0.0084616629 186:2.0393354 187:-0.71788577 188:-0.073854406 189:-0.30422615 190:1.7055062 191:0.72637879 192:0.30076198 193:-0.73395393 194:-0.42641324 195:-1.196388 196:-0.33755755 197:0.16174965 198:1.1103501 199:0.22950624 200:-0.59189819 201:-0.1881051 202:0.82117957 203:1.4264147 204:0.086221682 205:-0.40498939 206:-0.80857428 207:-0.51463834 208:-0.66257107 209:0.28930988 210:0.33050464 211:1.2708306 212:-1.2361481 213:0.1002083 214:-0.2144003 215:2.4741248 216:0.14744863 217:-0.018129829 218:-1.1769271 219:-0.0043299663 220:-0.9248537 221:0.50143922 222:-0.32960979 223:1.6290026 224:-1.0681758 225:0.022762644 226:-0.86799291 227:2.2253473 228:0.45313679 229:0.504483 230:-1.3028627 231:0.051734915 232:-1.1268274 233:0.64827862 234:-0.30813718 235:1.691651 236:-0.75589535 237:-0.39785881 238:-1.1495326 239:1.2089117 240:0.89921188 241:0.71211508 242:-0.86854863 243:-0.22012022 244:-0.70813307 245:0.29239914 246:0.15314521 247:0.90474605 248:0.19819224 249:-0.82664314 250:-1.2290045 251:1.0367977 252:1.2032042 253:0.075086921 254:-0.89828442 255:-0.17534994 256:0.88211848 257:0.33997979 258:-0.82212223 259:-0.27495097 260:1.0393553 261:0.31248204 262:-0.83383448 263:-0.9926474 264:0.28295199 265:0.27287646 266:-0.4111985 267:-0.4899174 268:0.87425668 269:0.57936405 270:-0.11523069 271:-0.43330282 272:0.66006175 273:0.67038133 274:-0.3738607 275:-1.1230606 276:-0.56367204 277:0.27326127 278:-0.37136325 279:-0.74895949 280:0.44125203 281:0.83128956 282:0.27996412 283:-0.35265443 284:0.42959503 285:0.89839603 286:-0.017505522 287:-1.0921712 288:-0.93590681 289:-0.010464248 290:-0.029287209 291:-0.82397285 292:-0.091675894 293:0.85257232 294:0.62402133 295:0.14981132 296:0.31354852 297:0.92247572 298:0.50100304 299:-0.72231741 300:-1.338847 301:-0.474597 302:0.042815582 303:-0.48751313 304:-0.62554494 305:0.51920671 306:0.78338561 307:0.49616841 308:0.13463072 309:1.0090288 310:0.64289131 311:-0.31498373 312:-1.203781 313:-0.84281838 314:-0.033126457 315:-0.29878664 316:-0.77692498 317:0.083119198 318:0.73635586 319:0.73351829 320:0.14648579 321:0.68951768 322:0.94858263 323:0.0043792345 324:-1.1939608 325:-1.3317624 326:-0.57175656 327:0.13414357 328:-0.77339166 329:-0.3156543 330:0.28448795 331:0.789697 332:0.35804493 333:0.62060211 334:0.94690732 335:0.62868421 336:-0.81959911 337:-1.3934052 338:-1.1171459 339:-0.094860961 340:-0.35547589 341:-0.69137549 342:-0.12411389 343:0.49478777 344:0.59040409 345:0.51636313 346:0.95484949 347:0.84469064 348:-0.13450847 349:-1.4734271 350:-1.4062601 351:-0.31662344 352:-0.079149703 353:-0.79226095 354:-0.57737295 355:0.2967271 356:0.65285178 357:0.47703997 358:0.88041373 359:1.2129813 360:0.51647252 361:-1.0973966 362:-1.5454852 363:-0.83948586 364:0.15780557 365:-0.64345265 366:-0.68855023 367:-0.26012467 368:0.46728479 369:0.53481326 370:0.87893006 371:1.0004691 372:1.1826778 373:-0.81049398 374:-1.7747917 375:-1.5013157 376:0.010816926 377:-0.23591779 378:-0.81529006 379:-0.53211147 380:0.12550634 381:0.48060957 382:0.81850447 383:1.2694832 384:1.2728543 385:0.00027262548 386:-1.6853034 387:-1.4929348 388:-0.31949605 389:0.13079678 390:-0.98643161 391:-1.0051428 392:-0.11628942 393:0.49702426 394:0.80854307 395:0.94229175 396:1.6503518 397:0.67639397 398:-1.1738955 399:-1.5901165 400:-0.84279376 401:0.53526345 402:-0.48145066 403:-1.5240255 404:-0.82348468 405:0.26653652 406:0.72087984 407:1.0674977 408:1.4176353 409:1.1187549 410:-0.45387193 411:-1.4573315 412:-1.7002438 413:0.66105708 414:-0.39934772 415:-0.53499974 416:-1.6899426 417:-0.15607076 418:0.084200533 419:1.1275028 420:1.8709971 421:1.4141807 422:0.17571975 423:-1.738673 424:-1.5315962 425:0.49414391 426:0.685882 427:-0.60863817 428:-1.7981389 429:-0.7479094 430:0.29869766 431:0.86749033 432:1.1426522 433:1.4351489 434:0.50808958 435:-0.88171571 436:-1.809254 437:-0.11091769 438:0.95164715 439:0.035856626 440:-1.7343231 441:-1.5151143 442:-0.12188194 443:0.62635755 444:1.1341368 445:1.0393541 446:0.83220277 447:-0.67704002 448:-1.4842889 449:-0.70127607 450:1.0455492 451:0.48907476 452:-1.1951553 453:-1.7920789 454:-0.38071166 455:0.43632707 456:0.76615358 457:0.88609731 458:0.82752041 459:-0.13148344 460:-1.3366075 461:-1.0128827 462:0.81108446 463:1.0736814 464:-0.57091796 465:-2.4309784 466:-1.20554 467:0.40419523 468:0.94437481 469:0.64047125 470:0.68663409 471:0.19641833 472:-0.85049375 473:-1.046772 474:0.29102239 475:1.131706 476:0.56733585 477:-1.8023234 478:-1.3976158 479:-0.25890748 480:0.93627933 481:0.59112725 482:0.59527954 483:0.18077744 484:-0.44032799 485:-1.2002575 486:0.02469165 487:1.0364471 488:1.4605481 489:-1.2276584 490:-1.5730143 491:-0.49678707 492:0.6387728 493:0.77651223 494:0.3484085 495:0.22945092 496:-0.35176926 497:-0.88638935 498:-0.29846271 499:0.8221371 500:1.6906111 501:-1.1258793 502:-1.0614252 503:0.0408055 504:0.43205753 505:-0.12407662 506:-0.73140259 507:0.039830593 508:0.27818661 509:0.67879423 510:-1.132392 511:0.11221724 512:0.27043704 513:1.1743735 514:-0.73582328 515:0.23125649 516:-0.18088456 517:0.60785888 518:-1.2832924 519:0.094468088 520:-0.51404569 521:1.3291982 522:-1.6376065 523:0.059992105 524:-0.38359005 525:2.1226994 526:-0.31780176 527:0.45383562 528:-0.42246421 529:1.2003534 530:-1.1202709 531:-0.074898248 532:-0.81150977 533:0.73034726 534:-0.97199679 535:-0.27780365 536:-0.46775971 537:1.468753 538:0.27581918 539:0.4930691 540:-0.30648586 541:1.0617623 542:-0.48300614 543:-0.31762224 544:-0.76792727 545:0.42259277 546:-0.74168021 547:-0.67776837 548:-0.76078183 549:0.94970937 550:1.144867 551:0.45159163 552:0.0015533876 553:0.20344619 554:0.68305287 555:-0.55749171 556:-0.30072643 557:-0.42782808 558:-0.055427711 559:-1.0101634 560:-0.47002699 561:0.051203905 562:1.4727399 563:0.46820575 564:0.57574343 565:-0.24727019 566:0.77702452 567:-0.51872259 568:-0.31589959 569:-0.81939329 570:0.40727055 571:-1.1948943 572:-0.53312483 573:-0.62884514 574:1.4575353 575:0.55576598 576:0.95802187 577:-0.58829629 578:0.92720992 579:-0.31729292 580:0.20030648 581:-1.1581133 582:0.25721677 583:-1.0186567 584:-0.5735926 585:-1.1949029 586:1.1392728 587:0.88785894 588:1.4006812 589:-0.23418837 590:0.70953228 591:0.1411533 592:0.29428656 593:-0.65884343 594:-0.22107818 595:-0.72107476 596:-0.80935886 597:-1.1292317 598:0.23412769 599:1.3331231 600:1.3855885 601:0.27837793 602:0.15610365 603:0.7441928 604:0.34297025 605:-0.16856379 606:-0.59303587 607:-0.25282962 608:-0.95309459 609:-0.93784521 610:-0.6646262 611:1.4939569 612:1.3356271 613:1.1931839 614:-0.70085087 615:0.99963123 616:0.24864608 617:0.89573737 618:-0.85364518 619:-0.11038466 620:-1.1031208 621:-0.63869401 622:-1.4450884 623:1.2827657 624:1.1615377 625:1.625352 626:-0.94512478 627:0.98561542 628:0.19199599 629:1.4070383 630:-0.76058753 631:-0.038654429 632:-1.029273 633:-0.80083459 634:-1.4447823 635:0.37385199 636:0.91506861 637:1.7432014 638:-0.34644403 639:0.47659117 640:0.31391848 641:1.4161056 642:0.013420356 643:-0.18799116 644:-0.91542767 645:-0.93023461 646:-1.741147 647:-0.56257934 648:1.0069113 649:1.5871412 650:0.42425015 651:-0.44482832 652:0.31420634 653:0.97943252 654:1.0438462 655:-0.38009217 656:-0.41082826 657:-1.3570775 658:-1.0238557 659:-1.1710399 660:0.7978299 661:0.98270422 662:1.9006329 663:-1.0646133 664:0.81268394 665:0.061915768 666:2.0826272 667:-0.28923932 668:0.32852833 669:-1.5873467 670:-1.157249 671:-1.7789542 672:0.46179254 673:1.2621371 674:1.8270471 675:-1.1090767 676:0.03243094 677:0.2557605 678:2.10252 679:0.12839757 680:0.11768593 681:-1.2479042 682:-0.51923935 683:-1.5711991 684:0.085519969 685:0.22229422 686:2.1525772 687:-0.59581655 688:-0.41588454 689:-0.23347348 690:1.9058487 691:0.99485216 692:0.18850614 693:-0.933815 694:-0.60823403 695:-1.3544409 696:-0.42961484 697:0.13691911 698:1.4052903 699:0.41506339 700:-0.65999094 701:-0.26627186 702:0.98146331 703:1.7064663 704:0.12816724 705:-0.4994058 706:-0.94688267 707:-0.70107017 708:-0.81968969 709:0.20737656 710:0.62672485 711:1.3708639 712:-1.2229165 713:-0.13115382 714:0.090555273 715:3.0543163 716:0.4909458 717:-0.23269291 718:-1.1786643 719:-0.20473334 720:-0.84605694 721:0.43328363 722:-0.025877072 723:1.568806 724:-1.1052984 725:-0.46093068 726:-0.74965699 727:2.2355732 728:0.91825116 729:0.3924635 730:-1.2572724 731:-0.11881971 732:-0.94178605 733:0.59239076 734:-0.1103137 735:1.6703868 736:-0.68189314 737:-0.62664637 738:-1.1568487 739:1.4075055 740:1.3606078 741:0.68207035 742:-0.87257692 743:-0.35406708 744:-0.64195243 745:0.2647738 746:0.25643138 747:0.97048258 748:0.25640491 749:-1.0401955 750:-1.5179528 
0.9614101847215731 1:1.712294 2:-0.90685555 3:-0.29292601 4:0.76525945 5:-0.387008 6:-0.44604006 7:-0.071725203 8:0.7867884 9:-0.14484135 10:0.45776538 11:-1.4262017 12:1.7435428 13:-0.97023539 14:0.57793583 15:-0.90606216 16:0.28921655 17:0.83957358 18:-0.53838706 19:-1.0796331 20:1.5945409 21:-1.5770766 22:2.6771702 23:-2.8298108 24:1.6872775 25:-0.023120068 26:0.32133422 27:-0.35693628 28:-0.4851016 29:0.85322848 30:0.84604142 31:-1.7753827 32:1.3133718 33:-0.9849223 34:1.5904775 35:-1.1213293 36:-0.38667455 37:1.0985566 38:0.079151904 39:-0.11604884 40:-0.65701535 41:0.14207363 42:1.564694 43:-0.96203268 44:-0.056249109 45:-0.18426953 46:0.94864617 47:0.035265793 48:-1.1372146 49:0.58367364 50:0.64787294 51:0.17742236 52:-0.96824455 53:0.27262427 54:0.1872426 55:1.0323147 56:-1.2156125 57:0.10062394 58:0.57258994 59:0.29447987 60:-0.44218481 61:-0.35103253 62:0.17009402 63:1.1440806 64:-1.9682855 65:1.0874995 66:-0.79215083 67:1.1572503 68:-0.35104178 69:-1.131822 70:1.2139985 71:-0.19213586 72:0.15417791 73:-0.41180036 74:-0.45320272 75:1.6113834 76:-0.81874803 77:-0.42944518 78:0.14287822 79:-0.24178206 80:1.5634325 81:-2.1999434 82:1.1067973 83:-0.28086911 84:0.65176386 85:-0.68848553 86:-0.56019941 87:0.60690711 88:1.0887825 89:-2.0044959 90:0.99239583 91:-1.0711545 92:1.9110041 93:-1.4986396 94:0.44545586 95:-0.52397061 96:1.131338 97:-1.0799093 98:0.44953853 99:-0.97625061 100:1.9611806 101:-1.4753242 102:0.56058666 103:-1.245731 104:1.8292336 105:-1.1210621 106:0.80169459 107:-1.4431775 108:1.5679157 109:-0.87533715 110:0.25362408 111:-0.8614072 112:0.69655129 113:0.58594497 114:-0.70145731 115:-0.89910914 116:1.0749223 117:-0.56092346 118:0.97288936 119:-1.4618501 120:0.59252397 121:0.68174971 122:-1.102665 123:0.65849799 124:-1.2596703 125:1.4110364 126:-0.27730647 127:-1.2472881 128:0.40240208 129:0.34364918 130:0.51978238 131:-0.17597259 132:-1.2726234 133:1.9465864 134:-1.4758723 135:1.0718933 136:-1.5084425 137:1.4471928 138:-0.019218581 139:0.018209904 140:-1.2231944 141:1.3789134 142:-1.0417455 143:1.2571214 144:-2.2257259 145:1.7890074 146:-1.1216152 147:1.4836495 148:-1.7996975 149:1.2244257 150:-0.55626776 151:1.373425 152:-2.0931201 153:1.0289573 154:0.01736789 155:0.94997393 156:-1.0800768 157:0.001813772 158:0.075062218 159:1.2604878 160:-1.6397986 161:0.45053922 162:-0.20079722 163:1.1918293 164:0.020426344 165:-2.1598825 166:1.5656457 167:-0.14581343 168:0.42132785 169:-0.23546761 170:-1.1378582 171:1.7784125 172:-1.1844899 173:0.13053204 174:0.48243987 175:-0.73595331 176:1.6908356 177:-2.4531171 178:1.6244436 179:-0.36260059 180:0.50396466 181:-0.51807424 182:-0.53869012 183:0.66073651 184:1.0080422 185:-1.6686297 186:1.4187982 187:-1.7999636 188:2.6944295 189:-1.8356168 190:0.059613344 191:0.15606185 192:0.8464944 193:-0.51078543 194:-0.22051654 195:-0.21804333 196:1.1583717 197:-1.0438536 198:0.017131516 199:-0.42589253 200:1.0086873 201:-0.073587447 202:-0.64664933 203:-0.2325155 204:0.65376724 205:-0.023613761 206:-0.59623305 207:0.17177248 208:-0.08823268 209:1.4002414 210:-2.022862 211:0.31298085 212:0.021529612 213:0.94266942 214:-0.60609454 215:-0.27254741 216:-0.64044887 217:1.8436938 218:-2.3809774 219:1.30882 220:-1.7462379 221:2.468687 222:-1.9871088 223:0.031180377 224:-0.37668773 225:1.2507702 226:-0.68648734 227:0.88538502 228:-2.1195461 229:2.7053016 230:-2.4570781 231:1.3294025 232:-2.0015323 233:1.6828568 234:-0.26890342 235:-0.33425238 236:-1.1775019 237:1.0930363 238:-0.77686853 239:1.4630602 240:-2.4729157 241:1.8497908 242:-0.59287083 243:0.31449062 244:-1.0929052 245:0.65145945 246:0.45841966 247:0.16674397 248:-0.74739271 249:0.18828444 250:0.70005149 251:-0.67445127 252:-0.26879912 253:0.002115004 254:0.049747386 255:0.23216473 256:-0.42304027 257:0.054925167 258:-0.00088901801 259:0.21466077 260:-0.44967588 261:0.20617732 262:0.22834179 263:-0.31763779 264:-0.18688053 265:0.27555306 266:-0.20447961 267:0.31695321 268:-0.61905596 269:0.32661777 270:0.22595049 271:-0.40907037 272:0.0680357 273:0.039021871 274:0.061540584 275:0.31001783 276:-0.67944652 277:0.58092387 278:-0.61989135 279:0.54201344 280:-0.27179248 281:0.10298291 282:0.20168847 283:-0.2660962 284:-0.037147507 285:0.09190099 286:-0.18468077 287:0.48496661 288:-0.41818058 289:0.38054741 290:-0.2856181 291:0.024621883 292:-0.24024101 293:0.099506421 294:-0.11568074 295:0.43610003 296:-0.28765466 297:0.15170008 298:-0.10672431 299:0.37520703 300:-0.36552311 301:0.30984715 302:-0.14966873 303:0.14892193 304:-0.51012404 305:0.28477555 306:-0.40492618 307:0.63528816 308:-0.38481031 309:0.10847841 310:-0.11922837 311:0.21727512 312:-0.23439505 313:0.46429103 314:-0.43820863 315:0.75290403 316:-1.0102359 317:0.65850964 318:-0.53583949 319:0.57107557 320:-0.46344819 321:0.36777359 322:-0.41537337 323:0.3199157 324:-0.71663164 325:0.92318187 326:-1.1660628 327:1.5105403 328:-1.3780214 329:0.85242742 330:-0.80028853 331:0.68262142 332:-0.52704294 333:0.67331809 334:-0.74769954 335:0.85662542 336:-0.92404631 337:0.82320399 338:-1.2224301 339:1.3064516 340:-1.0641288 341:0.88243604 342:-0.9219807 343:0.80653849 344:-0.78503646 345:0.72607013 346:-0.69596855 347:0.63918058 348:-0.69184446 349:0.78112994 350:-0.83134957 351:1.2005313 352:-1.0186303 353:0.93907661 354:-0.86852926 355:0.69981633 356:-0.4650549 357:0.2580659 358:-0.12336563 359:0.13328001 360:-0.10731564 361:0.32364589 362:-0.28085946 363:0.10243227 364:-0.099596993 365:0.13186536 366:0.17076689 367:-0.30073406 368:0.22538984 369:-0.24323781 370:0.23044209 371:-0.26310921 372:0.22331428 373:0.02474544 374:0.2345203 375:-0.45569006 376:0.44504638 377:-0.62974794 378:0.89641823 379:-0.59666048 380:0.55271305 381:-0.52852453 382:0.63395344 383:-0.56110492 384:0.38484326 385:-0.54566838 386:0.91294086 387:-1.1605336 388:1.4287632 389:-1.3885047 390:1.2089009 391:-1.1465497 392:1.0500837 393:-0.87845639 394:0.79312124 395:-0.8960776 396:0.79813132 397:-0.77781303 398:0.91991348 399:-0.67829725 400:0.81736141 401:-0.91767878 402:0.79150964 403:-0.66449174 404:0.48521279 405:-0.51435188 406:0.51105218 407:-0.36440166 408:0.30370944 409:-0.36003813 410:0.33294088 411:0.087819547 412:-0.44163894 413:-0.14194955 414:-0.31744077 415:0.61611971 416:0.32329931 417:-0.47226386 418:-0.296587 419:0.083218038 420:0.31458705 421:0.17754111 422:-0.063944322 423:-0.0093999559 424:-0.18729683 425:0.059028439 426:0.035937637 427:0.26927039 428:-0.3555074 429:0.5497001 430:-0.73008606 431:0.53161957 432:-0.29698019 433:0.37661779 434:-0.28179381 435:0.10938181 436:0.1335933 437:-0.075629685 438:-0.19312864 439:0.34723089 440:-0.15700546 441:0.26962481 442:-0.56854086 443:0.2645646 444:-0.045521328 445:0.036673623 446:0.20177817 447:-0.43629451 448:0.30940607 449:-0.34082234 450:0.25690362 451:-0.29923477 452:0.53743106 453:-0.528739 454:0.54133573 455:-0.52758593 456:0.25879024 457:-0.26607392 458:0.42985106 459:-0.55133354 460:0.52457848 461:-0.73197138 462:0.97218758 463:-1.4701954 464:1.6106961 465:-1.5945444 466:1.5413546 467:-1.2176995 468:0.92741297 469:-0.6139093 470:0.83032677 471:-1.0480752 472:1.4018517 473:-1.3411941 474:1.2316413 475:-1.3210452 476:1.5647921 477:-1.3406083 478:1.10345 479:-1.1057973 480:0.81711144 481:-0.68290284 482:1.1670192 483:-1.0772245 484:1.0998135 485:-1.2159667 486:1.1208013 487:-1.0337169 488:1.1745341 489:-0.7229319 490:0.65809121 491:-0.42822172 492:0.32821635 493:-0.41344058 494:0.51767417 495:-0.6358834 496:0.60676849 497:-0.50714897 498:0.33663168 499:-0.30541594 500:-0.009546223 501:2.3424718 502:-0.82939668 503:-0.40745223 504:0.85848458 505:-0.2143005 506:-0.54025702 507:-0.23082648 508:0.9083599 509:-0.15012126 510:0.52811044 511:-1.5297539 512:1.9286485 513:-0.77088812 514:-0.0087368869 515:-0.71077998 516:0.58401752 517:0.34377016 518:-0.52228235 519:-1.0817784 520:1.7457436 521:-1.5369563 522:2.5846295 523:-2.408276 524:1.6632768 525:0.061063533 526:0.25347274 527:-0.40732977 528:-0.26947952 529:0.6655601 530:0.6402029 531:-1.7750897 532:1.1211027 533:-1.2710734 534:1.9699146 535:-1.5496719 536:-0.095366181 537:0.78170718 538:-0.098063477 539:-0.14834421 540:-0.38358003 541:0.22054062 542:1.1474335 543:-0.85094003 544:-0.027649407 545:-0.044421801 546:0.53064433 547:-0.11180694 548:-0.91242104 549:0.40931589 550:0.58211785 551:-0.064010131 552:-0.63427516 553:0.23675512 554:0.11377594 555:0.88234467 556:-0.841234 557:-0.064818621 558:0.56761692 559:0.18379083 560:-0.33264334 561:-0.31222286 562:0.15046903 563:0.86031276 564:-1.3193145 565:0.72722603 566:-0.54560732 567:0.79229123 568:-0.35512962 569:-1.1169066 570:1.4528362 571:-0.29216303 572:0.13480295 573:-0.43889294 574:-0.12053006 575:0.9041049 576:-0.38867465 577:-0.40503034 578:0.23797285 579:-0.44774056 580:1.6309802 581:-2.2117451 582:1.2603682 583:-0.41524666 584:0.78725849 585:-0.69687892 586:-0.29012284 587:0.17516394 588:1.2723365 589:-1.9453059 590:1.1704017 591:-1.0650544 592:1.829894 593:-1.5982902 594:0.64845344 595:-0.68844647 596:1.1505544 597:-1.0392073 598:0.49831 599:-1.059201 600:1.9026906 601:-1.5501073 602:0.77042461 603:-1.186678 604:1.684524 605:-1.0906083 606:0.7841858 607:-1.0747097 608:1.1954495 609:-0.58986822 610:0.34195542 611:-0.89817188 612:0.78675232 613:0.45231396 614:-0.55845464 615:-1.015207 616:1.1653209 617:-0.33140261 618:0.60469182 619:-1.0842637 620:0.36326985 621:0.62401879 622:-1.0185019 623:0.72206482 624:-1.1111473 625:1.4334138 626:-0.63323609 627:-0.75323623 628:0.15152924 629:0.33290585 630:0.27062664 631:0.013668413 632:-1.0433922 633:1.7547793 634:-1.3578235 635:1.2470095 636:-1.4850462 637:1.4404368 638:-0.47000094 639:0.64408712 640:-1.7069896 641:1.6226388 642:-1.0501311 643:1.2393184 644:-2.1538429 645:1.4034553 646:-1.0264394 647:1.4029708 648:-1.8769311 649:1.298523 650:-0.68098947 651:1.4756442 652:-2.0416115 653:0.87754657 654:-0.10287006 655:0.79721038 656:-0.90664317 657:0.14843483 658:-0.25479746 659:1.2528847 660:-1.6385877 661:0.70635503 662:-0.26459296 663:1.128047 664:0.035912017 665:-1.7773709 666:1.1235048 667:0.11552526 668:0.34941113 669:-0.38691868 670:-0.74383306 671:1.2911399 672:-0.79490064 673:-0.15748949 674:0.52370479 675:-0.66349808 676:1.6854758 677:-2.2280747 678:1.4272164 679:-0.49804779 680:0.53930487 681:-0.56337291 682:-0.16559351 683:0.29500456 684:0.90073935 685:-1.5142583 686:1.3394416 687:-1.4778987 688:2.338656 689:-1.488666 690:0.12222235 691:-0.013489047 692:0.7089913 693:-0.39508144 694:-0.2226351 695:-0.13621895 696:0.89887917 697:-0.89249165 698:-0.11875171 699:-0.3514368 700:0.98003782 701:0.033260787 702:-0.91685349 703:-0.041882302 704:0.37174485 705:0.13758702 706:-0.62708448 707:0.27424966 708:-0.22020122 709:1.2381018 710:-1.7924862 711:0.53399618 712:-0.22579126 713:1.1391406 714:-0.94590488 715:0.34123974 716:-0.93049954 717:1.657999 718:-2.3019664 719:1.3348812 720:-1.5492085 721:2.2673227 722:-1.9014046 723:0.54293168 724:-0.80166693 725:1.4896172 726:-0.92377686 727:1.3569297 728:-2.3258033 729:2.3611942 730:-2.1850102 731:1.2827127 732:-1.9886773 733:1.801795 734:-0.42315833 735:0.048547378 736:-1.4517261 737:1.1481166 738:-0.8270963 739:1.2227293 740:-2.2197893 741:1.7284796 742:-0.73407014 743:0.38313515 744:-1.0412935 745:0.78930273 746:0.2527063 747:0.035620902 748:-0.49845277 749:0.20509185 750:0.3315348 
1.124058572706664 1:0.35688396 2:1.6864388 3:0.23805586 4:-1.0592236 5:-0.46898638 6:0.78188007 7:0.060421745 8:-1.5487619 9:-0.34774135 10:1.3820218 11:1.3539785 12:-1.0372583 13:-0.93802683 14:-0.52571544 15:0.63895613 16:-0.088147666 17:0.54036854 18:0.8018807 19:0.93747802 20:-2.1900892 21:-2.3290869 22:0.20081684 23:2.6352819 24:0.20595998 25:-0.18405333 26:-1.4638846 27:-0.32181523 28:-0.11205814 29:0.2528943 30:0.59077091 31:1.4277625 32:-0.22080657 33:-1.7259493 34:-1.0865113 35:0.99863146 36:0.77132049 37:0.66403049 38:-0.14497622 39:-1.0615943 40:0.26956348 41:-0.39602515 42:-0.068289665 43:0.52375003 44:1.2274781 45:-1.1995763 46:-1.1138787 47:0.09885211 48:0.28868257 49:0.099275362 50:0.88497103 51:-1.0454668 52:1.0108314 53:0.3007247 54:-0.16128974 55:-1.2472612 56:0.54626093 57:-0.097433866 58:0.24677035 59:0.42784602 60:0.044940587 61:-0.58245459 62:0.42326941 63:-1.430838 64:0.25093207 65:2.2510272 66:1.4198739 67:-0.80404431 68:-1.13924 69:-0.40794508 70:0.20941438 71:1.4580054 72:0.22749921 73:-0.37859347 74:0.68994912 75:-1.2521096 76:-1.3092752 77:1.1184804 78:1.6752738 79:0.9312286 80:-1.1912505 81:-0.92452496 82:-0.97918109 83:1.6713224 84:0.35892711 85:-0.72801806 86:1.1327456 87:0.24927459 88:-2.1154399 89:-0.002465229 90:0.40453569 91:1.6172671 92:-0.37981245 93:-0.29648452 94:-1.3493736 95:1.1226103 96:0.37392084 97:-1.67123 98:0.35403819 99:1.6140208 100:-0.85984787 101:-0.54699144 102:-0.98133247 103:1.0391203 104:0.24641834 105:-0.56345498 106:-0.96768887 107:0.95508628 108:1.7130147 109:-2.1033586 110:-1.3839631 111:1.1629473 112:0.63743949 113:0.319439 114:-0.36854465 115:-0.28547792 116:0.3602619 117:-0.93817932 118:-0.96337397 119:0.12523867 120:2.9640335 121:-0.65924726 122:-2.259587 123:-0.67893548 124:0.38509793 125:0.49745674 126:0.67860829 127:-0.40796808 128:1.1518882 129:-0.42634184 130:-1.8419771 131:-1.5991146 132:2.6975239 133:1.0478605 134:-1.2661678 135:-0.83737779 136:-0.28361635 137:0.39158674 138:0.59538299 139:-1.1944459 140:0.98768244 141:1.0076212 142:-0.47108796 143:-2.5081764 144:1.0389289 145:1.8738054 146:-0.97112307 147:-0.22790978 148:-0.97301951 149:0.90836749 150:0.77457502 151:-1.2092066 152:-1.1567384 153:1.2630255 154:1.5126839 155:-1.3500215 156:-0.61748547 157:1.4195088 158:-1.3111628 159:0.1030727 160:-0.90128414 161:0.65705837 162:2.5552367 163:-0.14624278 164:-1.9132009 165:-1.2772186 166:1.5674241 167:0.69114351 168:-0.19504302 169:2.226015 170:-2.1017047 171:-0.28671427 172:-1.3877531 173:0.33720023 174:2.8427569 175:1.7061157 176:-1.508496 177:-2.0494391 178:0.32079095 179:1.2488669 180:-0.13310195 181:1.1169811 182:-0.52028804 183:-0.16949506 184:-0.1395175 185:-2.0287043 186:1.6298897 187:2.1234627 188:1.1960678 189:-1.9890843 190:-0.87806344 191:0.59627295 192:-0.18709572 193:0.54340378 194:-0.5500946 195:-0.32809768 196:1.4516492 197:-2.0680648 198:-0.28379601 199:-0.023632967 200:1.6121859 201:-0.56884587 202:-1.0789079 203:0.60695778 204:0.26463258 205:0.24610393 206:-1.0809205 207:-1.5385302 208:2.4559025 209:0.15133574 210:-0.344082 211:-1.0974914 212:0.34540595 213:0.54797535 214:-2.0007678 215:0.71287745 216:1.1134796 217:1.6030519 218:-0.76864813 219:-2.5762818 220:0.98232239 221:1.5550313 222:0.7017465 223:-0.36761274 224:-0.91636792 225:1.2527799 226:-1.8280292 227:-0.47233411 228:0.20879404 229:2.2837503 230:0.90351347 231:-2.4144877 232:-1.4247807 233:1.1702771 234:0.81417693 235:0.54096038 236:-1.705027 237:1.4650367 238:-0.61002341 239:-1.2018879 240:-1.5003013 241:1.2743799 242:2.050544 243:-1.0185324 244:-1.5829885 245:0.49911549 246:1.2562379 247:0.380122 248:-1.8281383 249:0.91824046 250:1.5495799 251:1.4028405 252:-0.94348091 253:-0.16126268 254:0.98852516 255:-0.068399064 256:-0.24778127 257:-0.58479813 258:1.0166564 259:-0.26129929 260:-0.026618095 261:-0.73822077 262:1.3136631 263:-1.3346125 264:0.020819151 265:-0.70933629 266:0.74902481 267:-0.30637246 268:0.69569763 269:-1.0291219 270:0.66169481 271:-0.92626421 272:-0.097501224 273:-0.86471181 274:1.9246922 275:-0.74645333 276:-0.38312366 277:-0.60634812 278:0.066550029 279:-0.02819941 280:0.74071294 281:-0.59159403 282:0.2048059 283:-0.1246836 284:-0.42446195 285:-0.73414844 286:1.1512007 287:0.17145805 288:-0.83784951 289:0.41760106 290:-0.45652006 291:0.060711577 292:-0.12312831 293:0.062383927 294:-0.34843669 295:1.1618267 296:-0.49223067 297:-0.5392163 298:0.59303165 299:0.85048983 300:-1.6025869 301:1.0276723 302:-0.49032883 303:0.25635701 304:-0.80709599 305:0.25337272 306:-0.69389663 307:1.3254334 308:-0.18634922 309:-0.6321802 310:0.22089801 311:1.0533815 312:-1.8010112 313:0.51751914 314:0.36699495 315:0.25261285 316:-0.34154858 317:-0.30929649 318:-0.47930819 319:0.50068052 320:0.24314125 321:-1.0384123 322:0.33671143 323:1.0523357 324:-1.5020399 325:-0.59379483 326:0.8739433 327:0.062819688 328:0.85725376 329:-0.92395351 330:-0.16457136 331:-0.19736166 332:1.0730641 333:-1.5445255 334:0.057432753 335:1.5313518 336:-0.45817845 337:-1.186943 338:1.0483357 339:-0.55792701 340:1.5860737 341:-1.0762321 342:0.023006759 343:-0.57019814 344:1.6991891 345:-1.1963478 346:-0.79475805 347:1.4347634 348:0.32198393 349:-1.5373611 350:0.70487943 351:-0.2816763 352:1.5092063 353:-0.70587563 354:-1.01117 355:-0.40450193 356:1.8726888 357:0.062346556 358:-1.8201686 359:1.1925775 360:0.53763035 361:-1.0460819 362:0.12123162 363:-0.22893521 364:0.72041255 365:0.78063042 366:-1.3133462 367:-0.5306732 368:0.68597483 369:1.4455699 370:-2.3898566 371:0.73517865 372:0.85603059 373:-1.011923 374:-0.18989197 375:-0.053850463 376:0.19375317 377:1.5649118 378:-1.1751368 379:-0.51616857 380:-0.17217272 381:1.9781169 382:-1.9711931 383:0.07033494 384:1.2053507 385:-0.62841383 386:-0.36345787 387:-0.58275942 388:-0.57373436 389:1.9256679 390:-0.28894167 391:-1.1573429 392:-0.74199766 393:2.2093098 394:-0.67784597 395:-1.3119349 396:1.6340937 397:-0.86553086 398:1.0206141 399:-0.36638886 400:-1.2088188 401:0.66882418 402:1.1024888 403:-0.95664819 404:-0.92661475 405:1.0903269 406:0.4907197 407:-1.7327726 408:1.7004517 409:-1.1839007 410:1.0414563 411:0.35252945 412:-1.2710149 413:-0.53878549 414:0.49641386 415:0.51928579 416:-1.0331429 417:0.57563936 418:0.97826101 419:-2.0234017 420:2.0727135 421:-1.1624065 422:0.246208 423:0.75102778 424:-0.69279123 425:-0.24971541 426:0.39198354 427:0.72822531 428:-1.3647035 429:-0.54115942 430:0.91999149 431:-1.0318656 432:1.4396779 433:-0.23742831 434:-1.4619419 435:1.3986734 436:-0.68122879 437:0.73280319 438:-0.84545872 439:1.2822232 440:-0.60175101 441:-0.42218757 442:0.52751276 443:-0.77554839 444:1.0814272 445:0.90110547 446:-2.0882776 447:1.1059204 448:-0.46243288 449:1.2647269 450:-1.4890135 451:0.51601899 452:0.60637207 453:-0.034951069 454:0.57699857 455:-1.0602326 456:0.065522669 457:1.5846263 458:-1.8125819 459:0.6884092 460:0.074755464 461:1.0872744 462:-1.0535278 463:-1.4889285 464:1.4664121 465:0.1458731 466:1.0871109 467:-1.6427396 468:-0.4815282 469:1.5876325 470:-1.0695398 471:-0.56598398 472:0.12385406 473:0.91339691 474:0.87922988 475:-2.209181 476:1.0280736 477:-0.34785897 478:1.7217287 479:-1.3078089 480:-0.79352893 481:1.3079556 482:-0.018949866 483:-1.0716939 484:-0.26652338 485:0.15407815 486:2.0954404 487:-2.1915471 488:0.029072406 489:-0.80455695 490:1.945022 491:-0.10581031 492:-1.9367175 493:1.2172501 494:0.53302161 495:-0.75461302 496:-0.63678594 497:-0.36773708 498:1.9602062 499:-1.270171 500:-1.1407203 501:0.52782833 502:1.9537912 503:0.38984443 504:-1.3155208 505:-0.23974191 506:1.0964819 507:0.29421928 508:-1.7014603 509:-0.24243566 510:1.5220245 511:1.5756717 512:-0.94233573 513:-0.45006698 514:-0.51317635 515:0.57752317 516:-0.62202307 517:0.21679521 518:0.42615985 519:1.1747508 520:-2.7478303 521:-1.9856049 522:-0.0062191632 523:2.4676009 524:-0.14659104 525:0.21260053 526:-1.3113351 527:-0.23030041 528:-0.1129837 529:0.19991133 530:0.27335321 531:1.5095226 532:-0.5664149 533:-2.0323897 534:-0.89348542 535:1.5614536 536:0.73464854 537:0.50329673 538:-0.00031148647 539:-0.98445301 540:0.28113593 541:-0.30905481 542:-0.15167297 543:0.36540059 544:1.1363706 545:-1.1787275 546:-0.68824903 547:0.28389445 548:-0.081435018 549:-0.11674201 550:1.0794133 551:-1.142819 552:1.1132052 553:0.18708575 554:-0.079316123 555:-1.2137906 556:0.55575726 557:-0.51575351 558:0.11152855 559:0.46485761 560:-0.047529576 561:-0.74572478 562:0.88561898 563:-1.4583163 564:0.14762614 565:1.7053447 566:0.73544801 567:-0.61008069 568:-1.1640713 569:-0.50298359 570:0.056919649 571:1.5159199 572:0.096484264 573:-0.68185963 574:0.93674252 575:-0.74987439 576:-1.1973198 577:0.96749588 578:1.1074574 579:1.1251079 580:-1.1998764 581:-0.94426353 582:-1.1487242 583:1.7094865 584:0.4097096 585:-0.97504286 586:0.91254305 587:0.55366434 588:-2.3511942 589:0.237665 590:-0.091985565 591:1.5685161 592:-0.4005336 593:-0.41673114 594:-1.4672028 595:1.3171871 596:0.64078982 597:-1.8319283 598:0.010873405 599:1.848702 600:-1.099938 601:-0.3206523 602:-1.2308939 603:0.94372069 604:0.36041607 605:-0.37368081 606:-1.1254006 607:0.65440692 608:1.8599504 609:-1.7948299 610:-1.0731033 611:1.366364 612:0.59584943 613:0.36793274 614:-0.54243843 615:-0.30750916 616:0.90106263 617:-0.58278623 618:-1.0676138 619:-0.30500207 620:2.8123288 621:-0.67111402 622:-1.9835534 623:-0.43835915 624:0.31798551 625:0.51643674 626:0.53401632 627:-1.0073339 628:1.3816415 629:-0.36605291 630:-1.2687018 631:-1.9011052 632:2.6371225 633:0.83397453 634:-1.4262629 635:-0.61068772 636:-0.35542982 637:0.52695773 638:0.48779787 639:-1.9397606 640:0.78733351 641:1.298436 642:-0.06967305 643:-2.5397678 644:1.1011092 645:1.5973098 646:-1.3465082 647:0.10267831 648:-0.97961795 649:0.94134397 650:0.95689144 651:-1.2141947 652:-1.3859612 653:1.1776362 654:1.5200481 655:-1.3278848 656:-0.50098759 657:1.7092307 658:-1.8433692 659:0.3260723 660:-1.0893877 661:0.72860043 662:2.5955581 663:-0.0098876588 664:-2.1788619 665:-1.1774022 666:1.6878463 667:0.22451977 668:-0.68063595 669:2.1629188 670:-1.9711569 671:0.067280307 672:-1.1378061 673:-0.27515454 674:2.4288451 675:1.5838055 676:-1.5222503 677:-1.9979025 678:0.48803542 679:1.3043854 680:-0.53397649 681:1.2894023 682:-0.84826875 683:0.046413642 684:0.33527269 685:-2.1747658 686:1.4696207 687:1.557882 688:1.4667775 689:-1.8375377 690:-0.64711281 691:0.69939474 692:-0.18311011 693:0.81020352 694:-0.57629623 695:-0.67302722 696:1.8122607 697:-2.2951991 698:-0.007375833 699:-0.17645589 700:1.8095787 701:-0.63933964 702:-1.2834831 703:0.55673676 704:-0.032086611 705:0.56514392 706:-0.89809396 707:-1.7372937 708:2.6411594 709:-0.075934559 710:-0.30255975 711:-1.202617 712:0.49166069 713:0.87269393 714:-2.1237164 715:0.61955136 716:0.62125457 717:1.6267304 718:-0.49466671 719:-2.5793072 720:0.98030423 721:1.4143378 722:0.25093511 723:-0.65471694 724:-1.0132283 725:1.7725395 726:-1.7850396 727:-0.43427896 728:-0.3560931 729:2.0500854 730:0.93065108 731:-2.2291606 732:-1.1862088 733:1.3534859 734:0.82453526 735:0.48361593 736:-2.1351314 737:1.7887292 738:-0.27933597 739:-0.66886499 740:-1.565165 741:1.2027099 742:2.107684 743:-1.1523735 744:-1.5420491 745:0.68181499 746:1.2522629 747:0.6642208 748:-1.8847307 749:1.0725595 750:1.5545597 
0.511892078815176 1:-1.3978682 2:-0.78667026 3:0.058776714 4:0.11665079 5:-0.074992038 6:-0.48842261 7:0.09873572 8:0.057064729 9:0.90370268 10:-1.2392471 11:0.17288765 12:-0.36073184 13:1.6911186 14:-0.56943935 15:0.33067922 16:-0.51185165 17:0.84156374 18:-0.94781445 19:0.17423474 20:-0.91462342 21:1.4202211 22:-0.9996615 23:-0.008749278 24:-0.80777253 25:1.4639881 26:0.38795622 27:0.32910848 28:-0.35668973 29:0.46742432 30:0.039759088 31:-0.16940876 32:-0.441758 33:-0.014870216 34:0.058894781 35:-0.46602447 36:-0.36099082 37:-0.16500278 38:1.3154225 39:0.19103218 40:0.42997169 41:-0.68200341 42:1.0790874 43:-0.38486662 44:0.28866002 45:-1.5027616 46:0.46460188 47:-0.85539369 48:-0.13902367 49:-1.07872 50:1.4102581 51:0.3513275 52:1.0254245 53:-0.83199365 54:0.84354323 55:-0.076887993 56:0.62759086 57:-1.0053314 58:-0.27259461 59:-0.56143016 60:-0.31552891 61:-0.69153237 62:-0.086833697 63:0.72532692 64:0.85603716 65:0.47751866 66:-0.325403 67:0.50840993 68:0.18813593 69:0.5618838 70:-0.97207955 71:-0.12191734 72:-1.0295339 73:-0.04816959 74:-0.81389801 75:0.74214358 76:0.50065746 77:1.1785119 78:-0.65431006 79:0.57431279 80:-0.075958418 81:1.288783 82:-0.78243035 83:-0.11658626 84:-1.2140727 85:-0.29539205 86:-1.1559905 87:0.096965104 88:0.38419371 89:1.7624829 90:0.07360253 91:0.15038811 92:0.042429172 93:1.175395 94:0.5015069 95:-0.38947527 96:-0.66992146 97:-0.90886914 98:-0.4789846 99:-0.78136268 100:0.29855627 101:0.43969887 102:1.699439 103:-0.38664444 104:0.48912928 105:0.1052361 106:1.8367474 107:-0.23583827 108:-0.074266081 109:-1.6151338 110:-0.22054892 111:-1.2813907 112:0.21034672 113:-0.43582488 114:1.5471857 115:-0.081715513 116:0.42651868 117:-0.19472801 118:1.3560761 119:0.56733523 120:0.18257941 121:-1.0377866 122:-0.90299179 123:-1.0948105 124:-0.41489831 125:-0.30393943 126:0.43950349 127:0.85104049 128:-0.017794808 129:0.36281794 130:0.4811964 131:1.5563889 132:0.24070559 133:-0.14913001 134:-1.4123495 135:-0.44575568 136:-0.80295215 137:-0.037308929 138:-0.74539125 139:1.4947237 140:-0.2283302 141:0.624049 142:-0.51933279 143:1.5285332 144:0.75431871 145:0.74661815 146:-1.7376192 147:-0.91793287 148:-1.0581018 149:0.30345818 150:-0.97905511 151:0.36559128 152:-0.27941657 153:0.46926222 154:-0.061484266 155:0.75187402 156:1.138921 157:0.85130263 158:0.083372687 159:-1.1917293 160:-0.58209341 161:-0.71699375 162:0.52064781 163:-0.8895092 164:0.6864905 165:-1.1346475 166:0.53486662 167:-0.39352045 168:2.0207707 169:1.2470223 170:0.88505341 171:-1.5253798 172:-0.80218669 173:-0.88133461 174:0.71298036 175:-0.85378273 176:-0.099295105 177:-0.74178756 178:0.59952504 179:-0.58180899 180:0.84552043 181:0.62296227 182:1.8922065 183:-0.29212067 184:-0.76570125 185:-1.2166993 186:0.088911822 187:0.36925936 188:-0.20087401 189:-0.51123627 190:-0.72812266 191:0.14293607 192:-0.074139117 193:1.1340635 194:0.98028187 195:1.1529614 196:-0.81796063 197:-0.73072252 198:-1.0232253 199:1.1134368 200:-0.2727594 201:0.20546613 202:-1.7397654 203:0.28816872 204:-0.67498712 205:0.99654764 206:0.44965199 207:1.6441451 208:-0.17573021 209:-0.43211875 210:-1.8242906 211:0.78876082 212:0.15378103 213:0.83694694 214:-1.4684833 215:-0.65093976 216:-0.4695779 217:0.16705729 218:0.67330989 219:0.65460367 220:0.70061625 221:-0.33083703 222:-1.1289062 223:-0.59351155 224:0.70126979 225:0.60766552 226:0.13343944 227:-1.908396 228:-0.030419418 229:-0.36631656 230:0.98430647 231:-0.016154084 232:1.0485662 233:-0.23168225 234:-0.14339381 235:-1.5588038 236:0.78842576 237:0.21768055 238:1.2646879 239:-1.6954334 240:-0.37790737 241:-0.70737547 242:0.75813612 243:0.079465106 244:0.48230704 245:-0.097858195 246:0.048750611 247:-1.0081047 248:-0.066971119 249:0.51831904 250:1.3352759 251:1.0095016 252:1.1753574 253:0.17812396 254:-0.93036538 255:-0.25419296 256:0.74416111 257:0.6214427 258:-0.82154518 259:-0.38699376 260:0.7669831 261:0.62374353 262:-0.70353435 263:-1.0783964 264:-0.1035301 265:0.5340285 266:-0.28487664 267:-0.60299745 268:0.2207922 269:0.78521548 270:0.22567085 271:-0.42246319 272:0.06528648 273:0.87930364 274:0.26984443 275:-0.89260599 276:-1.2414037 277:0.060051753 278:0.053299478 279:-0.56824275 280:-0.3180517 281:0.4411565 282:0.85282442 283:0.067779558 284:-0.047267982 285:0.54907387 286:0.77922258 287:-0.247169 288:-1.1390218 289:-0.91603759 290:0.19916045 291:-0.33718189 292:-0.44160714 293:-0.38803192 294:0.79476032 295:0.77140202 296:0.40887708 297:0.20669528 298:1.0129189 299:0.47296521 300:-0.59730977 301:-1.5054443 302:-0.45838094 303:-0.12072239 304:-0.15141681 305:-0.77584077 306:-0.041489294 307:0.78483738 308:0.7104963 309:0.35955345 310:0.56719416 311:0.84335704 312:0.2948115 313:-1.0309682 314:-1.2207831 315:-0.55740985 316:0.060766221 317:-0.44830861 318:-0.83724548 319:0.094109597 320:0.622258 321:0.64098163 322:0.50636972 323:0.61866693 324:0.57496289 325:-0.27980864 326:-1.6136121 327:-1.1076148 328:-0.32784061 329:0.075832151 330:-1.0146541 331:-0.64218737 332:0.11487643 333:0.86786877 334:0.64473512 335:0.74470401 336:0.77618941 337:0.42434043 338:-1.0525097 339:-1.772893 340:-0.87677049 341:0.18736181 342:-0.50026113 343:-1.533927 344:-0.66030626 345:0.40052257 346:0.89261581 347:0.71715056 348:0.85532228 349:0.77904705 350:0.057976857 351:-1.4652152 352:-1.3931934 353:-0.34560266 354:0.17970691 355:-1.2727409 356:-1.3294495 357:-0.42783288 358:0.74656109 359:1.0473728 360:1.087115 361:0.73950222 362:0.66456249 363:-0.58367883 364:-1.0549059 365:-1.0406045 366:0.26297211 367:-0.39432908 368:-1.3441877 369:-1.276702 370:0.074868661 371:0.87217599 372:1.6258557 373:1.0887425 374:0.93293284 375:0.18512879 376:-0.68382 377:-0.90235276 378:-0.2125506 379:0.13480408 380:-0.96721333 381:-1.4318779 382:-0.8690736 383:0.67489971 384:1.4423485 385:1.347081 386:0.54586153 387:0.95417367 388:-0.076812066 389:-0.40075494 390:-0.83002648 391:0.0093447013 392:-0.25111944 393:-1.2991328 394:-1.6198361 395:-0.54151202 396:1.2890634 397:1.8196684 398:0.90640422 399:0.43371869 400:0.33554144 401:0.30289917 402:-0.40121196 403:-0.13443107 404:-0.064067849 405:-0.64916 406:-1.4619301 407:-1.3012159 408:0.15802331 409:1.6123991 410:1.358388 411:0.48673266 412:-0.36497802 413:0.52888223 414:0.020005902 415:0.78764942 416:-0.040613416 417:-0.28372408 418:-1.5913612 419:-2.1400076 420:-0.40709435 421:0.96663219 422:1.9139141 423:0.40038364 424:-0.091446302 425:-0.0083788731 426:0.97179412 427:0.57041976 428:0.12558611 429:-0.20102058 430:-0.65297438 431:-1.6098961 432:-1.4538394 433:-0.096643384 434:1.4654054 435:1.2594329 436:0.09285222 437:-0.68045491 438:0.35887282 439:1.089353 440:0.645136 441:0.12564857 442:-0.45822789 443:-1.183381 444:-1.4741724 445:-0.76680111 446:0.67114745 447:1.3764226 448:0.60965144 449:-0.78826628 450:-0.61071612 451:0.87314294 452:1.3027158 453:0.67711341 454:-0.16464146 455:-0.60513633 456:-1.0538638 457:-1.1002487 458:-0.2087483 459:1.2323656 460:1.2655455 461:-0.21992113 462:-1.1348064 463:-0.10167459 464:1.497164 465:1.5717353 466:0.17404698 467:-0.39480374 468:-0.81145635 469:-0.86285385 470:-0.55780425 471:0.46941517 472:1.3719648 473:0.45751149 474:-0.92645442 475:-1.030433 476:0.69338832 477:1.655771 478:0.94373385 479:-0.5243785 480:-0.54020503 481:-0.60511435 482:-0.45658902 483:-0.090545178 484:0.96563165 485:0.97573766 486:-0.16971057 487:-1.3285395 488:-0.53329071 489:1.4061734 490:1.8757761 491:0.23518991 492:-0.76484842 493:-0.75311109 494:-0.34618826 495:-0.077221508 496:0.47448887 497:0.80763753 498:0.34322019 499:-1.1150104 500:-1.6148074 501:-1.0456763 502:-1.089348 503:0.030819377 504:0.35587324 505:0.10179187 506:-0.77414939 507:0.01585723 508:0.10396397 509:1.0166556 510:-1.1312242 511:0.045003991 512:1.420136e-05 513:1.4876542 514:-0.59722114 515:0.17549168 516:-0.43563542 517:0.82372033 518:-0.8729001 519:-0.090191832 520:-0.87238148 521:1.2810785 522:-0.95366383 523:-0.23127069 524:-0.78453097 525:1.6260912 526:0.58885621 527:0.28943457 528:-0.38174267 529:0.4775263 530:0.13190516 531:-0.33666978 532:-0.64531579 533:-0.29278075 534:0.17081416 535:-0.70255469 536:-0.44092726 537:-0.10458827 538:1.2099535 539:0.39109458 540:0.32700879 541:-0.48060552 542:0.96398474 543:-0.26307221 544:0.092782036 545:-1.4557584 546:0.098595186 547:-0.75377159 548:-0.50013864 549:-0.78399384 550:1.1639055 551:0.73301101 552:1.0714315 553:-0.72670449 554:0.85166897 555:0.12249167 556:0.66572305 557:-1.0055424 558:-0.52396634 559:-0.52331236 560:-0.44128638 561:-0.77499808 562:-0.13985361 563:0.96177948 564:1.1741061 565:0.7162045 566:-0.58040194 567:0.54430668 568:0.12976267 569:0.62663723 570:-1.0207488 571:-0.29543226 572:-0.92755458 573:-0.31678077 574:-0.75213512 575:0.67226901 576:0.7370742 577:1.2209298 578:-0.49314098 579:0.66185459 580:0.12277088 581:1.2096099 582:-0.66115511 583:-0.32957682 584:-1.1596139 585:-0.42769776 586:-1.2214786 587:-0.037341625 588:0.50301817 589:2.2107113 590:0.28176306 591:0.08443758 592:0.10969878 593:1.0624151 594:0.5014131 595:-0.41054284 596:-0.84547807 597:-0.92311901 598:-0.73456356 599:-0.92573971 600:0.15202333 601:0.81707801 602:1.9256722 603:-0.2206668 604:0.36711412 605:0.36800822 606:1.702534 607:-0.026333407 608:-0.30650064 609:-1.4268138 610:-0.46819624 611:-1.3094672 612:0.10015268 613:-0.25274731 614:1.7674101 615:0.1974648 616:0.40180012 617:0.039678875 618:1.3293381 619:0.77662922 620:0.10772635 621:-1.0570708 622:-1.0784478 623:-1.1916253 624:-0.51806922 625:-0.4023994 626:0.63296032 627:1.0547985 628:0.072520132 629:0.18150068 630:0.67157037 631:1.7038445 632:0.47607907 633:-0.35288506 634:-1.5144647 635:-0.85260802 636:-0.86767879 637:-0.051986482 638:-0.67404551 639:1.5012124 640:-0.12235954 641:0.62486439 642:-0.15960137 643:1.5196204 644:1.1916411 645:0.60616883 646:-1.7399606 647:-1.2930886 648:-1.1389714 649:0.06184585 650:-0.85623411 651:0.19699468 652:-0.156213 653:0.32118776 654:0.014928691 655:0.8443975 656:1.4468909 657:1.1376441 658:-0.091238506 659:-1.4595467 660:-1.042422 661:-0.65653986 662:0.44965007 663:-0.93430445 664:0.40206442 665:-1.077216 666:0.51558827 667:-0.18746237 668:2.0337927 669:1.5255007 670:0.9513229 671:-1.3807579 672:-1.0722189 673:-1.0364921 674:0.57630626 675:-0.76845525 676:-0.18263909 677:-0.74578352 678:0.28271425 679:-0.51327294 680:0.80118784 681:1.0917089 682:1.9781977 683:-0.19790426 684:-1.1104219 685:-1.362069 686:0.053156395 687:0.4688231 688:-0.26900473 689:-0.59703221 690:-0.80243558 691:0.048480085 692:-0.031739597 693:1.2500694 694:1.3062443 695:1.2646759 696:-0.78419228 697:-1.2875488 698:-1.1695678 699:1.1148104 700:-0.080739889 701:0.039801412 702:-2.1496305 703:0.053809821 704:-0.62691336 705:1.0923008 706:0.81224217 707:1.65247 708:-0.078812477 709:-0.68019305 710:-1.8512777 711:0.71531212 712:0.43461536 713:0.86563475 714:-1.6062873 715:-1.1432682 716:-0.53571313 717:0.19240139 718:0.84938206 719:0.77917772 720:0.77071188 721:-0.31528153 722:-1.2895403 723:-0.61647372 724:0.76580334 725:0.83173776 726:-0.023563473 727:-2.0428555 728:-0.35060625 729:-0.25674911 730:0.87390394 731:0.16199844 732:0.92565663 733:-0.13532414 734:-0.4111898 735:-1.6372737 736:0.68218888 737:0.50694972 738:1.3216346 739:-1.6664356 740:-0.79198766 741:-0.58662567 742:0.73942225 743:0.27057975 744:0.48875158 745:-0.066987105 746:-0.074096478 747:-1.0181698 748:-0.135914 749:0.66222413 750:1.4687444 
1.070644691097133 1:1.8688404 2:-0.9555187 3:-0.37299091 4:0.92884373 5:-0.68491297 6:0.087348061 7:-0.62515302 8:1.3836612 9:-0.28949001 10:0.24167311 11:-1.0675515 12:1.0561787 13:-0.38183382 14:0.83082605 15:-1.3794062 16:0.95642279 17:-0.44781248 18:1.1069478 19:-1.4425884 20:0.71195556 21:-0.14983139 22:1.2833703 23:-1.0745142 24:-0.11154726 25:0.21855698 26:1.0533329 27:-0.43505219 28:-0.43988197 29:0.15765542 30:0.52225878 31:0.12364251 32:-0.86521918 33:0.43176106 34:0.080151557 35:0.60071777 36:-1.1920931 37:0.34830661 38:-0.064071995 39:1.3336322 40:-1.1925223 41:0.20387268 42:-0.40380686 43:1.1649114 44:-0.96353488 45:-0.034656254 46:-0.50714305 47:0.98950386 48:-0.41460766 49:-0.38757256 50:-0.24776458 51:0.65595508 52:0.333639 53:-1.0084739 54:0.14503163 55:-0.061227457 56:1.2093637 57:-1.3055026 58:0.22167497 59:-0.64920951 60:1.3512088 61:-1.1430256 62:0.56205054 63:-1.1557129 64:2.0242697 65:-1.8877415 66:1.3011005 67:-1.8076852 68:2.1680934 69:-1.122137 70:1.0677085 71:-1.7814202 72:1.5312314 73:-0.74749416 74:1.0941866 75:-1.6307092 76:1.3195246 77:-0.69598729 78:0.88416788 79:-1.2269289 80:0.51553945 81:0.23530356 82:0.47168569 83:-0.68334286 84:-0.32228162 85:0.4024047 86:0.3147031 87:-0.039825227 88:-0.88286008 89:1.3396295 90:-0.63111239 91:0.86701642 92:-1.6603337 93:1.5151807 94:-0.64369143 95:1.2611693 96:-1.6465488 97:1.2196803 98:-0.78049311 99:1.5621463 100:-2.1628918 101:1.2929691 102:-1.3480546 103:2.2093527 104:-1.9339054 105:0.8799542 106:-0.92361466 107:1.5023889 108:-0.89417712 109:0.10603429 110:-0.72102475 111:1.3004659 112:-0.49067983 113:-0.072135629 114:-0.81151142 115:0.95140009 116:0.0035607496 117:-0.21312979 118:-0.37818518 119:0.27338381 120:0.46284141 121:-0.3884464 122:-0.15944638 123:-0.48055696 124:1.4516852 125:-0.60591923 126:-0.091167921 127:-0.90224428 128:1.2867714 129:-0.18538288 130:-0.038816601 131:-0.78989462 132:0.71562542 133:-0.19639092 134:0.359488 135:-0.93849892 136:0.71725064 137:0.19641583 138:-0.11972303 139:-0.94323527 140:0.098443164 141:0.77628586 142:-0.16843971 143:-0.40429564 144:-0.35643537 145:0.9125759 146:-0.3820846 147:0.014370913 148:-0.77470436 149:1.1521727 150:-0.56232127 151:0.72457474 152:-1.7676757 153:1.3210644 154:-0.12433433 155:0.73583524 156:-1.1916406 157:0.42485984 158:0.058437144 159:0.76986732 160:-1.042079 161:0.058737509 162:0.18456574 163:1.1845332 164:-0.60208639 165:-0.76107564 166:0.17625069 167:0.59695715 168:0.19033723 169:-0.56335207 170:-0.29013211 171:0.45249347 172:0.12470816 173:-0.71794817 174:0.20216424 175:0.064995294 176:0.82759989 177:-1.347814 178:0.56982831 179:-0.22295323 180:1.2020519 181:-1.3080448 182:0.52240861 183:-0.37287366 184:1.5098513 185:-1.1961611 186:0.20113765 187:-0.59952721 188:1.3141315 189:-0.52505055 190:-0.06666762 191:-0.83299102 192:0.65468582 193:0.28978119 194:-0.32835809 195:-0.46958999 196:0.3448736 197:0.55412342 198:-0.54136151 199:-0.2375446 200:-0.26851361 201:1.174289 202:-0.74567728 203:-0.089147259 204:-0.78743649 205:1.232124 206:-0.3064949 207:-0.05526652 208:-0.6448986 209:1.2436029 210:-0.55156981 211:0.056263048 212:-1.1703342 213:1.1944883 214:0.18908269 215:0.068313929 216:-0.86325654 217:-0.16174915 218:0.87583687 219:-0.19533172 220:-0.13321031 221:-0.46443204 222:1.2261098 223:-0.59703552 224:-0.087978 225:-0.89056747 226:1.7456115 227:-1.1877328 228:1.1128004 229:-1.6898036 230:1.5606125 231:-0.76970733 232:1.33 233:-1.6320011 234:1.3324864 235:-0.90732628 236:1.6064754 237:-2.0441105 238:1.7303877 239:-0.88840196 240:1.591979 241:-1.5042584 242:0.61257505 243:-0.6180707 244:1.1936198 245:-0.9240204 246:0.2640155 247:-0.3647839 248:0.75670839 249:-0.48480736 250:-0.64369353 251:-0.57684105 252:-0.33831715 253:0.065553129 254:-0.012566333 255:0.26260827 256:-0.4107793 257:0.18490035 258:-0.30695875 259:0.417831 260:-0.2747713 261:0.18461114 262:-0.2841027 263:0.24788004 264:-0.20396748 265:0.1242852 266:-0.299557 267:0.37479096 268:-0.14568714 269:0.069795086 270:-0.15885388 271:0.35408752 272:-0.12668268 273:0.056757596 274:-0.13842604 275:0.29027027 276:-0.14517131 277:0.031112963 278:-0.33824353 279:-0.027273976 280:0.32568057 281:-0.06703082 282:-0.053789637 283:-0.18180386 284:0.25646513 285:-0.13655525 286:0.0095091278 287:-0.060928131 288:0.22913588 289:0.013843117 290:-0.028973514 291:-0.44439456 292:0.096611048 293:0.19221167 294:-0.20260586 295:0.21561306 296:-0.18572174 297:0.34598829 298:-0.28847089 299:0.3874273 300:-0.52675937 301:0.77631232 302:-0.66748732 303:0.67885766 304:-1.3653042 305:1.024755 306:-0.97541484 307:1.1998983 308:-1.1932418 309:1.1282117 310:-0.86268438 311:1.010277 312:-1.0290953 313:1.1006629 314:-0.99532657 315:1.3630838 316:-1.7026191 317:1.3212596 318:-1.3667853 319:1.697584 320:-1.2661621 321:0.79043619 322:-0.70113616 323:0.63694082 324:-0.93232077 325:0.85772246 326:-0.96923441 327:1.3497533 328:-1.0899055 329:0.46363536 330:-0.49306496 331:0.42064734 332:-0.066271902 333:0.019523761 334:-0.086908905 335:0.0075012647 336:0.25521122 337:-0.33124426 338:0.10855311 339:-0.41540572 340:1.0610176 341:-1.1504022 342:0.71352091 343:-1.0255676 344:1.0031551 345:-0.93250021 346:0.82617953 347:-0.86289672 348:0.91344629 349:-0.91065108 350:1.0085198 351:-1.4830524 352:1.614144 353:-1.313381 354:1.371428 355:-1.5712389 356:1.1773344 357:-0.81828661 358:0.72074252 359:-0.64432837 360:0.76554567 361:-0.67135457 362:0.89111332 363:-1.0751136 364:0.81740258 365:-0.867824 366:1.0915355 367:-0.88620491 368:0.43531607 369:-0.35487841 370:0.49087521 371:-0.47059679 372:0.37188088 373:-0.12969902 374:0.3799829 375:-0.27701123 376:-0.18448868 377:0.01076496 378:0.27166818 379:-0.054606827 380:-0.11912124 381:-0.017122043 382:0.13071266 383:0.010676248 384:-0.29415956 385:0.27538966 386:-0.25591343 387:0.31963551 388:0.015837514 389:-0.047539492 390:-0.33738534 391:0.0089711936 392:0.26791679 393:-0.22206576 394:0.059702123 395:-0.25282177 396:0.34782074 397:-0.26802559 398:0.030529773 399:0.063620323 400:0.34112994 401:-0.53378637 402:0.195629 403:-0.09113975 404:0.23998194 405:-0.20503213 406:0.12801549 407:-0.15968733 408:0.26411102 409:-0.20011723 410:0.12905807 411:-0.03907165 412:0.05561737 413:-0.41838628 414:-0.3540881 415:0.69387181 416:0.10821954 417:-0.072889223 418:-0.57873228 419:0.057029747 420:0.45031772 421:0.11662839 422:0.083688984 423:-0.2958089 424:0.00067080787 425:0.17544932 426:-0.1756714 427:0.42547858 428:-0.35476893 429:0.21593101 430:-0.31098737 431:0.31366221 432:-0.25720491 433:0.14517644 434:-3.4596288e-05 435:0.18060682 436:-0.40719367 437:0.17023599 438:-0.10766923 439:0.53354946 440:-0.46902056 441:-0.11976081 442:0.1978087 443:-0.24222206 444:0.0092572826 445:0.010630012 446:0.19228544 447:-0.16810639 448:-0.074612639 449:-0.261782 450:0.33827339 451:-0.093087528 452:0.10923453 453:-0.17427404 454:0.15765828 455:-0.040375265 456:-0.12468406 457:0.16091287 458:-0.10024847 459:0.1304857 460:-0.12119361 461:0.071398327 462:-0.22230938 463:0.22333245 464:-0.36160343 465:0.59156614 466:-0.79047036 467:0.67056819 468:-0.45106732 469:0.49087299 470:-0.59351374 471:0.76919262 472:-1.0461778 473:1.0649514 474:-1.0004993 475:0.75901606 476:-1.1675426 477:1.8401159 478:-1.560725 479:0.97540516 480:-1.012507 481:1.0117267 482:-1.2182842 483:1.0732671 484:-1.1389184 485:1.4248914 486:-1.0617477 487:1.0098777 488:-1.5185284 489:1.3837559 490:-0.46188824 491:0.56823042 492:-1.038387 493:0.90603818 494:-0.55124829 495:0.62319346 496:-0.49828252 497:0.37150989 498:-0.11788824 499:0.058885937 500:-0.23830253 501:2.3816724 502:-0.8401565 503:-0.45510355 504:1.0406228 505:-0.78843014 506:0.16703122 507:-0.6954658 508:1.2987984 509:-0.40643619 510:0.51727335 511:-1.0948818 512:1.149436 513:-0.55454054 514:0.61793953 515:-1.2027884 516:0.92097818 517:-0.65535928 518:1.103107 519:-1.661261 520:0.71298898 521:-0.071903398 522:1.1655392 523:-0.96782389 524:0.071161883 525:0.16276356 526:0.94328912 527:-0.42333138 528:-0.45190185 529:0.19410687 530:0.45196052 531:0.089875838 532:-0.78246737 533:0.15417075 534:0.16318282 535:0.68039502 536:-1.0137741 537:0.2875091 538:-0.23024303 539:0.98580924 540:-0.87573775 541:0.31033864 542:-0.35332921 543:0.98972617 544:-0.69917316 545:-0.017768733 546:-0.51996295 547:0.73537944 548:-0.41477838 549:-0.27618856 550:0.12754714 551:0.21918097 552:0.5466887 553:-1.0280577 554:0.41041255 555:-0.31226787 556:1.5121903 557:-1.4710554 558:0.43911921 559:-0.75611241 560:1.4205616 561:-1.1552301 562:0.68053436 563:-1.2667198 564:2.0793014 565:-1.7131341 566:1.1170461 567:-1.881465 568:1.9611972 569:-1.1626127 570:1.3412165 571:-1.6937446 572:1.2879831 573:-0.84035016 574:1.0093144 575:-1.5015894 576:1.3656677 577:-0.70929687 578:0.96142732 579:-1.5481741 580:0.55757657 581:0.048705499 582:0.56236144 583:-0.66861816 584:-0.023470993 585:0.3012565 586:0.065939307 587:0.098602866 588:-1.0062973 589:1.4797942 590:-0.57959424 591:0.80655026 592:-1.4905711 593:1.2392213 594:-0.71531634 595:1.2940296 596:-1.6767352 597:1.5090396 598:-0.9711999 599:1.5915142 600:-2.4059938 601:1.6357433 602:-1.6168679 603:2.2935458 604:-2.0289447 605:1.0883792 606:-1.1082872 607:1.3798461 608:-1.0851172 609:0.4441512 610:-0.80399243 611:1.2996728 612:-0.50041405 613:-0.048687432 614:-0.84105428 615:1.1637462 616:-0.28946083 617:0.099257503 618:-0.34089136 619:0.27753238 620:0.18430174 621:-0.12532207 622:-0.29436632 623:-0.14038721 624:0.92382463 625:-0.64896397 626:0.19918409 627:-0.98750606 628:1.2349193 629:-0.22261068 630:0.090809802 631:-0.70973142 632:0.5724212 633:-0.15226073 634:0.20292112 635:-0.95248703 636:0.75636078 637:0.21728128 638:-0.2810183 639:-0.79485366 640:0.12557713 641:0.6682265 642:-0.19333993 643:-0.071434721 644:-0.47435451 645:0.65525314 646:-0.26214704 647:-0.043676241 648:-0.62878269 649:0.93178959 650:-0.59076377 651:0.94949483 652:-1.7688208 653:1.0661632 654:-0.15016202 655:0.64420728 656:-1.0651485 657:0.46567914 658:-0.00088418393 659:0.47986017 660:-0.80925504 661:0.19893705 662:0.05360215 663:1.1676591 664:-0.63063216 665:-0.68285446 666:0.21040037 667:0.46613057 668:0.29930889 669:-0.60345919 670:-0.16175758 671:0.29159005 672:0.23791715 673:-0.83132546 674:0.40060981 675:-0.13174759 676:0.88778585 677:-1.0846202 678:0.39636008 679:-0.30723273 680:1.0312105 681:-1.046703 682:0.42923979 683:-0.2962534 684:1.0964398 685:-0.84179034 686:0.057167601 687:-0.54945342 688:1.3989267 689:-0.67205417 690:0.17856452 691:-0.73162697 692:0.52657792 693:0.22735275 694:-0.20525661 695:-0.42516624 696:0.32975264 697:0.3064866 698:-0.44295194 699:-0.178222 700:-0.3217343 701:1.3077599 702:-0.89280604 703:-0.14318048 704:-0.60106645 705:0.9189222 706:-0.043799073 707:-0.18180568 708:-0.51879831 709:1.0093859 710:-0.52828822 711:0.19438587 712:-1.149004 713:1.126335 714:0.42647536 715:-0.53470599 716:-0.34156009 717:-0.42376701 718:0.84728154 719:-0.24953904 720:0.11565251 721:-0.5840305 722:1.162508 723:-0.6863466 724:-0.013780224 725:-0.87376736 726:1.6769368 727:-1.4470261 728:1.5795886 729:-1.7173158 730:1.5477068 731:-0.83119484 732:1.3548515 733:-1.720758 734:1.5338024 735:-1.3411632 736:1.6820881 737:-1.914677 738:1.9172922 739:-1.1585104 740:1.7052522 741:-1.386236 742:0.7082369 743:-0.68316496 744:1.1126337 745:-1.1376447 746:0.46302899 747:-0.44637613 748:0.70875888 749:-0.66775484 750:-0.27682197 
