svm_type c_svc
kernel_type rbf
gamma 0.001
nr_class 2
total_sv 18
rho -0.835327
label 1 2
probA -2.1293
probB -0.37345
nr_sv 10 8
SV
1.987320134511859 1:0.7788709 2:0.78118086 3:0.7706884 4:0.76837855 5:0.75030526 6:0.74333205 7:0.74941431 8:0.76445312 9:0.76607942 10:0.76473233 11:0.7555288 12:0.74711423 13:0.72985491 14:0.71812485 15:0.69847572 16:0.70228307 17:0.69901816 18:0.69654339 19:0.67849647 20:0.66311641 21:0.6729762 22:0.69074603 23:0.69823374 24:0.6981203 25:0.70281909 26:0.7153323 27:0.71686927 28:0.72154466 29:0.71655782 30:0.7033983 31:0.70839468 32:0.71972424 33:0.72086684 34:0.72236169 35:0.72094397 36:0.72761009 37:0.74106751 38:0.74318654 39:0.7602733 40:0.76746596 41:0.77320665 42:0.77931349 43:0.77619639 44:0.78320579 45:0.79031726 46:0.78464922 47:0.79747286 48:0.79816404 49:0.79664753 50:0.77944705 51:0.78902952 52:0.79086875 53:0.76752258 54:0.8004298 55:0.79570051 56:0.77891264 57:0.76213437 58:0.74222633 59:0.75014433 60:0.73984749 61:0.7293773 62:0.72081417 63:0.71260682 64:0.71209907 65:0.71094286 66:0.69638482 67:0.69163479 68:0.68705112 69:0.67899244 70:0.67192261 71:0.67500984 72:0.67373416 73:0.65933033 74:0.65442593 75:0.65851045 76:0.66512728 77:0.67277259 78:0.67123038 79:0.64884787 80:0.64882333 81:0.68714398 82:0.69997222 83:0.68434981 84:0.65176434 85:0.59381913 86:0.51121305 87:0.41490357 88:0.34475099 89:0.29424067 90:0.21310796 91:0.091293583 92:-0.031415707 93:-0.13401744 94:-0.32250257 95:-0.49547615 96:-0.58675981 97:-0.67647747 98:-0.80175371 99:-0.92911748 100:-0.97538065 101:-1.077117 102:-1.1352811 103:-1.2297444 104:-1.3164536 105:-1.3707935 106:-1.3713121 107:-1.3825185 108:-1.4605935 109:-1.595995 110:-1.7945822 111:-1.9343682 112:-2.0422232 113:-2.1072939 114:-2.1316435 115:-2.1273666 116:-2.085327 117:-2.0841918 118:-2.0649709 119:-2.0352142 120:-2.0257474 121:-2.0006098 122:-1.982453 123:-1.971342 124:-1.9642258 125:-1.9644092 126:-1.9715672 127:-1.9924586 128:-1.9852708 129:-1.9895774 130:-1.9925982 131:-1.9948065 132:-2.0171259 133:-2.0165755 134:-2.0075058 135:-1.9968534 136:-1.9730196 137:-1.9531779 138:-1.9572853 139:-1.934023 140:-1.9345253 141:-1.9311507 142:-1.9364221 143:-1.9263463 144:-1.8868644 145:-1.8614989 146:-1.7865543 147:-1.765063 148:-1.7484301 149:-1.7204993 150:-1.699193 151:0.18360576 152:0.23149667 153:0.30738223 154:0.44850588 155:0.42626536 156:0.3742305 157:0.34106129 158:0.34863308 159:0.54089865 160:0.44769791 161:0.34161558 162:0.33234739 163:0.24584296 164:0.18130712 165:0.36229829 166:0.41224134 167:0.27200405 168:0.2241546 169:0.33552931 170:0.3670614 171:0.2706107 172:0.24997607 173:0.20387998 174:0.27183902 175:0.34888625 176:0.26401892 177:0.16530612 178:0.11938615 179:0.16688736 180:0.23093255 181:0.23289726 182:0.19287093 183:0.24356649 184:0.34814547 185:0.2751606 186:0.13156738 187:0.19896715 188:0.26259559 189:0.24549742 190:0.21813777 191:0.16903142 192:0.11286054 193:0.12361884 194:0.21254673 195:0.15655099 196:0.050285775 197:0.14123719 198:0.17938324 199:0.23550941 200:0.1884374 201:0.20774754 202:0.36590384 203:0.23273118 204:0.1716042 205:0.17624097 206:0.42498452 207:0.41611464 208:0.34088409 209:0.28962478 210:0.19145641 211:0.23569969 212:0.21118529 213:0.19427638 214:0.16064584 215:0.13045207 216:0.31173504 217:0.32881751 218:0.2475609 219:0.35720457 220:0.47970011 221:0.43049075 222:0.47794795 223:0.59624166 224:0.7911192 225:0.97423184 226:0.95675012 227:0.81897719 228:0.83823423 229:0.80194866 230:0.65392425 231:0.74557292 232:1.0183182 233:1.2466626 234:1.0001642 235:0.74834426 236:0.87069267 237:1.0981167 238:0.95511611 239:0.87261273 240:1.0169465 241:1.244188 242:0.81721624 243:0.4289568 244:0.83294932 245:1.0671152 246:0.68406208 247:0.21660946 248:0.53584057 249:0.21595028 250:0.15004398 251:-0.35360421 252:-0.37057549 253:-0.33322358 254:-0.44269514 255:-0.93129167 256:-1.5956838 257:-1.8972265 258:-1.9823618 259:-1.5644759 260:-1.1736046 261:-0.91593826 262:-0.69326395 263:-0.30849132 264:-0.03588868 265:0.044202751 266:0.085337783 267:-0.083794202 268:-0.26170662 269:-0.40121834 270:-0.41161306 271:-0.64752864 272:-0.78473034 273:-0.66401598 274:-0.43999984 275:-0.41034661 276:-0.55008043 277:-0.69665385 278:-0.69499118 279:-0.54384877 280:-0.62866465 281:-0.74877501 282:-0.64333896 283:-0.69694642 284:-0.77144022 285:-0.95536403 286:-1.0121353 287:-0.94743981 288:-0.76677612 289:-0.70323435 290:-0.74177881 291:-0.65608044 292:-0.37704605 293:-0.18850398 294:-0.30982396 295:-0.6803688 296:-0.68129136 297:-0.047746922 298:0.30541316 299:-0.44148856 300:-0.88507022 301:-0.14595417 302:-0.14934948 303:-0.16333057 304:-0.12621114 305:-0.081880892 306:-0.078027731 307:-0.047500688 308:0.011546532 309:-0.054816107 310:-0.083394982 311:-0.072257263 312:-0.082426717 313:-0.030187623 314:-0.0050195634 315:-0.11972131 316:-0.09213306 317:-0.12653167 318:-0.14557868 319:-0.20208538 320:-0.16255947 321:-0.11671222 322:-0.15220723 323:-0.14682996 324:-0.13880843 325:-0.14660734 326:-0.14992703 327:-0.18502917 328:-0.18400544 329:-0.20493062 330:-0.21803356 331:-0.21602651 332:-0.25228737 333:-0.28220832 334:-0.27331443 335:-0.29553957 336:-0.30276291 337:-0.29848206 338:-0.25611136 339:-0.2969106 340:-0.30652865 341:-0.30410921 342:-0.29051735 343:-0.18675033 344:-0.1890502 345:-0.25128162 346:-0.20812629 347:-0.20153741 348:-0.2203432 349:-0.20133328 350:-0.2082551 351:-0.20460881 352:-0.13617583 353:-0.05024322 354:-0.024762948 355:-0.050226889 356:0.024288381 357:0.091347778 358:0.039942617 359:0.011470462 360:0.0048065719 361:0.022509088 362:-0.04269174 363:-0.029002242 364:0.025345205 365:0.094981427 366:0.056541657 367:-0.046070997 368:-0.013349071 369:0.036372642 370:0.15153936 371:0.15471266 372:0.22714157 373:0.43699898 374:0.65112057 375:0.78007371 376:0.8251391 377:0.88345237 378:1.1007122 379:1.3102028 380:1.4560219 381:1.5699446 382:1.6527408 383:1.6618457 384:1.5512638 385:1.5383238 386:1.5232148 387:1.4026066 388:1.4012513 389:1.5219266 390:1.5726124 391:1.5597645 392:1.5802301 393:1.269394 394:1.2980398 395:1.2529214 396:0.96008855 397:0.81766464 398:0.80948354 399:0.67670805 400:0.52152567 401:0.19626065 402:0.075815937 403:-0.38668339 404:-0.88829723 405:-1.2755494 406:-1.2347969 407:-1.264899 408:-0.99224423 409:-0.53725051 410:-0.31225048 411:-0.15429878 412:-0.076301991 413:-0.042017247 414:0.015945539 415:-0.098416767 416:-0.11328526 417:-0.19816632 418:-0.19697254 419:-0.1522343 420:-0.21085438 421:-0.22846416 422:-0.21417546 423:-0.25326316 424:-0.25769915 425:-0.21771781 426:-0.1734949 427:-0.10467249 428:-0.00054357652 429:0.026647949 430:0.15588864 431:0.29302939 432:0.23493986 433:0.19546021 434:0.18995716 435:0.16940127 436:0.22288741 437:0.21198931 438:0.20904868 439:0.23951154 440:0.3969901 441:0.48823484 442:0.47993911 443:0.43261109 444:0.47553425 445:0.55461846 446:0.64701753 447:0.78128188 448:0.90652106 449:0.99724002 450:0.98282234 
7.459646004644095 1:-1.0767934 2:-1.1351318 3:-1.2298983 4:-1.3168406 5:-1.3711798 6:-1.3716393 7:-1.3829038 8:-1.4611742 9:-1.5971332 10:-1.7960485 11:-1.9363743 12:-2.0445036 13:-2.1101498 14:-2.1347765 15:-2.1303953 16:-2.0886312 17:-2.0868786 18:-2.0669773 19:-2.0374131 20:-2.0274331 21:-2.0022148 22:-1.984255 23:-1.9731104 24:-1.9659589 25:-1.966284 26:-1.9737879 27:-1.9945391 28:-1.9872778 29:-1.9919154 30:-1.9949685 31:-1.9970135 32:-2.0193651 33:-2.0189453 34:-2.0099963 35:-1.9998685 36:-1.9762949 37:-1.9561543 38:-1.9602175 39:-1.9363249 40:-1.9360111 41:-1.9311122 42:-1.9336459 43:-1.9205153 44:-1.8743043 45:-1.8418728 46:-1.7624812 47:-1.7362408 48:-1.713308 49:-1.6781451 50:-1.653897 51:-1.6347167 52:-1.619845 53:-1.614444 54:-1.5554684 55:-1.5476948 56:-1.5674991 57:-1.5352601 58:-1.4870115 59:-1.4487124 60:-1.4185455 61:-1.3669197 62:-1.302196 63:-1.2744257 64:-1.2647318 65:-1.226067 66:-1.2201171 67:-1.2022403 68:-1.1877057 69:-1.1763579 70:-1.1451475 71:-1.1206191 72:-1.1086366 73:-1.1036316 74:-1.0737907 75:-1.0471342 76:-1.036725 77:-1.0331242 78:-1.0118909 79:-0.97209246 80:-0.94689301 81:-0.93765747 82:-0.93158916 83:-0.89044113 84:-0.80708801 85:-0.78650926 86:-0.80253617 87:-0.75523059 88:-0.6780674 89:-0.66169038 90:-0.65970537 91:-0.63722499 92:-0.62682827 93:-0.58756836 94:-0.54797878 95:-0.54037689 96:-0.49885239 97:-0.42572651 98:-0.38057439 99:-0.35057487 100:-0.35562447 101:-0.31104613 102:-0.20638654 103:-0.23802058 104:-0.20420487 105:-0.20974548 106:-0.21150102 107:-0.14219135 108:-0.074775573 109:-0.091309949 110:-0.086879579 111:-0.068132417 112:-0.015191182 113:-0.00075344733 114:0.010549609 115:0.02163257 116:0.036776579 117:0.076741596 118:0.10188722 119:0.11044377 120:0.1222341 121:0.14703348 122:0.16563062 123:0.16490501 124:0.18302909 125:0.22853946 126:0.25395648 127:0.266553 128:0.28637199 129:0.31737633 130:0.35775988 131:0.393266 132:0.40870757 133:0.40833004 134:0.41388707 135:0.40928464 136:0.40227413 137:0.42415409 138:0.47272856 139:0.49693258 140:0.50119029 141:0.52809648 142:0.54640432 143:0.54506831 144:0.56547631 145:0.59079951 146:0.59172117 147:0.59312264 148:0.59406526 149:0.60483003 150:0.61817246 151:-0.46848286 152:-0.4898112 153:-0.44933252 154:-0.5640074 155:-1.1019282 156:-1.7733753 157:-2.0971909 158:-2.2296979 159:-1.8359628 160:-1.3280828 161:-1.0817827 162:-0.89727442 163:-0.42774396 164:-0.11341679 165:-0.042527113 166:-0.0098653282 167:-0.18133604 168:-0.37850153 169:-0.53617157 170:-0.55103562 171:-0.82417265 172:-0.99461938 173:-0.86124497 174:-0.62039335 175:-0.59504289 176:-0.74309961 177:-0.88089187 178:-0.86967068 179:-0.70298884 180:-0.79065042 181:-0.93158903 182:-0.79815188 183:-0.83451471 184:-0.90824257 185:-1.1089554 186:-1.1756529 187:-1.1213678 188:-0.93123734 189:-0.86520446 190:-0.89182119 191:-0.78841927 192:-0.49769647 193:-0.27997351 194:-0.41407593 195:-0.80378419 196:-0.78554536 197:-0.11220992 198:0.24560346 199:-0.53601381 200:-1.024002 201:-0.52547907 202:0.13931201 203:-0.043758857 204:-0.728651 205:-0.43119887 206:0.21025093 207:-0.065300127 208:-0.5574747 209:-0.10962433 210:0.29418541 211:0.020515745 212:-0.49405876 213:-0.27559402 214:0.16761697 215:0.19496134 216:-0.0064421052 217:0.003768682 218:0.28373051 219:0.28844608 220:-0.23553833 221:-0.17888353 222:-0.046811911 223:0.026342027 224:-0.33120268 225:-0.52197656 226:-0.16201034 227:0.12896389 228:-0.071379403 229:-0.4272149 230:-0.35101778 231:0.15708863 232:0.73636806 233:0.072462992 234:-1.0659409 235:-0.3910253 236:0.51611195 237:0.21558561 238:-0.63649535 239:-0.40777596 240:-0.19539394 241:-0.21627105 242:-0.4970965 243:-0.82786829 244:-0.64192974 245:-0.33532027 246:-0.51113396 247:-0.83581183 248:-0.81959539 249:-0.23000184 250:-0.043660337 251:-0.57355672 252:-1.0863622 253:0.078554609 254:0.21418922 255:-0.086343981 256:-0.10940652 257:-0.54140398 258:-0.42751766 259:0.2246484 260:0.51259208 261:-0.16160156 262:-0.3442346 263:0.13953764 264:0.27889762 265:0.13398959 266:0.051533204 267:-0.021978807 268:0.010872085 269:0.16183735 270:0.15819887 271:0.096840221 272:0.14868075 273:0.18556947 274:0.1977415 275:0.13425418 276:0.18235933 277:0.14149069 278:0.078585575 279:0.1527063 280:0.13997668 281:0.10067563 282:0.25090542 283:0.29250428 284:0.041844689 285:-0.057205545 286:0.050259151 287:0.015656601 288:-0.024662824 289:0.07351365 290:0.07571841 291:0.1141563 292:0.33941381 293:0.42599928 294:0.42224953 295:0.39037554 296:0.44550984 297:0.30202704 298:0.15327007 299:0.276355 300:0.55042748 301:0.15340081 302:0.027744764 303:-0.45283712 304:-0.97195077 305:-1.3690721 306:-1.3225482 307:-1.3543628 308:-1.0718173 309:-0.60508549 310:-0.36820374 311:-0.2107115 312:-0.12932702 313:-0.08825847 314:-0.032208865 315:-0.1521881 316:-0.16755172 317:-0.25394526 318:-0.2547977 319:-0.20415029 320:-0.2738728 321:-0.30212941 322:-0.28616326 323:-0.32636542 324:-0.3377377 325:-0.30331353 326:-0.2549256 327:-0.18278246 328:-0.083500398 329:-0.063504548 330:0.065972163 331:0.2041078 332:0.14361435 333:0.10275685 334:0.099725516 335:0.078807272 336:0.13408072 337:0.12747919 338:0.12305723 339:0.15088353 340:0.30953383 341:0.40365747 342:0.39489429 343:0.35693523 344:0.39947469 345:0.48283841 346:0.58796834 347:0.73161123 348:0.86146532 349:0.95997537 350:0.95089598 351:0.94549426 352:0.83674943 353:0.99225472 354:1.1734205 355:0.9277486 356:1.0034585 357:1.099025 358:1.1519396 359:1.213796 360:1.2078228 361:1.1860135 362:1.2782094 363:1.3577951 364:1.4149853 365:1.3944233 366:1.3598068 367:1.3559014 368:1.2272888 369:1.1302629 370:1.1687559 371:1.1459798 372:1.0644309 373:1.0334982 374:1.0794324 375:1.1105763 376:1.1833465 377:1.1779528 378:1.1342342 379:1.2114696 380:1.2759238 381:1.0859526 382:0.95436861 383:1.1828317 384:1.3897193 385:1.3130905 386:1.2861312 387:1.312472 388:1.3635382 389:1.3250234 390:1.2367337 391:1.2095724 392:1.1469826 393:1.2443731 394:1.2161702 395:1.139368 396:1.3277627 397:1.4306093 398:1.361674 399:1.2565762 400:1.1830465 401:1.3233945 402:1.3682949 403:1.30963 404:1.2527454 405:1.2746454 406:1.2898659 407:1.347197 408:1.4402885 409:1.3961148 410:1.2147957 411:1.2661364 412:1.2461341 413:1.2313213 414:1.3063111 415:1.1635614 416:1.1082158 417:1.1645646 418:1.0756689 419:1.0781739 420:1.0097271 421:0.94348259 422:1.0327589 423:0.93163131 424:0.92888571 425:0.89487541 426:0.8484218 427:0.87799693 428:0.83557595 429:0.78159212 430:0.84781373 431:0.85673639 432:0.75752471 433:0.6301448 434:0.5311756 435:0.4569816 436:0.45470734 437:0.45556937 438:0.40844251 439:0.42915411 440:0.52187265 441:0.50515806 442:0.33597129 443:0.29500212 444:0.35905928 445:0.35183336 446:0.30707443 447:0.37686066 448:0.62961262 449:0.59899813 450:0.47188886 
6.695705734980858 1:0.79131459 2:0.79362445 3:0.79554041 4:0.79323958 5:0.7859996 6:0.78043681 7:0.76330061 8:0.75523091 9:0.76607942 10:0.76473233 11:0.76754623 12:0.76947102 13:0.76239663 14:0.73144234 15:0.6955151 16:0.66528792 17:0.64879521 18:0.66118918 19:0.61100222 20:0.62045597 21:0.63020854 22:0.64488042 23:0.67600958 24:0.69516021 25:0.6804648 26:0.69583506 27:0.71234019 28:0.71396965 29:0.69530298 30:0.67143795 31:0.6672188 32:0.65705535 33:0.64109627 34:0.63606048 35:0.66216576 36:0.68249314 37:0.67543407 38:0.68486237 39:0.68431279 40:0.69607131 41:0.70496386 42:0.70435224 43:0.71198897 44:0.71709055 45:0.71323055 46:0.70620209 47:0.71109626 48:0.71566464 49:0.70079842 50:0.72637861 51:0.75174112 52:0.6821381 53:0.6326065 54:0.64688541 55:0.69340945 56:0.64924252 57:0.5880193 58:0.59330342 59:0.58076674 60:0.54459314 61:0.54930884 62:0.47370624 63:0.37577157 64:0.35898802 65:0.28246624 66:0.15450792 67:0.026418541 68:-0.044310055 69:-0.12704444 70:-0.27260133 71:-0.39441315 72:-0.50712339 73:-0.58702899 74:-0.68941406 75:-0.79262697 76:-0.90189514 77:-1.0210578 78:-1.1677915 79:-1.3223611 80:-1.4772787 81:-1.5970193 82:-1.6672417 83:-1.7498358 84:-1.8365946 85:-1.8904632 86:-1.9252793 87:-1.936286 88:-1.9510829 89:-1.9604926 90:-1.9697174 91:-1.9944868 92:-2.034167 93:-2.0732281 94:-2.1198701 95:-2.1455785 96:-2.1754866 97:-2.2257031 98:-2.2426303 99:-2.2053605 100:-2.1821923 101:-2.1362797 102:-2.0967412 103:-2.0574701 104:-2.0476254 105:-2.0302688 106:-2.0267905 107:-2.038076 108:-2.0461935 109:-2.0178551 110:-2.0091784 111:-2.0182439 112:-2.0169597 113:-2.0041044 114:-2.0151719 115:-2.0182205 116:-1.9792218 117:-1.9737899 118:-1.9518535 119:-1.9269806 120:-1.9259778 121:-1.9285314 122:-1.902785 123:-1.8959972 124:-1.8845339 125:-1.8916081 126:-1.9147708 127:-1.9217234 128:-1.9112612 129:-1.9109141 130:-1.9167802 131:-1.9096811 132:-1.9150337 133:-1.9141362 134:-1.9000249 135:-1.8829351 136:-1.874049 137:-1.8724851 138:-1.8744083 139:-1.8429995 140:-1.8087298 141:-1.8054383 142:-1.7942755 143:-1.773672 144:-1.7780847 145:-1.7609818 146:-1.7642679 147:-1.7539094 148:-1.7088609 149:-1.6717931 150:-1.6257498 151:0.90979536 152:0.99441847 153:0.84594498 154:0.71175934 155:0.523074 156:0.42006355 157:0.33476089 158:0.34863308 159:0.079305265 160:-0.074590527 161:-0.18504177 162:0.29660257 163:0.65585239 164:1.1014208 165:1.4442862 166:1.3073986 167:1.3322349 168:1.4821993 169:1.5351177 170:1.7082814 171:1.5637244 172:1.1536951 173:0.63154378 174:0.29685488 175:0.17946307 176:0.27188704 177:0.3268514 178:0.14935757 179:0.072650772 180:0.23093255 181:0.26294852 182:0.26255222 183:0.39981015 184:0.4477372 185:0.40234964 186:0.40131123 187:0.23335087 188:0.026688481 189:0.029320542 190:0.030832193 191:-0.010490586 192:0.029602764 193:0.096712685 194:0.10925728 195:0.14954125 196:0.2337609 197:0.32969787 198:0.31182369 199:0.43891099 200:0.35847463 201:0.43504779 202:0.78475541 203:1.2577674 204:1.2052305 205:0.95430999 206:1.043157 207:1.2539014 208:1.1654052 209:1.2031609 210:1.0064398 211:0.96454852 212:1.3004731 213:1.0699439 214:0.38372203 215:0.28814139 216:0.76425365 217:0.73866168 218:-0.034562074 219:-0.20814296 220:0.55578931 221:0.47562959 222:0.013160644 223:-0.33079507 224:0.10045958 225:0.57727859 226:0.067668955 227:-0.82979144 228:-0.71095149 229:-0.12337672 230:-0.0070443364 231:-0.43139567 232:-0.91823415 233:-0.61560303 234:0.077010853 235:0.036238282 236:-0.42943666 237:-0.65396706 238:-0.55590742 239:-0.50519684 240:-0.7820103 241:-1.0472219 242:-1.0306294 243:-0.92308232 244:-0.86283674 245:-0.91746332 246:-0.75796792 247:-0.40983178 248:-0.25588604 249:-0.30987386 250:-0.40339692 251:-0.6079243 252:-0.39636961 253:-0.28887824 254:-0.3605846 255:-0.51521895 256:-0.64818204 257:-0.55924375 258:-0.56095578 259:-0.56982289 260:-0.46224038 261:-0.40643014 262:-0.31250466 263:-0.36279786 264:-0.36436135 265:-0.19753104 266:-0.22566435 267:-0.43408144 268:-0.47138254 269:-0.40862696 270:-0.44861383 271:-0.61862111 272:-0.62797428 273:-0.62770891 274:-0.61256514 275:-0.54831215 276:-0.65674642 277:-0.67552415 278:-0.63282876 279:-0.54384877 280:-0.42021954 281:-0.41728207 282:-0.40341973 283:-0.32215449 284:-0.33182676 285:-0.4886045 286:-0.43857265 287:-0.21703783 288:-0.18511975 289:-0.5575941 290:-0.74831879 291:-0.52876858 292:-0.22072753 293:-0.12515313 294:-0.40786951 295:-0.53983361 296:-0.16022722 297:0.17710777 298:-0.011551605 299:-0.41490176 300:-0.1535185 301:-0.84742776 302:-0.84223069 303:-0.8410901 304:-0.90897016 305:-0.82721326 306:-0.84958686 307:-0.81624309 308:-0.78572512 309:-0.82434992 310:-0.69699031 311:-0.58831397 312:-0.3291631 313:-0.16914286 314:-0.1786128 315:-0.16233398 316:-0.06155793 317:-0.038804284 318:-0.0069545444 319:0.033313802 320:0.062167445 321:0.057924906 322:-0.020447204 323:-0.11801563 324:-0.045974766 325:0.039201421 326:0.091346271 327:-0.007538965 328:-0.065226755 329:0.10037011 330:0.23016297 331:0.076726656 332:-0.061084835 333:-0.049438679 334:-0.076742483 335:-0.067387355 336:0.0043251844 337:-0.022356425 338:-0.039749626 339:-0.016235811 340:-0.029622516 341:-0.0090282423 342:0.054290956 343:0.089339996 344:0.13595608 345:0.10465536 346:0.15057914 347:0.21164781 348:0.31262326 349:0.37148948 350:0.5935469 351:0.9257782 352:0.97326233 353:0.93947002 354:1.1314951 355:1.3471914 356:1.4479502 357:1.3851296 358:1.5578081 359:1.5869315 360:1.8979092 361:1.9905644 362:1.9647569 363:2.0277061 364:1.8884922 365:1.8162421 366:1.6565502 367:1.4400608 368:1.3697247 369:1.2807237 370:1.1378061 371:0.99623516 372:0.79392205 373:0.67342959 374:0.46292293 375:0.35107694 376:0.25724925 377:0.33620908 378:0.36546387 379:0.3162878 380:0.14325874 381:-0.050662214 382:-0.1053066 383:-0.10328816 384:-0.25410513 385:-0.53208946 386:-0.7714153 387:-0.93670141 388:-1.020768 389:-1.0545724 390:-1.0220511 391:-0.89577414 392:-0.68503536 393:-0.52585607 394:-0.36951427 395:-0.14247559 396:-0.086194123 397:-0.15529957 398:-0.15017008 399:-0.21066589 400:-0.16189979 401:-0.22183488 402:-0.28308731 403:-0.17004055 404:-0.18620913 405:-0.13213716 406:0.024360163 407:0.11065273 408:0.19026539 409:0.26269218 410:0.20356086 411:0.26694774 412:0.23799896 413:0.32439654 414:0.3421043 415:0.23679617 416:0.21337223 417:0.16428366 418:0.16489674 419:0.12676527 420:0.18720548 421:0.1580509 422:0.16138177 423:0.31668608 424:0.2618326 425:0.27268736 426:0.32014283 427:0.28839528 428:0.31967241 429:0.34613157 430:0.39088207 431:0.43671941 432:0.42030115 433:0.37953583 434:0.388084 435:0.38508652 436:0.43556624 437:0.50596525 438:0.49029892 439:0.48604688 440:0.52187265 441:0.5390045 442:0.54670679 443:0.62651463 444:0.76240781 445:0.79011083 446:0.8631403 447:0.80150294 448:0.84718354 449:0.87387161 450:0.82760204 
1.889241586105621 1:-1.8545237 2:-1.8397501 3:-1.8263465 4:-1.8218303 5:-1.8088233 6:-1.7967981 7:-1.7763488 8:-1.7655072 9:-1.7514218 10:-1.7293773 11:-1.706541 12:-1.6808331 13:-1.6501282 14:-1.6390701 15:-1.6315311 16:-1.6446893 17:-1.6201006 18:-1.5970609 19:-1.5840279 20:-1.5964156 21:-1.5878109 22:-1.5773826 23:-1.5552962 24:-1.5515465 25:-1.5460232 26:-1.5418489 27:-1.5431409 28:-1.5236874 29:-1.5349364 30:-1.5292606 31:-1.5379786 32:-1.5241279 33:-1.5249814 34:-1.5337986 35:-1.5296428 36:-1.5189025 37:-1.5014083 38:-1.4967768 39:-1.4773968 40:-1.4505276 41:-1.42802 42:-1.4184867 43:-1.39883 44:-1.3792463 45:-1.3616868 46:-1.3366253 47:-1.3139552 48:-1.3023975 49:-1.2727505 50:-1.2387145 51:-1.2198832 52:-1.214435 53:-1.2127973 54:-1.2034019 55:-1.1958756 56:-1.1754013 57:-1.1500497 58:-1.1477129 59:-1.1191128 60:-1.0719312 61:-1.044297 62:-1.0282932 63:-1.0085031 64:-0.98844827 65:-0.97784604 66:-0.97058798 67:-0.95444356 68:-0.90075312 69:-0.89058119 70:-0.87927067 71:-0.86873024 72:-0.844089 73:-0.81942615 74:-0.82985938 75:-0.79709201 76:-0.76406908 77:-0.73749578 78:-0.72279362 79:-0.71280266 80:-0.6611838 81:-0.6620351 82:-0.64312788 83:-0.62389091 84:-0.57625694 85:-0.55336655 86:-0.53699111 87:-0.50560197 88:-0.48923939 89:-0.45628371 90:-0.41576117 91:-0.39649711 92:-0.37847437 93:-0.35358096 94:-0.3128393 95:-0.28380121 96:-0.27508806 97:-0.2532354 98:-0.21906954 99:-0.17027026 100:-0.13450543 101:-0.10634704 102:-0.052863075 103:-0.029155201 104:-0.035353743 105:-0.044102624 106:-0.038763191 107:-0.039087233 108:-0.03185201 109:-0.010593037 110:0.037042202 111:0.092130205 112:0.13936258 113:0.15550498 114:0.17272527 115:0.21485076 116:0.22982906 117:0.22836022 118:0.22822606 119:0.25524278 120:0.26161815 121:0.30737123 122:0.32349116 123:0.31411728 124:0.34831606 125:0.38008469 126:0.38548508 127:0.41855845 128:0.46913049 129:0.51554744 130:0.53517401 131:0.549836 132:0.54432264 133:0.5520508 134:0.58432119 135:0.60171411 136:0.62186508 137:0.64605909 138:0.6494284 139:0.67741024 140:0.68673867 141:0.69152249 142:0.71698018 143:0.73273042 144:0.74304305 145:0.74077742 146:0.74613397 147:0.75245951 148:0.73809707 149:0.72895234 150:0.72443062 151:-1.0538806 152:-0.84352949 153:-0.86518477 154:-0.88801165 155:-1.0051196 156:-0.87635704 157:-0.68590281 158:-0.71266539 159:-0.84388151 160:-0.84061357 161:-0.81845398 162:-0.80433789 163:-0.77918062 164:-0.79631366 165:-0.77121283 166:-0.75946855 167:-0.79553874 168:-0.78529443 169:-0.99201515 170:-1.1258442 171:-1.0859687 172:-0.93912787 173:-0.95000539 174:-1.0790175 175:-1.1839901 176:-1.1050328 177:-0.96551083 178:-0.85468497 179:-0.85521718 180:-0.89633141 181:-0.88651214 182:-0.96848392 183:-0.99075836 184:-0.90058167 185:-0.89946758 186:-1.0165732 187:-0.97007945 188:-0.88834514 189:-0.88756759 190:-0.97506812 191:-1.0410799 192:-1.0041813 193:-0.91226819 194:-0.90986529 195:-0.8668719 196:-0.90786211 197:-0.90504447 198:-0.89338444 199:-0.8586508 200:-0.87614354 201:-0.86276332 202:-0.78078814 203:-0.68440651 204:-0.6819711 205:-0.75198171 206:-0.863417 207:-0.7530355 208:-0.48363699 209:-0.54270811 210:-0.81528776 211:-0.81939577 212:-0.64069366 213:-0.66715268 214:-0.73165891 215:-0.70816839 216:-0.68522002 217:-0.68166036 218:-0.86646315 219:-0.81932948 220:-0.60076648 221:-0.91615119 222:-0.94640024 223:-0.78671478 224:-0.72362292 225:-0.93419724 226:-0.9695924 227:-0.85884463 228:-0.5119735 229:-0.73105309 230:-1.2143237 231:-0.74716772 232:-0.4730497 233:-0.56325018 234:-0.95604172 235:-0.71147299 236:-0.48196714 237:-0.44631269 238:-0.40144724 239:-0.52607275 240:-0.5734356 241:-0.42400877 242:-0.32142104 243:-0.36449338 244:-0.49898992 245:-0.46762551 246:-0.30327378 247:-0.17804852 248:-0.33822561 249:-0.59608193 250:-0.46565902 251:-0.16801928 252:-0.33833284 253:-0.47892971 254:-0.28479025 255:-0.15675629 256:-0.33854094 257:-0.33327333 258:-0.23606298 259:-0.2632946 260:-0.25146579 261:-0.14836759 262:-0.26808274 263:-0.10484179 264:-0.0290455 265:-0.2458778 266:-0.14453336 267:0.053573342 268:0.010872085 269:-0.21600265 270:-0.10820671 271:0.039025164 272:0.070302718 273:0.35984341 274:0.22025001 275:0.20686762 276:0.42413556 277:0.57817104 278:0.40321154 279:0.32684507 280:0.47869998 281:0.76366149 282:0.95612254 283:0.81721298 284:0.73057245 285:0.99653945 286:1.3147041 287:1.5281704 288:1.5331065 289:1.4744341 290:1.4883536 291:1.6228018 292:1.7137141 293:1.5853199 294:1.4484597 295:1.4343513 296:1.442045 297:1.3638409 298:1.1992538 299:1.0407254 300:0.81268187 301:0.51754156 302:0.60330105 303:0.71416604 304:0.76901324 305:0.74085988 306:0.7414814 307:0.76822042 308:0.75412408 309:0.76953382 310:0.80872656 311:0.82979308 312:0.80052247 313:0.86783655 314:0.85667215 315:0.79949484 316:0.79250739 317:0.86144582 318:0.79958591 319:0.85514604 320:0.82245849 321:0.85996206 322:0.85136497 323:0.91265089 324:0.98624714 325:0.99734782 326:0.88888857 327:0.92035285 328:0.9718025 329:0.97137515 330:0.96458403 331:0.98403798 332:1.0478899 333:1.0271209 334:0.96866288 335:0.95154489 336:0.9169391 337:0.9087649 338:0.94566026 339:0.94362913 340:0.95564814 341:0.98526634 342:0.97097647 343:1.0492848 344:1.1219549 345:1.1413218 346:1.2151243 347:1.2376471 348:1.2198002 349:1.2038726 350:1.2256081 351:1.2806672 352:1.3069605 353:1.3353553 354:1.341122 355:1.3037258 356:1.3169647 357:1.3136035 358:1.2741143 359:1.296715 360:1.4117588 361:1.3634273 362:1.2982839 363:1.3802616 364:1.3593997 365:1.3404465 366:1.2475255 367:1.3907967 368:1.2706389 369:1.2542914 370:1.2306555 371:1.3421241 372:1.3757308 373:1.3913978 374:1.3476682 375:1.2900546 376:1.4148709 377:1.3647627 378:1.2348001 379:1.3255613 380:1.2477156 381:1.2545833 382:1.231955 383:1.2134536 384:1.2696524 385:1.2871021 386:1.2797808 387:1.203472 388:1.1896389 389:1.1930564 390:1.2115428 391:1.2200572 392:1.2088751 393:1.269394 394:1.3152755 395:1.3075144 396:1.3141452 397:1.293893 398:1.2659313 399:1.2499868 400:1.2421891 401:1.2716713 402:1.3747039 403:1.4049529 404:1.3179549 405:1.3260347 406:1.3067958 407:1.1895169 408:1.0515743 409:1.0626349 410:1.0598485 411:1.0931607 412:1.1077626 413:1.0268583 414:0.99442182 415:1.0038423 416:0.99932996 417:0.87703445 418:0.90896503 419:0.9376705 420:0.87771748 421:0.81946706 422:0.82599147 423:0.72593534 424:0.83695211 425:0.75013027 426:0.54098076 427:0.48929658 428:0.60875629 429:0.57370895 430:0.56712714 431:0.38145402 432:0.3600029 433:0.27308246 434:0.21417266 435:0.18465175 436:0.18460522 437:0.21408914 438:0.060028035 439:-0.1187022 440:-0.27187237 441:-0.26484836 442:-0.19399722 443:-0.25126378 444:-0.47352111 445:-0.6664531 446:-0.78029324 447:-0.84089657 448:-0.87360461 449:-0.89657332 450:-0.97467806 
1.106858854895868 1:0.78042636 2:0.77962541 3:0.79088066 4:0.78080907 5:0.77823996 6:0.78043681 7:0.77564399 8:0.77521237 9:0.79052118 10:0.79200692 11:0.78857672 12:0.76499967 13:0.74168827 14:0.74623954 15:0.72512128 16:0.71116191 17:0.72412964 18:0.75399398 19:0.78707416 20:0.77491617 21:0.7231176 22:0.70554139 23:0.68786247 24:0.721801 25:0.69685795 26:0.62234543 27:0.64289432 28:0.63821958 29:0.60421084 30:0.62578031 31:0.63061801 32:0.65552684 33:0.69018585 34:0.70849185 35:0.71320999 36:0.76339249 37:0.76294532 38:0.7195416 39:0.67323521 40:0.68337893 41:0.72242132 42:0.73465572 43:0.73767193 44:0.76708012 45:0.77746947 46:0.78464922 47:0.84066116 48:0.86797122 49:0.84064385 50:0.81066378 51:0.78281479 52:0.77688909 53:0.80319005 54:0.81904124 55:0.82514794 56:0.82676709 57:0.82222718 58:0.81899072 59:0.82491461 60:0.82309546 61:0.81040811 62:0.78333545 63:0.75101785 64:0.75346772 65:0.73458295 66:0.73329741 67:0.74915903 68:0.72825456 69:0.68925109 70:0.66898475 71:0.65291433 72:0.66782248 73:0.64896867 74:0.66033941 75:0.65851045 76:0.62917265 77:0.63053996 78:0.65912159 79:0.65946208 80:0.67465874 81:0.68714398 82:0.69234097 83:0.72571105 84:0.73178578 85:0.72351441 86:0.71308941 87:0.71601809 88:0.71453918 89:0.72875478 90:0.72950932 91:0.74062535 92:0.74230222 93:0.74744194 94:0.76139381 95:0.74570871 96:0.73664639 97:0.75136558 98:0.74837618 99:0.74222784 100:0.73128461 101:0.72950759 102:0.74421837 103:0.7506089 104:0.73919271 105:0.7252852 106:0.72621862 107:0.72572988 108:0.7346402 109:0.74327246 110:0.73523565 111:0.72119844 112:0.70556435 113:0.69356465 114:0.68726442 115:0.6927339 116:0.68077607 117:0.68468813 118:0.67188107 119:0.6633127 120:0.65629509 121:0.64716958 122:0.64363823 123:0.65095291 124:0.58591609 125:0.582145 126:0.55288512 127:0.55400884 128:0.55824414 129:0.57000668 130:0.59734477 131:0.58935852 132:0.55803652 133:0.46795886 134:0.34939848 135:0.25995938 136:0.20278657 137:0.10293496 138:0.0036139202 139:-0.11041396 140:-0.23943079 141:-0.27174812 142:-0.35385717 143:-0.45844687 144:-0.57990916 145:-0.67603518 146:-0.7804833 147:-0.86162297 148:-0.95229822 149:-1.065322 150:-1.1616517 151:0.85792467 152:0.95280455 153:0.89366573 154:0.9682627 155:0.93796818 156:0.40042082 157:0.31585971 158:0.34863308 159:0.14131035 160:0.029867161 161:0.39143451 162:0.14647433 163:-0.3325632 164:-0.80350205 165:-1.5587822 166:-1.8802345 167:-1.9727606 168:-1.6817454 169:-1.175952 170:-0.024127767 171:0.78626952 172:1.1616224 173:1.0995532 174:0.56369074 175:-0.15938329 176:-0.20806789 177:0.96533988 178:2.4646497 179:3.0229809 180:2.5277329 181:1.4725117 182:0.61870104 183:0.29825177 184:0.42475449 185:0.89614237 186:1.2174593 187:1.4917951 188:1.8210122 189:1.6767374 190:1.3627829 191:0.88711943 192:0.8760568 193:0.91062393 194:0.72899398 195:0.41591159 196:0.32210078 197:0.42067888 198:0.49724033 199:0.13731555 200:-0.46213984 201:-1.1193926 202:-1.6322241 203:-1.7364174 204:-1.8623057 205:-2.0419382 206:-1.7874221 207:-1.221946 208:-0.64977183 209:-0.27879768 210:0.081878816 211:0.41617654 212:0.57428124 213:0.5502388 214:0.53708691 215:0.56051384 216:0.651124 217:0.81639075 218:0.91308176 219:1.335103 220:1.5145132 221:1.2204204 222:0.86027299 223:0.98377341 224:1.097207 225:1.0582027 226:1.1049303 227:1.0223495 228:1.0158931 229:0.82957032 230:0.69439171 231:0.46568405 232:0.46183765 233:0.52120171 234:0.59720045 235:0.42789657 236:0.25345956 237:0.18962882 238:0.2499718 239:0.24633565 240:0.16961179 241:0.12366339 242:0.0039038992 243:0.041753112 244:0.072769363 245:0.021903867 246:0.015012124 247:0.072527975 248:0.029135539 249:0.0096142247 250:0.073945853 251:0.19627707 252:0.24848333 253:0.22426074 254:0.239454 255:0.27211868 256:0.28074126 257:0.33274474 258:0.3208961 259:0.32473927 260:0.27547067 261:0.28173667 262:0.28401822 263:0.2006325 264:0.10781811 265:0.26521651 266:0.34225259 267:0.23215115 268:0.28345079 269:0.46559108 270:0.7428111 271:0.87011661 272:1.0037138 273:1.1658604 274:1.1656078 275:1.1508423 276:1.3556852 277:1.2191051 278:0.93504555 279:0.90284253 280:0.86953455 281:0.72222488 282:0.48355437 283:0.35996683 284:-0.053404895 285:-0.51689296 286:-0.41901938 287:-0.26228397 288:-0.47929079 289:-0.5992056 290:-0.38862001 291:-0.26141368 292:-0.37704605 293:-0.087142616 294:0.29152212 295:0.44391276 296:0.26313739 297:0.28328915 298:0.73014594 299:1.093899 300:0.66085038 301:-0.79604594 302:-0.79574346 303:-0.79171689 304:-0.86848262 305:-0.97097173 306:-1.050105 307:-1.1621772 308:-1.040263 309:-1.0668058 310:-1.2247242 311:-1.0917839 312:-1.1835643 313:-1.2828588 314:-1.2745508 315:-1.2033006 316:-1.1276108 317:-1.2168578 318:-0.92481438 319:-0.9371916 320:-0.60991304 321:-0.48970261 322:-0.55407531 323:-0.5524471 324:-0.43499202 325:-0.079447549 326:0.2075149 327:0.63726721 328:0.4624247 329:0.20812331 330:-0.0072480628 331:-0.10875817 332:-0.079080368 333:-0.20611055 334:-0.16832714 335:-0.17149565 336:-0.21842181 337:-0.32202766 338:-0.34608357 339:-0.36118727 340:-0.37092542 341:-0.44095836 342:-0.62271073 343:-0.73255965 344:-0.92470632 345:-1.0521398 346:-1.1106754 347:-1.1300435 348:-1.0231948 349:-1.0292412 350:-1.2088325 351:-1.3393772 352:-1.4254643 353:-1.3610634 354:-1.2869378 355:-1.3150752 356:-1.2147054 357:-1.0635892 358:-0.98922402 359:-0.93380614 360:-0.8686162 361:-0.90375594 362:-0.83964884 363:-0.79286411 364:-0.72608979 365:-0.53674724 366:-0.41864886 367:-0.3231812 368:-0.18881366 369:-0.24421631 370:-0.27556779 371:-0.25866682 372:-0.069130043 373:-0.098765818 374:-0.071385312 375:-0.010068291 376:0.13493451 377:0.10983937 378:-0.068086827 379:-0.054510523 380:-0.15184173 381:-0.098842417 382:-0.081072864 383:-0.079228091 384:-0.14495344 385:-0.13359989 386:-0.14695417 387:-0.20514362 388:-0.18688938 389:-0.21878131 390:-0.16346101 391:-0.13038423 392:-0.06611036 393:-0.042118527 394:-0.033418108 395:-0.050759354 396:-0.0090279391 397:0.0087599692 398:-0.01657561 399:-0.0063941687 400:0.0045756406 401:0.010919333 402:0.03308936 403:0.072599421 404:0.14418528 405:0.17405752 406:0.12805545 407:0.10027904 408:0.059330068 409:0.090837482 410:0.2096772 411:0.13263726 412:0.036371933 413:0.079445886 414:0.11379317 415:0.21313408 416:0.23316966 417:0.30804873 418:0.31736975 419:0.41379361 420:0.66650204 421:0.65824687 422:0.58124631 423:0.67665402 424:0.89040187 425:0.87111128 426:0.92419952 427:0.90856887 428:1.1357784 429:1.2980177 430:1.3809007 431:1.5530803 432:1.6753981 433:1.6104029 434:1.5041985 435:1.546301 436:1.4734389 437:1.3836934 438:1.5124546 439:1.3689384 440:1.3177343 441:1.5205511 442:1.7067953 443:1.377109 444:1.2908591 445:1.1368079 446:1.0319862 447:0.82621757 448:0.62961262 449:0.65310708 450:0.65082337 
0.2705133034514812 1:0.78509275 2:0.77962541 3:0.80641316 4:0.82276206 5:0.82790164 6:0.82990982 7:0.82501749 8:0.82132343 9:0.82718382 10:0.82534253 11:0.81261157 12:0.785866 13:0.75352162 14:0.75659759 15:0.73844407 16:0.73779841 17:0.75219541 18:0.73042451 19:0.69170186 20:0.67194271 21:0.65527924 22:0.67003253 23:0.6508222 24:0.66259924 25:0.66109107 26:0.63134416 27:0.63232647 28:0.6609446 29:0.66190253 30:0.67752564 31:0.69009429 32:0.69526809 33:0.72853708 34:0.73469043 35:0.72713115 36:0.71671979 37:0.71918969 38:0.71796527 39:0.73178811 40:0.73256191 41:0.7446399 42:0.74582016 43:0.75051342 44:0.76385498 45:0.74856196 46:0.73982229 47:0.75428456 48:0.75215476 49:0.74636603 50:0.73574363 51:0.73309692 52:0.74737649 53:0.7551165 54:0.74149357 55:0.72750647 56:0.72797081 57:0.72823586 58:0.73762047 59:0.74709248 60:0.73833389 61:0.72487559 62:0.70890535 63:0.69783334 64:0.69141474 65:0.6961678 66:0.68457279 67:0.68868483 68:0.6752787 69:0.66726827 70:0.65870221 71:0.64996826 72:0.64713161 73:0.65488962 74:0.58937757 75:0.58558149 76:0.5572634 77:0.55814115 78:0.5622513 79:0.57454846 80:0.6017117 81:0.5927319 82:0.56108346 83:0.47141602 84:0.35322283 85:0.26494894 86:0.20995141 87:0.11222887 88:0.014301973 89:-0.09919211 90:-0.22725884 91:-0.25712834 92:-0.33708205 93:-0.44012424 94:-0.55764205 95:-0.64942156 96:-0.75138643 97:-0.8298029 98:-0.91575713 99:-1.0231895 100:-1.1170837 101:-1.2042785 102:-1.3120657 103:-1.4092139 104:-1.4682647 105:-1.5023789 106:-1.5579307 107:-1.6256595 108:-1.6690794 109:-1.6949875 110:-1.7159976 111:-1.7261765 112:-1.7316296 113:-1.7210703 114:-1.72473 115:-1.7601046 116:-1.848064 117:-1.9046047 118:-1.963606 119:-2.020588 120:-2.0536242 121:-2.0565074 122:-2.0458922 123:-2.030436 124:-2.055724 125:-2.0416676 126:-2.026869 127:-1.9984786 128:-1.9792292 129:-1.9835264 130:-1.9971473 131:-1.9902462 132:-2.0034121 133:-2.0242202 134:-1.9921514 135:-2.0045506 136:-1.9792052 137:-1.9671439 138:-1.969795 139:-1.9622717 140:-1.9408151 141:-1.9311507 142:-1.9111516 143:-1.8961295 144:-1.8916635 145:-1.880645 146:-1.8534135 147:-1.8335779 148:-1.789582 149:-1.7519227 150:-1.7241949 151:-1.157622 152:-1.6758078 153:-1.7855135 154:-1.9207752 155:-2.1045892 156:-1.825756 157:-1.2592386 158:-0.69393659 159:-0.32717249 160:0.043794853 161:0.38431752 162:0.54681632 163:0.52406364 164:0.51197298 165:0.53158891 166:0.62329467 167:0.79846351 168:0.90214276 169:1.3431835 170:1.5326454 171:1.2305294 172:0.8524554 173:0.98658543 174:1.1057011 175:1.0588501 176:1.1137752 177:1.0268809 178:1.0185287 179:0.81929451 180:0.67479273 181:0.43574325 182:0.43288427 183:0.49355634 184:0.57031164 185:0.39486793 186:0.21456549 187:0.14395319 188:0.20540599 189:0.20077117 190:0.12101636 191:0.075945934 192:-0.05365501 193:-0.010911941 194:0.019739762 195:-0.032712147 196:-0.031258725 197:0.030760248 198:-0.019277444 199:-0.045044487 200:0.018400164 201:0.14908941 202:0.20110979 203:0.17878191 204:0.19827843 205:0.23084231 206:0.23627925 207:0.29107184 208:0.27935266 209:0.28285784 210:0.23939661 211:0.2426411 212:0.23911575 213:0.15868014 214:0.076992268 215:0.23079982 216:0.30466444 217:0.19455821 218:0.2475609 219:0.43360288 220:0.71557662 221:0.85178655 222:0.99521124 223:1.1585426 224:1.1521458 225:1.1345399 226:1.3420186 227:1.1966687 228:0.90219143 229:0.8710028 230:0.84277242 231:0.68815981 232:0.43215868 233:0.30431133 234:-0.098827882 235:-0.56193074 236:-0.46883452 237:-0.31652871 238:-0.52904478 239:-0.64436953 240:-0.43004049 241:-0.3044022 242:-0.41251202 243:-0.11058932 244:0.26119004 245:0.40558905 246:0.23586356 247:0.26672476 248:0.70685352 249:1.0812305 250:0.64814078 251:0.30625332 252:0.67408627 253:0.93378624 254:0.5363152 255:-0.25917419 256:-0.72868872 257:-0.57708352 258:-0.46812926 259:-0.90762958 260:-1.4700064 261:-1.4783823 262:-1.207289 263:-1.2995857 264:-1.3976816 265:-1.3095065 266:-1.0234524 267:-0.81184219 268:-0.56224211 269:-0.23822853 270:-0.0046045408 271:-0.10551248 272:-0.27171051 273:-0.24285396 274:0.1227131 275:-0.10537017 276:-0.47896978 277:-0.8656914 278:-0.7778744 279:-0.65101108 280:-0.58958119 281:-0.61755905 282:-0.81055539 283:-0.85435903 284:-0.61024862 285:-0.43202759 286:-0.52982125 287:-0.54668828 288:-0.45923367 289:-0.4882416 290:-0.55865944 291:-0.5160374 292:-0.44869203 293:-0.44190739 294:-0.40133314 295:-0.3591455 296:-0.38819278 297:-0.45373456 298:-0.46164157 299:-0.26202767 300:-0.23633568 301:-1.3925219 302:-1.4841973 303:-1.4156147 304:-1.3385879 305:-1.3646488 306:-1.2571619 307:-1.1045215 308:-1.0318486 309:-0.97614837 310:-0.9085027 311:-0.94493852 312:-0.87769273 313:-0.83073573 314:-0.76422853 315:-0.56816892 316:-0.45088126 317:-0.35420513 318:-0.21699112 319:-0.27022725 320:-0.30537657 321:-0.29350535 322:-0.09950322 323:-0.12909806 324:-0.1012329 325:-0.039151673 326:0.10921837 327:0.084576203 328:-0.09720563 329:-0.083708273 330:-0.18253285 331:-0.12663623 332:-0.10832311 333:-0.10763109 334:-0.17502846 335:-0.16263537 336:-0.17516997 337:-0.23426679 338:-0.21755184 339:-0.24977438 340:-0.19276101 341:-0.15656873 342:-0.090780833 343:-0.06781911 344:-0.059486886 345:-0.075537738 346:-0.034559147 347:-0.015836187 348:-0.041175754 349:-0.031276521 350:-0.020646836 351:-0.011829632 352:0.011171426 353:0.048728104 354:0.12087261 355:0.15188805 356:0.10373859 357:0.074518095 358:0.035801102 359:0.067440786 360:0.19020292 361:0.10915303 362:0.011509372 363:0.06086386 364:0.093283163 365:0.18894107 366:0.21092845 367:0.28851392 368:0.29629432 369:0.39422522 370:0.64673605 371:0.63769174 372:0.55776351 373:0.64956962 374:0.85878693 375:0.83479268 376:0.88629646 377:0.86806802 378:1.0873034 379:1.2399925 380:1.3128113 381:1.4735842 382:1.5866488 383:1.5218598 384:1.4268309 385:1.4711869 386:1.4004394 387:1.3187604 388:1.4473451 389:1.2956974 390:1.2409321 391:1.4423348 392:1.6235549 393:1.3194358 394:1.2312514 395:1.0804075 396:0.98959326 397:0.78804278 398:0.58905266 399:0.61740336 400:0.62009665 401:0.54108171 402:0.42190121 403:0.28057654 404:0.15070622 405:-0.010087532 406:-0.12800843 407:-0.169437 408:-0.30278793 409:-0.5208834 410:-0.6568043 411:-0.72206584 412:-0.86106599 413:-0.95096636 414:-0.71791167 415:-0.54799648 416:-0.34689486 417:-0.18601716 418:-0.03840061 419:-0.0057093437 420:-0.062597395 421:0.027834597 422:0.036899318 423:0.046710125 424:-0.022520169 425:0.039366837 426:0.045177956 427:0.12024962 428:0.10619509 429:0.27173128 430:0.42352005 431:0.29745062 432:0.33990348 433:0.43941585 434:0.2471938 435:0.21733133 436:0.23564814 437:0.38207539 438:0.40634362 439:0.36593992 440:0.47107296 441:0.4459268 442:0.54670679 443:0.65153444 444:0.74083837 445:0.73777919 446:0.71680717 447:0.7206187 448:0.74389229 449:0.74617448 450:0.82329037 
2.712882902230049 1:-1.2043412 2:-1.312453 3:-1.4100754 4:-1.4691144 5:-1.5030936 6:-1.5587092 7:-1.6266854 8:-1.670211 9:-1.6964278 10:-1.7172553 11:-1.7275715 12:-1.732999 13:-1.7226075 14:-1.7263736 15:-1.7617983 16:-1.8503824 17:-1.9066668 18:-1.9653339 19:-2.0227405 20:-2.055383 21:-2.0582552 22:-2.0478751 23:-2.0323748 24:-2.0577216 25:-2.0437788 26:-2.0292801 27:-2.0005779 28:-1.9812178 29:-1.9858425 30:-1.9995343 31:-1.9924384 32:-2.0056085 33:-2.0266156 34:-1.9945854 35:-2.0076024 36:-1.9825179 37:-1.9702186 38:-1.9728282 39:-1.9648101 40:-1.9423573 41:-1.9311122 42:-1.9081272 43:-1.8900168 44:-1.879142 45:-1.8611445 46:-1.8297216 47:-1.8050221 48:-1.7545577 49:-1.709571 50:-1.6788704 51:-1.6595756 52:-1.6571241 53:-1.6454592 54:-1.6423217 55:-1.6174388 56:-1.5875671 57:-1.5876487 58:-1.569917 59:-1.5280605 60:-1.4715215 61:-1.4314442 62:-1.4153297 63:-1.3837494 64:-1.3711084 65:-1.3708625 66:-1.3500495 67:-1.3467884 68:-1.3348609 69:-1.3229101 70:-1.3214195 71:-1.3032754 72:-1.2918986 73:-1.2768193 74:-1.2423251 75:-1.2450842 76:-1.2254868 77:-1.1914966 78:-1.1799003 79:-1.147985 80:-1.1474973 81:-1.1264816 82:-1.0918454 83:-1.072737 84:-1.0440746 85:-1.0335479 86:-0.98733068 87:-0.95025295 88:-0.92983808 89:-0.91291854 90:-0.88780904 91:-0.83835946 92:-0.80831766 93:-0.80392657 94:-0.77828663 95:-0.73761945 96:-0.67786386 97:-0.63175755 98:-0.58799729 99:-0.53087948 100:-0.50044187 101:-0.4630197 102:-0.42038895 103:-0.40666004 104:-0.41488151 105:-0.35835962 106:-0.29786993 107:-0.30685016 108:-0.29552533 109:-0.23294528 110:-0.16395288 111:-0.14152371 112:-0.15488401 113:-0.16880496 114:-0.16489497 115:-0.069814205 116:0.067723923 117:0.022276653 118:0.046063077 119:0.082654066 120:0.13690611 121:0.15585941 122:0.11104333 123:0.11615248 124:0.14761045 125:0.21665356 126:0.22854755 127:0.21989787 128:0.25767438 129:0.28107017 130:0.30772 131:0.30814057 132:0.34623322 133:0.35940382 134:0.42770605 135:0.48779587 136:0.44557375 137:0.4970879 138:0.53058603 139:0.5502912 140:0.54521872 141:0.5359535 142:0.54640432 143:0.55461045 144:0.5462799 145:0.58282196 146:0.60127248 147:0.59790275 148:0.5924825 149:0.59854536 150:0.61504722 151:0.24288654 152:0.63376453 153:0.91411748 154:0.48225633 155:-0.3758634 156:-0.8567143 157:-0.6985036 158:-0.60029261 159:-1.1125702 160:-1.6414558 161:-1.6867269 162:-1.4763405 163:-1.4966971 164:-1.543906 165:-1.4851776 166:-1.2034083 167:-0.95640135 168:-0.70242921 169:-0.36023194 170:-0.11194574 171:-0.2291817 172:-0.42384949 173:-0.39323552 174:0.0050031722 175:-0.25619653 176:-0.66441848 177:-1.065515 178:-0.95958493 179:-0.81897233 180:-0.74837802 181:-0.78884555 182:-0.97622629 183:-0.99857054 184:-0.73970271 185:-0.555309 186:-0.66383118 187:-0.69500966 188:-0.60239713 189:-0.63411884 190:-0.69757838 191:-0.64214208 192:-0.57401609 193:-0.54903508 194:-0.51047941 195:-0.46731639 196:-0.47975348 197:-0.53462177 198:-0.55566128 199:-0.34663993 200:-0.32906723 201:-0.54747587 202:-0.44433361 203:-0.084220814 204:-0.068463852 205:-0.47214987 206:-0.57710555 207:-0.27787288 208:-0.17597987 209:-0.50887344 210:-0.81528776 211:-0.59727041 212:-0.32647601 213:-0.46781372 214:-0.64103421 215:-0.45013132 216:-0.14785417 217:-0.17995457 218:-0.50476703 219:-0.6054142 220:-0.36488997 221:-0.19392981 222:-0.26421242 223:-0.49036697 224:-0.51171599 225:-0.27006392 226:-0.16201034 227:-0.48841643 228:-0.46222901 229:-0.51007986 230:-0.18240335 231:-0.12997688 232:-0.52498788 233:-0.77266158 234:-0.3186263 235:-0.027851256 236:-0.48196714 237:-0.77077265 238:-0.49546648 239:-0.11551333 240:-0.09110659 241:-0.48066451 242:-0.4970965 243:-0.021722903 244:0.085763893 245:0.015288605 246:-0.22532621 247:-0.077817923 248:0.26982043 249:0.3024783 250:0.30224022 251:0.16190949 252:0.2420348 253:0.70572447 254:0.86475738 255:0.19530525 256:-0.07224959 257:0.54682198 258:0.75021872 259:0.42483014 260:0.051522676 261:0.38760848 262:0.98842291 263:1.4700479 264:1.0453338 265:-0.36329136 266:-0.29327351 267:1.4753274 268:1.849031 269:1.0212381 270:0.20999995 271:0.93515855 272:1.7233666 273:1.3473957 274:0.67792321 275:0.31578778 276:1.1779085 277:1.5994396 278:1.2942062 279:0.74209905 280:0.81742327 281:1.4266474 282:1.566826 283:1.371905 284:0.58403463 285:1.0672606 286:1.7122873 287:1.6445176 288:1.2456212 289:1.0305781 290:1.2332945 291:1.4000061 292:1.2903514 293:1.2875709 294:1.2327595 295:1.0997437 296:1.2531593 297:1.5387278 298:1.6873795 299:1.7120421 300:1.7029665 301:0.51083958 302:0.3863606 303:0.23838783 304:0.10321822 305:-0.061975873 306:-0.18264592 307:-0.22687392 308:-0.36289767 309:-0.588219 310:-0.7221205 311:-0.79599533 312:-0.93886704 313:-1.019466 314:-0.78514338 315:-0.61483994 316:-0.40807608 317:-0.24141278 318:-0.090969175 319:-0.053412212 320:-0.12055444 321:-0.03478369 322:-0.024839205 323:-0.016057218 324:-0.094601922 325:-0.036913013 326:-0.02929038 327:0.04862882 328:0.026141462 329:0.18791959 330:0.33888391 331:0.20857732 332:0.2493381 333:0.34895551 334:0.15780359 335:0.12753881 336:0.14705627 337:0.3008604 338:0.32442359 339:0.27943687 340:0.3846634 341:0.36089211 342:0.46217396 343:0.57993126 344:0.66958127 345:0.66970533 346:0.65970942 347:0.66893707 348:0.69363758 349:0.70041505 350:0.78562203 351:0.84472332 352:0.84325005 353:0.8756885 354:0.91083516 355:0.96252106 356:1.0163423 357:0.99173581 358:0.99249121 359:1.0334471 360:1.0183066 361:0.96940363 362:0.95099532 363:1.1433419 364:1.2029365 365:1.1585246 366:1.1031638 367:1.1588452 368:1.2438031 369:1.1444957 370:1.0594 371:1.1544161 372:1.1631881 373:1.2308853 374:1.1940816 375:1.2200143 376:1.2488723 377:1.1691617 378:1.2504436 379:1.2114696 380:1.1609214 381:1.1012826 382:1.1680661 383:1.1959553 384:1.0775455 385:0.9904006 386:1.114669 387:1.136395 388:1.1456403 389:1.1574462 390:1.1842526 391:1.2473176 392:1.1964966 393:1.1526298 394:1.1558452 395:1.1459191 396:1.1983959 397:1.2528781 398:1.2859705 399:1.302702 400:1.34076 401:1.4419267 402:1.453748 403:1.3377936 404:1.3527332 405:1.4202484 406:1.3766314 407:1.2953285 408:1.2479773 409:1.2958662 410:1.3677042 411:1.3149765 412:1.1176463 413:0.988395 414:0.97607539 415:1.080744 416:0.99932996 417:1.1362166 418:1.067537 419:1.1203249 420:1.2087571 421:1.042695 422:0.93992456 423:0.93163131 424:0.93529968 425:0.87111128 426:0.88306304 427:0.79283225 428:0.6999289 429:0.8100393 430:0.65416174 431:0.48535295 432:0.34883656 433:0.35957582 434:0.54658547 435:0.34151374 436:0.26329639 437:0.31908055 438:0.39375033 439:0.32168999 440:0.2742242 441:0.27246381 442:0.27337658 443:0.22411265 444:0.22101486 445:0.23190669 446:0.12246957 447:0.10724652 448:-0.014309378 449:-0.05247366 450:-0.075693848 
0.3208097680326265 1:-0.46083109 2:-0.41807002 3:-0.40356901 4:-0.41252049 5:-0.35621911 6:-0.29560126 7:-0.30440135 8:-0.29302727 9:-0.22992227 10:-0.16108844 11:-0.13826715 12:-0.15162872 13:-0.1650424 14:-0.16082919 15:-0.065363879 16:0.073365496 17:0.026916877 18:0.049855982 19:0.087188214 20:0.14089385 21:0.15976426 22:0.11520653 23:0.12040556 24:0.15198407 25:0.22145657 26:0.2339003 27:0.2247094 28:0.26249924 29:0.28690652 30:0.3137864 31:0.31341119 32:0.35135342 33:0.36496739 34:0.43417728 35:0.49665869 36:0.45690843 37:0.51135047 38:0.54772175 39:0.56878951 40:0.56597441 41:0.56054308 42:0.57356877 43:0.58357412 44:0.5784098 45:0.61847813 46:0.63896169 47:0.63591663 48:0.63316524 49:0.64108914 50:0.65770181 51:0.67250326 52:0.67126504 53:0.66207093 54:0.64688541 55:0.65311297 56:0.6909222 57:0.72361333 58:0.72226759 59:0.72115177 60:0.73076589 61:0.72487559 62:0.71783697 63:0.7495405 64:0.79040403 65:0.78629564 66:0.78497505 67:0.7742337 68:0.76945801 69:0.75519957 70:0.7336178 71:0.7457155 72:0.75058597 73:0.74814453 74:0.76826056 75:0.77608979 76:0.77299115 77:0.77533756 78:0.78020945 79:0.78228356 80:0.79775685 81:0.81048879 82:0.80223098 83:0.81609302 84:0.81796271 85:0.82078588 86:0.83266233 87:0.85175365 88:0.85143948 89:0.85831899 90:0.88633059 91:0.88474533 92:0.86170313 93:0.8724489 94:0.8918479 95:0.89965412 96:0.90446964 97:0.89989959 98:0.8956306 99:0.89274299 100:0.88700224 101:0.88458266 102:0.87913293 103:0.86664522 104:0.86157105 105:0.86151484 106:0.8681104 107:0.86268908 108:0.85421298 109:0.86358635 110:0.86217991 111:0.84102096 112:0.83336843 113:0.83802998 114:0.83322252 115:0.83285396 116:0.83846016 117:0.82600257 118:0.81291048 119:0.80664908 120:0.80741674 121:0.80750733 122:0.83100541 123:0.83414422 124:0.83384656 125:0.83323466 126:0.84135125 127:0.85199972 128:0.83464749 129:0.82566254 130:0.82934786 131:0.81889318 132:0.82317159 133:0.83643442 134:0.83766922 135:0.8511027 136:0.86001302 137:0.89899976 138:0.89805916 139:0.89241406 140:0.8958737 141:0.87537675 142:0.85754733 143:0.88063361 144:0.87901758 145:0.86841819 146:0.85915777 147:0.86080858 148:0.87579781 149:0.8703575 150:0.86194117 151:0.087274487 152:0.1690758 153:0.66869648 154:0.83326093 155:0.11509472 156:-0.16267096 157:0.49227073 158:0.71072315 159:0.35488341 160:-0.032807452 161:0.3202646 162:0.99720105 163:1.4905144 164:1.0223485 165:-0.47679436 166:-0.41741659 167:1.4784736 168:1.8965254 169:0.99930153 170:0.11957438 171:0.91320092 172:1.7958112 173:1.3739036 174:0.62206108 175:0.21173415 176:1.168852 177:1.6269063 178:1.2882715 179:0.68881308 180:0.77342833 181:1.4349476 182:1.5555273 183:1.3216477 184:0.50902442 185:1.0308131 186:1.715448 187:1.6362068 188:1.2205214 189:0.9983893 190:1.2032263 191:1.3591958 192:1.2784694 193:1.2873101 194:1.2110114 195:1.0608082 196:1.232681 197:1.5384456 198:1.6892044 199:1.7364728 200:1.7483442 201:1.8941688 202:2.0962415 203:2.2018798 204:1.9387718 205:1.732379 206:1.6483153 207:1.7353161 208:1.7376474 209:1.6091769 210:1.1502604 211:0.81877875 212:0.61617693 213:0.41497308 214:0.29309732 215:0.36698605 216:0.34001745 217:0.17335937 218:0.052244995 219:-0.10882516 220:-0.1061867 221:-0.14879098 222:-0.23422615 223:-0.31559775 224:-0.34689949 225:-0.32349993 226:-0.61395994 227:-0.67726218 228:-0.86729133 229:-0.84844511 230:-0.93779602 231:-1.0485865 232:-1.0146908 233:-1.2064423 234:-1.2710861 235:-1.4093369 236:-1.4800462 237:-1.5754333 238:-1.5699721 239:-1.7925442 240:-1.8965814 241:-1.7270908 242:-1.7593573 243:-1.7038373 244:-1.752962 245:-1.9163679 246:-2.0505984 247:-1.9132908 248:-1.8456731 249:-1.9405943 250:-2.0014575 251:-1.8589042 252:-1.6280387 253:-1.6319086 254:-1.7122505 255:-1.7762394 256:-1.694769 257:-1.4333925 258:-1.3035679 259:-1.5019191 260:-1.7005411 261:-1.7496788 262:-1.6451622 263:-1.7408263 264:-1.8561747 265:-1.8275075 266:-1.7198268 267:-1.8764407 268:-2.009006 269:-2.2385579 270:-2.3800543 271:-2.3602997 272:-2.2667876 273:-2.3050956 274:-2.2481841 275:-2.1458078 276:-2.2638473 277:-2.161646 278:-2.1592615 279:-2.0508189 280:-2.0356691 281:-1.9366247 282:-1.8065837 283:-2.0012223 284:-1.8778008 285:-1.7120802 286:-1.8855148 287:-1.7489429 288:-1.3350611 289:-1.4314356 290:-1.5985159 291:-1.7827904 292:-1.6210809 293:-1.531542 294:-1.5778798 295:-1.7042681 296:-1.9057921 297:-2.0089795 298:-1.7675364 299:-1.5448407 300:-1.4854947 301:1.4446484 302:1.4555671 303:1.3335754 304:1.3470853 305:1.4154189 306:1.367011 307:1.2807154 308:1.2316456 309:1.2839619 310:1.3574022 311:1.303894 312:1.1023157 313:0.96738657 314:0.95288045 315:1.0612584 316:0.97799651 317:1.1225392 318:1.0516298 319:1.1049996 320:1.194203 321:1.0238191 322:0.91504898 323:0.89935197 324:0.8956238 325:0.82497101 326:0.83527228 327:0.74061594 328:0.63602431 329:0.74015474 330:0.57407616 331:0.39853166 332:0.25833587 333:0.2683814 334:0.4615966 335:0.25379781 336:0.17516997 337:0.23664514 338:0.31157042 339:0.2344432 340:0.1850334 341:0.18555414 342:0.18674781 343:0.14455806 344:0.14034806 345:0.1535967 346:0.048753082 347:0.035231648 348:-0.088802545 349:-0.12525525 350:-0.14571901 351:-0.092884515 352:-0.11234024 353:-0.1756069 354:-0.15495231 355:-0.25668838 356:-0.38369916 357:-0.42406126 358:-0.47360532 359:-0.56896254 360:-0.66674018 361:-0.75522346 362:-0.81957435 363:-0.88681504 364:-0.98137181 365:-0.98855318 366:-1.0462212 367:-1.0559837 368:-1.0434294 369:-1.1266482 370:-1.2102515 371:-1.1845525 372:-1.1318434 373:-1.1507736 374:-1.1897552 375:-1.1963757 376:-1.2891585 377:-1.2439834 378:-1.2704078 379:-1.2678328 380:-1.3517723 381:-1.2485973 382:-1.3302118 383:-1.4222171 384:-1.3630863 385:-1.3247372 386:-1.3471896 387:-1.2678938 388:-1.3832329 389:-1.3038435 390:-1.2676625 391:-1.1872514 392:-1.147166 393:-1.1659743 394:-1.2119091 395:-1.2365192 396:-1.2459565 397:-1.2353582 398:-1.2166993 399:-1.2386139 400:-1.2155141 401:-1.1334555 402:-1.0756653 403:-1.0452776 404:-1.0339316 405:-1.0207441 406:-0.97026812 407:-0.92464189 408:-0.92677657 409:-0.9382448 410:-0.89330278 411:-0.85841133 412:-0.86304273 413:-0.86999094 414:-0.84633668 415:-0.83785708 416:-0.85370891 417:-0.92306628 418:-0.94104083 419:-0.9450748 420:-0.88511904 421:-0.88988032 422:-0.97794914 423:-0.93034571 424:-0.98034002 425:-1.0624245 426:-1.1326243 427:-1.1353835 428:-1.1346419 429:-1.0784153 430:-1.108289 431:-1.1902937 432:-1.0849219 433:-1.1285536 434:-1.1462983 435:-1.0724229 436:-1.2807519 437:-1.3145857 438:-1.1090494 439:-1.0332008 440:-1.1248837 441:-1.1617789 442:-1.1057934 443:-1.0143681 444:-1.0623668 445:-1.0502185 446:-1.133744 447:-1.191395 448:-1.1241408 449:-1.0913655 450:-1.1428334 
0.6971646233805836 1:0.67465505 2:0.67385491 3:0.66506736 4:0.65028865 5:0.65563768 6:0.69385903 7:0.72627049 8:0.7244902 9:0.72330634 10:0.73291198 11:0.72698742 12:0.72028609 13:0.75204245 14:0.7935906 15:0.79025489 16:0.78959163 17:0.77730688 18:0.77167109 19:0.75772884 20:0.73666888 21:0.7481883 22:0.75288654 23:0.75009012 24:0.77064245 25:0.7788237 26:0.77532383 27:0.77725698 28:0.78214472 29:0.78487693 30:0.80080128 31:0.81362195 32:0.80532079 33:0.819046 34:0.82099164 35:0.82457923 36:0.83651305 37:0.85514467 38:0.85510589 39:0.86155398 40:0.88963012 41:0.88906068 42:0.86543919 43:0.87571789 44:0.8944729 45:0.90273538 46:0.90792329 47:0.90304426 48:0.89970176 49:0.89721053 50:0.89182728 51:0.88846527 52:0.88251315 53:0.87142346 54:0.86401888 55:0.86389456 56:0.86999046 57:0.86537074 58:0.85737291 59:0.86764049 60:0.86547625 61:0.84492123 62:0.83692513 63:0.8426134 64:0.83768249 65:0.83653084 66:0.8425587 67:0.83028297 68:0.81654766 69:0.81088939 70:0.81000232 71:0.81052901 72:0.83482737 73:0.83843897 74:0.83774403 75:0.83711198 76:0.84639851 77:0.85678622 78:0.83923978 79:0.83080563 80:0.83423037 81:0.822671 82:0.82665098 83:0.84060339 84:0.84258469 85:0.85784167 86:0.86993181 87:0.91260063 88:0.91438215 89:0.91046068 90:0.9164276 91:0.89899895 92:0.8839913 93:0.90930993 94:0.91117444 95:0.90286131 96:0.89487974 97:0.89670531 98:0.91304779 99:0.90842165 100:0.89945965 101:0.87217665 102:0.86982848 103:0.87438098 104:0.88170926 105:0.87235128 106:0.87582191 107:0.88115549 108:0.8726088 109:0.86358635 110:0.85613495 111:0.83952318 112:0.82445187 113:0.8100214 114:0.80226171 115:0.81072974 116:0.81046018 117:0.78920194 118:0.7820603 119:0.78324722 120:0.78687593 121:0.78691349 122:0.78379478 123:0.78686905 124:0.7866217 125:0.78569106 126:0.79202802 127:0.79330454 128:0.78631466 129:0.7712033 130:0.73381718 131:0.74744862 132:0.762221 133:0.77527665 134:0.78853505 135:0.77720978 136:0.77341377 137:0.79037494 138:0.77296193 139:0.78883558 140:0.81725151 141:0.82194901 142:0.81648277 143:0.81065791 144:0.83262627 145:0.83012596 146:0.82095254 147:0.81300752 148:0.79824222 149:0.78237207 150:0.77443446 151:1.8879283 152:2.0902516 153:2.1957605 154:1.9267753 155:1.7193522 156:1.6313656 157:1.7208474 158:1.7283211 159:1.594985 160:1.1301548 161:0.79710301 162:0.5897101 163:0.3849533 164:0.26037939 165:0.33285644 166:0.30307582 167:0.13307725 168:0.0056917524 169:-0.1682978 170:-0.16782991 171:-0.21331527 172:-0.3049391 173:-0.39323552 174:-0.42860509 175:-0.4014164 176:-0.71162716 177:-0.77319502 178:-0.96707779 179:-0.9422048 180:-1.030194 181:-1.1494607 182:-1.1078465 183:-1.3110578 184:-1.3832185 185:-1.5354128 186:-1.6113929 187:-1.7265214 188:-1.7318918 189:-1.9833607 190:-2.0780898 191:-1.8788492 192:-1.9338931 193:-1.8607102 194:-1.9152159 195:-2.0865677 196:-2.192188 197:-2.0293099 198:-1.9793962 199:-2.1001018 200:-2.1994768 201:-2.0432582 202:-1.7970182 203:-1.7971103 204:-1.8623057 205:-1.9532111 206:-1.8394788 207:-1.5658137 208:-1.4435272 209:-1.6930869 210:-1.8151833 211:-1.8883741 212:-1.883599 213:-1.8774249 214:-1.9237223 215:-1.9410121 216:-1.8518696 217:-1.9747894 218:-2.1251656 219:-2.3549356 220:-2.4953875 221:-2.5110567 222:-2.4457141 223:-2.4736177 224:-2.4188783 225:-2.3311673 226:-2.4291673 227:-2.2897143 228:-2.2814563 229:-2.1742845 230:-2.1653091 231:-2.0748457 232:-1.9050597 233:-2.0515669 234:-1.9231548 235:-1.7653898 236:-1.9462542 237:-1.8090445 238:-1.3886493 239:-1.4794056 240:-1.635863 241:-1.8089269 242:-1.6552533 243:-1.5578425 244:-1.5970276 245:-1.71791 246:-1.9271814 247:-2.0323146 248:-1.7886688 249:-1.5612022 250:-1.5033607 251:-1.5427225 252:-1.5506564 253:-1.5368829 254:-1.4406541 255:-1.270551 256:-1.205536 257:-1.1955289 258:-1.1179149 259:-1.0515102 260:-1.0418705 261:-1.1409159 262:-1.200943 263:-1.2927974 264:-1.2471316 265:-1.1092128 266:-0.93556052 267:-0.97668324 268:-1.1703023 269:-1.342114 270:-1.366233 271:-1.175091 272:-0.95573695 273:-0.77293719 274:-0.6050623 275:-0.41034661 276:-0.3296374 277:-0.30223289 278:-0.34273748 279:-0.32282648 280:-0.21177444 281:-0.11341355 282:-0.11987883 283:-0.082287651 284:-0.0021166574 285:-0.064277659 286:-0.17786236 287:-0.036053273 288:0.035508524 289:0.00416115 290:0.036478543 291:0.15234986 292:0.10493604 293:0.21694147 294:0.2065493 295:0.28330111 296:0.34781031 297:0.35199475 298:0.29907386 299:0.36276209 300:0.41239886 301:-0.12138025 302:-0.14270844 303:-0.20597107 304:-0.18469314 305:-0.28756609 306:-0.41367775 307:-0.45536124 308:-0.50804739 309:-0.60508549 310:-0.70327286 311:-0.79389754 312:-0.85730129 313:-0.92613784 314:-1.0235726 315:-1.0267624 316:-1.0888823 317:-1.0998879 318:-1.0865425 319:-1.1663961 320:-1.2567905 321:-1.2399954 322:-1.1865234 323:-1.2040943 324:-1.2439711 325:-1.2525053 326:-1.3473575 327:-1.299398 328:-1.3261081 329:-1.3251149 330:-1.4095263 331:-1.2998836 332:-1.3837565 333:-1.4818672 334:-1.4214733 335:-1.3809239 336:-1.4013598 337:-1.3195047 338:-1.4407454 339:-1.3596182 340:-1.3218511 341:-1.2342558 342:-1.1924854 343:-1.2125321 344:-1.2606925 345:-1.2834989 346:-1.2958137 347:-1.283247 348:-1.2635967 349:-1.2865639 350:-1.2646683 351:-1.1750767 352:-1.1134348 353:-1.0861431 354:-1.0751042 355:-1.0608016 356:-1.0107116 357:-0.96471482 358:-0.96230417 359:-0.97526564 360:-0.9242351 361:-0.89550414 362:-0.90187974 363:-0.89702709 364:-0.87637679 365:-0.87660127 366:-0.88982934 367:-0.95950834 368:-0.98150074 369:-0.98228725 370:-0.92964009 371:-0.9420084 372:-1.0287924 373:-0.97724655 374:-1.0340054 375:-1.1241466 376:-1.1886857 377:-1.1890393 378:-1.1944247 379:-1.1427707 380:-1.1695044 381:-1.2442173 382:-1.1363419 383:-1.1794292 384:-1.2015418 385:-1.1319895 386:-1.3408392 387:-1.3747976 388:-1.1695253 389:-1.0922773 390:-1.1815936 391:-1.2166088 392:-1.1574814 393:-1.0721459 394:-1.1192672 395:-1.1098635 396:-1.1937558 397:-1.2581443 398:-1.1877538 399:-1.1529516 400:-1.2023713 401:-1.2239711 402:-1.1183919 403:-1.0344455 404:-1.0187161 405:-1.0528624 406:-1.0464524 407:-1.0366778 408:-0.97178559 409:-0.91369413 410:-1.0074745 411:-1.1188923 412:-1.0350187 413:-0.95299074 414:-0.98699265 415:-1.0350412 416:-1.0259465 417:-1.0040607 418:-1.0894479 419:-1.1217076 420:-1.1207055 421:-1.0262974 422:-1.0159268 423:-1.0739044 424:-1.0166859 425:-1.0775471 426:-1.0438562 427:-1.0611374 428:-1.1368656 429:-1.1178037 430:-1.1518063 431:-1.119554 432:-1.0871552 433:-1.1285536 434:-1.1639096 435:-1.0702442 436:-1.1361303 437:-1.1486993 438:-1.062874 439:-1.0605936 440:-1.0698507 441:-1.0369702 442:-1.0703231 443:-1.0518978 444:-1.0019724 445:-1.0305941 446:-0.96940066 447:-0.96222293 448:-0.97030279 449:-0.95717534 450:-0.89922375 
2.461823508030057 1:-2.2402779 2:-2.265943 3:-2.2053396 4:-2.1481313 5:-2.0912742 6:-2.0457092 7:-1.9877291 8:-1.9453404 9:-1.9225141 10:-1.8748418 11:-1.8162 12:-1.7926171 13:-1.7906493 14:-1.7944407 15:-1.7884439 16:-1.7882305 17:-1.7574751 18:-1.7458432 19:-1.7351563 20:-1.7185127 21:-1.6998917 22:-1.6705934 23:-1.6367847 24:-1.6048281 25:-1.5937123 26:-1.5778438 27:-1.562767 28:-1.5358074 29:-1.5151998 30:-1.4988221 31:-1.4800274 32:-1.4736871 33:-1.4528811 34:-1.4428741 35:-1.4615838 36:-1.4535607 37:-1.4389003 38:-1.3911628 39:-1.3871937 40:-1.3600944 41:-1.3327975 42:-1.3132219 43:-1.2399167 44:-1.238953 45:-1.1866358 46:-1.1605195 47:-1.1092106 48:-1.092976 49:-1.0763384 50:-1.04361 51:-1.014797 52:-0.96435453 53:-0.96777732 54:-0.96145322 55:-0.92154952 56:-0.88364356 57:-0.86807577 58:-0.8575435 59:-0.81850573 60:-0.77072492 61:-0.75918863 62:-0.72908418 63:-0.70860156 64:-0.657499 65:-0.62028968 66:-0.61032105 67:-0.60634813 68:-0.58584106 69:-0.56083883 70:-0.54141607 71:-0.52109411 72:-0.50712339 73:-0.474531 74:-0.43956922 75:-0.43095887 76:-0.41500959 77:-0.401143 78:-0.38374761 79:-0.36708292 80:-0.36483648 81:-0.34072948 82:-0.28751161 83:-0.24551215 84:-0.22539371 85:-0.1812646 86:-0.14566156 87:-0.12335814 88:-0.091126999 89:-0.077071392 90:-0.07202162 91:-0.060745075 92:-0.023455646 93:-0.0058051668 94:0.023764477 95:0.057765164 96:0.066951709 97:0.10452393 98:0.12294073 99:0.15271016 100:0.15201501 101:0.15262833 102:0.1673423 103:0.24004907 104:0.21869749 105:0.22216439 106:0.23113966 107:0.25021984 108:0.24715115 109:0.25897099 110:0.27430707 111:0.29882405 112:0.31917994 113:0.3279789 114:0.33932391 115:0.37562009 116:0.3919342 117:0.4005872 118:0.38541509 119:0.40004178 120:0.43328061 121:0.45594107 122:0.46512304 123:0.46776161 124:0.49294217 125:0.51825829 126:0.52897083 127:0.54196881 128:0.57485855 129:0.59421078 130:0.59127933 131:0.60455949 132:0.61593958 133:0.61626645 134:0.61195916 135:0.61249016 136:0.6342364 137:0.63985196 138:0.67132042 139:0.68054898 140:0.68831111 141:0.67423704 142:0.68697147 143:0.68342936 144:0.70305054 145:0.73279987 146:0.75727716 147:0.75723962 148:0.73334877 149:0.74152169 150:0.74943254 151:-0.47589296 152:-0.2262564 153:-0.23118052 154:-0.52350687 155:-0.57639558 156:-0.61445389 157:-0.90011618 158:-0.94989681 159:-1.0781229 160:-1.3002274 161:-1.3878133 162:-1.176084 163:-0.84507499 164:-0.93289304 165:-1.1539568 166:-1.283463 167:-1.226943 168:-0.98115767 169:-1.1519603 170:-1.5330003 171:-1.4429632 172:-1.1531666 173:-1.305047 174:-1.6543823 175:-1.6599886 176:-1.396153 177:-1.0885929 178:-1.0794706 179:-1.2974042 180:-1.2626922 181:-1.0067172 182:-1.0459076 183:-1.3501188 184:-1.3142704 185:-0.87702245 186:-0.63616515 187:-0.97007945 188:-1.3315646 189:-1.0962901 190:-0.6212687 191:-0.475918 192:-1.0180576 193:-1.4167586 194:-0.68951446 195:-0.40422868 196:-0.64963785 197:-1.314459 198:-1.0920451 199:-0.7253877 200:-0.87614354 201:-1.2367089 202:-1.4742965 203:-1.0013585 204:-0.70864533 205:-1.1273659 206:-1.2538417 207:-0.8155569 208:-0.50209642 209:-0.91488948 210:-1.1577178 211:-0.90963419 212:-0.52198922 213:-0.71698741 214:-1.2335803 215:-1.1167271 216:-0.77713786 217:-0.89364873 218:-1.2643289 219:-1.292999 220:-1.1029552 221:-0.96129002 222:-1.0813385 223:-1.4250024 224:-1.2887081 225:-0.86549379 226:-0.82141221 227:-1.0476904 228:-1.2581409 229:-0.99345879 230:-0.58707799 231:-0.73999109 232:-1.1927646 233:-0.95963605 234:-0.50911826 235:-0.75419935 236:-0.90877727 237:-0.78375104 238:-0.80438685 239:-0.58174182 240:-0.4756662 241:-0.57509074 242:-0.79639545 243:-0.60570224 244:-0.59644889 245:-0.36178132 246:-0.34224756 247:-0.48500473 248:-0.64224863 249:-0.4696179 250:-0.099004426 251:-0.023675444 252:-0.15777402 253:-0.61196574 254:-0.17109873 255:0.1440963 256:-0.17133474 257:-0.33921992 258:-0.050409954 259:0.18085864 260:0.12397644 261:-0.12851662 262:-0.0015512415 263:0.34318716 264:0.49103622 265:0.22377643 266:0.098859615 267:0.25275628 268:0.43022393 269:0.28037539 270:0.18039933 271:0.36423486 272:0.40519067 273:0.2000923 274:0.15272446 275:0.35935584 276:0.50235728 277:0.35278764 278:0.1614688 279:0.30005449 280:0.5633808 281:0.54957231 282:0.26544598 283:0.44991689 284:0.79651447 285:0.60050106 286:0.38918253 287:0.51982788 288:0.67065053 289:0.8017149 290:0.64469648 291:0.54065102 292:0.63251103 293:0.90113067 294:0.7359953 295:0.61121656 296:0.49761625 297:0.64555504 298:0.73648523 299:0.66186357 300:0.68845611 301:0.25839845 302:0.083086715 303:0.056604641 304:0.073977225 305:0.1238043 306:0.015692728 307:0.24291311 308:0.45120293 309:0.39636262 310:0.40454943 311:0.57596031 312:0.62515612 313:0.60651774 314:0.61824289 315:0.56816892 316:0.56828976 317:0.6442161 318:0.69036689 319:0.62800647 320:0.60403233 321:0.65514075 322:0.63835293 323:0.63115703 324:0.69006355 325:0.78019782 326:0.80846414 327:0.75184949 328:0.84160279 329:1.0140275 330:1.0755238 331:1.0711935 332:1.1108742 333:1.1546966 334:1.2166116 335:1.144256 336:1.0899465 337:1.1335183 338:1.1213203 339:1.0850378 340:1.0393639 341:1.0237552 342:1.2295827 343:1.1703398 344:1.0714471 345:1.1035035 346:1.2567804 347:1.3212126 348:1.2470155 349:1.2128229 350:1.2725102 351:1.4340142 352:1.3936354 353:1.3991368 354:1.3918738 355:1.5558262 356:1.5488734 357:1.4440335 358:1.3258832 359:1.4210935 360:1.452958 361:1.3469237 362:1.2119636 363:1.4211099 364:1.4952756 365:1.3664353 366:1.2595556 367:1.24711 368:1.2974746 369:1.2888567 370:1.2925551 371:1.2978335 372:1.4014935 373:1.4759922 374:1.4406854 375:1.4257576 376:1.3537135 377:1.3493784 378:1.4247578 379:1.2948443 380:1.1435625 381:1.1341328 382:1.2672041 383:1.2418882 384:1.2063445 385:1.1983082 386:1.161239 387:1.1594527 388:1.0513575 389:1.1050783 390:1.0226109 391:1.0313309 392:1.006693 393:1.1213537 394:1.1493818 395:1.1961447 396:1.1756999 397:1.1207191 398:1.0699928 399:1.0391256 400:0.87200027 401:0.89021303 402:1.1781616 403:1.2251393 404:1.0897219 405:1.0219812 406:1.0803591 407:1.0422104 408:0.97996905 409:0.89691784 410:0.8620868 411:0.90187004 412:0.84683349 413:0.88110256 414:0.79872656 415:0.77510872 416:0.7538419 417:0.64215067 418:0.52270007 419:0.5743689 420:0.60354359 421:0.52596364 422:0.53271925 423:0.5952327 424:0.58253121 425:0.51032863 426:0.44788242 427:0.425969 428:0.44420085 429:0.3526963 430:0.27556122 431:0.33060986 432:0.33543694 433:0.21542022 434:0.16574166 435:0.2325818 436:0.10804085 437:0.10069842 438:0.049533624 439:-0.032309475 440:-0.028457229 441:-0.15061664 442:-0.11471059 443:-0.10948484 444:-0.22978643 445:-0.23471709 446:-0.1994633 447:-0.1960694 448:-0.23847335 449:-0.31652535 450:-0.30421262 
-0.1762891682173832 1:0.79131459 2:0.79362445 3:0.7706884 4:0.80411629 5:0.79841502 6:0.78198284 7:0.76484353 8:0.74447166 9:0.75233093 10:0.74200351 11:0.73149396 12:0.72326699 13:0.71506322 14:0.71516541 15:0.71475912 16:0.70080326 17:0.69458673 18:0.68917793 19:0.681431 20:0.6748848 21:0.67740044 22:0.67595067 23:0.66119348 24:0.65667907 25:0.66109107 26:0.66733908 27:0.67459787 28:0.67306462 29:0.65127511 30:0.65165297 31:0.69009429 32:0.70291064 33:0.68711775 34:0.65455359 35:0.59720037 36:0.51447143 37:0.41758841 38:0.34752798 39:0.29659767 40:0.21534739 41:0.09395286 42:-0.02931109 43:-0.13233863 44:-0.32140248 45:-0.49446131 46:-0.58577418 47:-0.67572806 48:-0.80105504 49:-0.92863647 50:-0.97493315 51:-1.0769443 52:-1.135217 53:-1.2298557 54:-1.3166215 55:-1.3710103 56:-1.3714502 57:-1.3827168 58:-1.4609116 59:-1.5967271 60:-1.7954319 61:-1.9356359 62:-2.0435198 63:-2.1091271 64:-2.1334736 65:-2.1288229 66:-2.0868249 67:-2.0857537 68:-2.066222 69:-2.0366191 70:-2.0265074 71:-2.0014937 72:-1.9835648 73:-1.9725306 74:-1.9652489 75:-1.9654437 76:-1.9730433 77:-1.9939167 78:-1.9866482 79:-1.9910559 80:-1.9939869 81:-1.9959864 82:-2.0182792 83:-2.0179179 84:-2.0089484 85:-1.9985426 86:-1.9749719 87:-1.9550081 88:-1.9589507 89:-1.9352117 90:-1.9348682 91:-1.9295536 92:-1.9322783 93:-1.9193733 94:-1.8734568 95:-1.8408949 96:-1.7615226 97:-1.7353812 98:-1.7121977 99:-1.6769896 100:-1.6527523 101:-1.6338365 102:-1.6191126 103:-1.6134378 104:-1.5550139 105:-1.5472728 106:-1.5671845 107:-1.5348664 108:-1.4866542 109:-1.4482678 110:-1.4182831 111:-1.366709 112:-1.3021485 113:-1.274407 114:-1.2647408 115:-1.2261734 116:-1.2202751 117:-1.2024486 118:-1.1879442 119:-1.1766585 120:-1.1454271 121:-1.1209586 122:-1.1090563 123:-1.104138 124:-1.0743325 125:-1.0477091 126:-1.0374152 127:-1.0337708 128:-1.0125727 129:-0.97300503 130:-0.94782613 131:-0.93833903 132:-0.93220543 133:-0.89127256 134:-0.8083252 135:-0.78839635 136:-0.80547611 137:-0.75985653 138:-0.68442088 139:-0.66911001 140:-0.66870798 141:-0.64888506 142:-0.64130908 143:-0.6047597 144:-0.57031096 145:-0.56754052 146:-0.52896554 147:-0.45850069 148:-0.41732293 149:-0.39129078 150:-0.39753052 151:0.18360576 152:0.34246712 153:0.20512348 154:0.13800181 155:0.14275433 156:0.40042082 157:0.39146443 158:0.31117549 159:0.2515416 160:0.15521639 161:0.19927575 162:0.17507019 163:0.15798379 164:0.12380002 165:0.0899612 166:0.27396502 167:0.29393986 168:0.2090882 169:0.3195348 170:0.44689592 171:0.3975421 172:0.44816006 173:0.57505989 174:0.78049486 175:0.97010458 176:0.95641292 177:0.81148723 178:0.83120735 179:0.79029864 180:0.63252033 181:0.72874303 182:1.0135617 183:1.251338 184:0.99166129 185:0.73154479 186:0.86471735 187:1.1066974 188:0.9560195 189:0.87166492 190:1.022858 191:1.2594614 192:0.81361347 193:0.39940695 194:0.82539747 195:1.0748277 196:0.6686649 197:0.18022906 198:0.51048437 199:0.17238479 200:0.099722319 201:-0.43749188 202:-0.45806645 203:-0.41466013 204:-0.52192573 205:-1.052289 206:-1.7353655 207:-2.0534806 208:-2.1634449 209:-1.7607562 210:-1.2672954 211:-1.0137555 212:-0.83620686 213:-0.37526349 214:-0.069401481 215:0.0014335392 216:0.035981514 217:-0.13049062 218:-0.31668505 219:-0.4602574 220:-0.47141484 221:-0.72807271 222:-0.88642768 223:-0.75632013 224:-0.5274128 225:-0.50670912 226:-0.64359597 227:-0.77894835 228:-0.77490869 229:-0.62056648 230:-0.70848039 231:-0.84046401 232:-0.71790114 233:-0.75022465 234:-0.81683605 235:-1.0034364 236:-1.0663687 237:-1.0043838 238:-0.81781817 239:-0.74874904 240:-0.7820103 241:-0.69469731 242:-0.41251202 243:-0.21215095 244:-0.33655831 245:-0.70577494 246:-0.70600287 247:-0.065289099 248:0.28248806 249:-0.45630589 250:-0.90149372 251:-0.4360864 252:0.19044657 253:0.015204118 254:-0.63849721 255:-0.34878986 256:0.25596998 257:-0.0062108828 258:-0.46812926 259:-0.038090137 260:0.32816432 261:0.069993034 262:-0.38231053 263:-0.21345487 264:0.19677946 265:0.23068311 266:0.044772288 267:0.046704965 268:0.31839677 269:0.32482715 270:-0.18220826 271:-0.11996624 272:0.013300514 273:0.083909674 274:-0.25242886 275:-0.4248693 276:-0.087861167 277:0.18375008 278:-0.011204584 279:-0.35631471 280:-0.28342744 281:0.21117327 282:0.78163583 283:0.12759583 284:-1.0205545 285:-0.34716222 286:0.55864422 287:0.26774224 288:-0.58626207 289:-0.3634071 290:-0.15318081 291:-0.17229538 292:-0.46171858 293:-0.80300724 294:-0.61703336 295:-0.30560828 296:-0.48589231 297:-0.81600045 298:-0.79762422 299:-0.21550077 300:-0.029292742 301:-0.23531386 302:-0.1670589 303:-0.07804957 304:-0.051983996 305:-0.077457555 306:0.00043590911 307:0.067810673 308:0.013650151 309:-0.014758183 310:-0.020569521 311:-0.0030301433 312:-0.068152711 313:-0.055075129 314:-0.0008365939 315:0.07305029 316:0.032205804 317:-0.072224242 318:-0.038460031 319:0.014729656 320:0.12937549 321:0.12907336 322:0.20354484 323:0.41837426 324:0.63701575 325:0.76900452 326:0.81516618 327:0.87541862 328:1.0974338 329:1.3125936 330:1.461594 331:1.5762486 332:1.6619874 333:1.6739519 334:1.5606125 335:1.5473987 336:1.5311153 337:1.4075034 338:1.4062323 339:1.5306894 340:1.5824434 341:1.5668752 342:1.5870059 343:1.2680333 344:1.297634 345:1.2525521 346:0.95361645 347:0.80821298 348:0.80023088 349:0.66461363 350:0.50644306 351:0.1765682 352:0.054508854 353:-0.4175368 354:-0.92726206 355:-1.3194217 356:-1.2791245 357:-1.3097233 358:-1.0285684 359:-0.56896254 360:-0.33714668 361:-0.18172307 362:-0.1029152 363:-0.061680825 364:-0.0055356855 365:-0.12692326 366:-0.13995063 367:-0.22465313 368:-0.22597087 369:-0.17915221 370:-0.244618 371:-0.26710313 372:-0.25161618 373:-0.29181467 374:-0.30284678 375:-0.26834185 376:-0.22108874 377:-0.15169457 378:-0.054678043 379:-0.034763866 380:0.091182188 381:0.22527895 382:0.16567064 383:0.1263761 384:0.12355971 385:0.10246187 386:0.15575072 387:0.14910643 388:0.14624304 389:0.17293033 390:0.32776171 391:0.41901894 392:0.41046189 393:0.3748966 394:0.41686457 395:0.49735432 396:0.60149275 397:0.74247069 398:0.86960105 399:0.96664211 400:0.95742845 401:0.95271184 402:0.84703065 403:1.0019972 404:1.1810151 405:0.93847359 406:1.014756 407:1.1106768 408:1.162051 409:1.2222142 410:1.2168345 411:1.1949111 412:1.283692 413:1.3649307 414:1.4225052 415:1.4021541 416:1.367562 417:1.360976 418:1.2342408 419:1.1403968 420:1.1803242 421:1.1563759 422:1.0791761 423:1.055906 424:1.1084769 425:1.1433186 426:1.2186501 427:1.216472 428:1.1824766 429:1.2695705 430:1.343911 431:1.1618014 432:1.03445 433:1.2666472 434:1.4667746 435:1.3872604 436:1.3585924 437:1.3773939 438:1.4284993 439:1.3984384 440:1.313501 441:1.2857415 442:1.2248161 443:1.3020496 444:1.2757605 445:1.195681 446:1.3674267 447:1.4598108 448:1.3922097 449:1.2829353 450:1.2048736 
-1.243242868631544 1:0.75398354 2:0.68474305 3:0.6355556 4:0.65028865 5:0.6959878 6:0.65211618 7:0.59049336 8:0.59537922 9:0.58276622 10:0.54653562 11:0.55123259 12:0.47585185 13:0.37781266 14:0.36151219 15:0.28546942 16:0.15771444 17:0.028394023 18:-0.042948817 19:-0.12556538 20:-0.271 21:-0.39326586 22:-0.50619858 23:-0.58632275 24:-0.6886809 25:-0.79193822 26:-0.90143935 27:-1.0207872 28:-1.1676621 29:-1.3223881 30:-1.4775152 31:-1.5974549 32:-1.6678078 33:-1.7504867 34:-1.8373939 35:-1.8915928 36:-1.9265107 37:-1.9374019 38:-1.9523359 39:-1.9616451 40:-1.9709152 41:-1.9961809 42:-2.0357208 43:-2.0746131 44:-2.1210271 45:-2.1470077 46:-2.1771303 47:-2.2273078 48:-2.2447945 49:-2.2076722 50:-2.1845814 51:-2.1381102 52:-2.0982598 53:-2.059512 54:-2.0486715 55:-2.0312526 56:-2.0275193 57:-2.0391152 58:-2.0473915 59:-2.0194081 60:-2.010363 61:-2.0196679 62:-2.0182135 63:-2.0057127 64:-2.0167549 65:-2.0194875 66:-1.9805166 67:-1.9751301 68:-1.9529125 69:-1.9281705 70:-1.9266199 71:-1.929315 72:-1.9037572 73:-1.8970385 74:-1.8854169 75:-1.8925147 76:-1.9161152 77:-1.9230262 78:-1.9124819 79:-1.9122075 80:-1.9180004 81:-1.910711 82:-1.9160205 83:-1.9152808 84:-1.9012273 85:-1.8842872 86:-1.8755867 87:-1.8738788 88:-1.8755517 89:-1.8435688 90:-1.808144 91:-1.8028547 92:-1.7889972 93:-1.7655186 94:-1.7639398 95:-1.7398682 96:-1.7391461 97:-1.7242012 98:-1.6726132 99:-1.6283858 100:-1.5795651 101:-1.5687049 102:-1.5477785 103:-1.4958543 104:-1.4698138 105:-1.4838022 106:-1.4684772 107:-1.4517675 108:-1.3839443 109:-1.3721198 110:-1.3684121 111:-1.3352556 112:-1.3155233 113:-1.3083121 114:-1.297176 115:-1.2645221 116:-1.2453277 117:-1.2333611 118:-1.2217325 119:-1.2000603 120:-1.1879759 121:-1.1577334 122:-1.1415136 123:-1.1484585 124:-1.1407425 125:-1.1160531 126:-1.118126 127:-1.106011 128:-1.0971551 129:-1.0592322 130:-1.0342587 131:-1.0219444 132:-1.0022986 133:-0.98300921 134:-0.94497959 135:-0.89461741 136:-0.85805423 137:-0.83589391 138:-0.81108183 139:-0.78524346 140:-0.77091683 141:-0.75102631 142:-0.72817642 143:-0.71767504 144:-0.70468579 145:-0.67124865 146:-0.66109196 147:-0.63536461 148:-0.59934115 149:-0.5546923 150:-0.51941488 151:0.4133188 152:0.76554193 153:1.2413455 154:1.1842655 155:0.93105328 156:1.0224408 157:1.2357171 158:1.1477284 159:1.1816178 160:0.98391404 161:0.94655983 162:1.2903086 163:1.0585402 164:0.35382844 165:0.25189136 166:0.73973789 167:0.71803221 168:-0.084706668 169:-0.27226213 170:0.52673044 171:0.44514138 172:-0.043336232 173:-0.40937378 174:0.046696274 175:0.55058051 176:0.012239288 177:-0.9347403 178:-0.80223498 179:-0.18106312 180:-0.057928842 181:-0.50335859 182:-1.0071957 183:-0.69389542 184:0.026387554 185:-0.016626018 186:-0.50475147 187:-0.75002362 188:-0.65243804 189:-0.60430134 190:-0.89182119 191:-1.1607612 192:-1.1568205 193:-1.0333459 194:-0.97183896 195:-1.0280961 196:-0.83990836 197:-0.46963533 198:-0.31726847 199:-0.38170917 200:-0.49171154 201:-0.70878573 202:-0.48553212 203:-0.36745451 204:-0.43523449 205:-0.60865321 206:-0.73978251 207:-0.64674913 208:-0.65592498 209:-0.68481372 210:-0.52764657 211:-0.47926631 212:-0.41725 213:-0.43221748 214:-0.40401576 215:-0.24943583 216:-0.28926623 217:-0.49087084 218:-0.53370272 219:-0.46789723 220:-0.50945944 221:-0.69798015 222:-0.72150316 223:-0.71832682 224:-0.70792611 225:-0.65174973 226:-0.75473112 227:-0.75715846 228:-0.71095149 229:-0.62056648 230:-0.49265391 231:-0.49598541 232:-0.4730497 233:-0.37627572 234:-0.37723921 235:-0.5334465 236:-0.48853345 237:-0.27110432 238:-0.23355574 239:-0.60261772 240:-0.78852826 241:-0.56879566 242:-0.25635605 243:-0.14867493 244:-0.43401727 245:-0.56685444 246:-0.18635242 247:0.16022975 248:-0.03420259 249:-0.42968189 250:-0.16818454 251:0.36124145 252:0.11306422 253:-0.26353804 254:-0.13320155 255:0.23371196 256:0.26835562 257:0.13056069 258:-0.13163315 259:0.043233696 260:0.32157761 261:0.17586485 262:0.09363858 263:0.071654463 264:0.23783854 265:0.51385698 266:0.36929625 267:0.16346738 268:0.2415156 269:0.51745147 270:0.44680491 271:0.046252046 272:0.14155547 273:0.50507169 274:0.3703068 275:0.10520881 276:0.19658146 277:0.40913349 278:0.36176992 279:0.0053581159 280:-0.016357151 281:0.093769528 282:0.3672299 283:0.50238776 284:0.35690101 285:0.098380965 286:0.037223636 287:0.2612785 288:0.38985091 289:0.3301179 290:0.30461763 291:0.18417782 292:0.15704221 293:0.31830284 294:0.16079471 295:-0.08476726 296:0.11984475 297:0.40820842 298:0.22934161 299:-0.089213479 300:-0.13281421 301:0.91742619 302:0.96634424 303:0.93185701 304:1.1266531 305:1.3446455 306:1.4454746 307:1.3810789 308:1.555603 309:1.5875588 310:1.9039838 311:1.9982629 312:1.9709909 313:2.0334014 314:1.8919571 315:1.8201697 316:1.6588028 317:1.4400288 318:1.368785 319:1.2784516 320:1.1332957 321:0.98932289 322:0.78328896 323:0.65997136 324:0.44471745 325:0.3302272 326:0.23432304 327:0.31598748 328:0.34593022 329:0.29567279 330:0.11922324 331:-0.077471575 332:-0.13306697 333:-0.13225095 334:-0.28671706 335:-0.57020827 336:-0.81313468 337:-0.98130436 338:-1.0701456 339:-1.1046541 340:-1.0707037 341:-0.93703652 342:-0.72152774 343:-0.56053415 344:-0.40206108 345:-0.1689712 346:-0.11324292 347:-0.18296729 348:-0.1772523 349:-0.23937229 350:-0.19038765 351:-0.24842226 352:-0.30952554 353:-0.19760052 354:-0.21453049 355:-0.15889083 356:-0.0014792531 357:0.085036647 358:0.1683296 359:0.24157069 360:0.18402304 361:0.2453078 362:0.21626913 363:0.30799564 364:0.32386048 365:0.21293077 366:0.19087822 367:0.14277448 368:0.14147263 369:0.10347 370:0.15979264 371:0.12729463 372:0.13053126 373:0.2851628 374:0.2228087 375:0.22850644 376:0.27690697 377:0.24390299 378:0.26713278 379:0.28557078 380:0.32552668 381:0.36762955 382:0.34852519 383:0.30792022 384:0.32003275 385:0.31686659 386:0.36743246 387:0.44256801 388:0.42699615 389:0.41801194 390:0.45161701 391:0.46934595 392:0.47648056 393:0.56880863 394:0.70340809 395:0.73319606 396:0.81937374 397:0.76297813 398:0.80948354 399:0.84144331 400:0.79971489 401:0.88374763 402:0.95598343 403:1.0453258 404:1.0592908 405:1.1397484 406:1.1607759 407:1.0940789 408:1.1866014 409:1.1792506 410:1.1312058 411:1.0646706 412:1.1393904 413:1.2009555 414:1.1615782 415:1.1714487 416:1.1339524 417:1.2192358 418:1.2383067 419:1.1022602 420:1.2067261 421:1.292793 422:1.2353066 423:1.1566113 424:1.1982725 425:1.2513373 426:1.2532913 427:1.201186 428:1.1090938 429:1.112017 430:1.2111832 431:1.2082243 432:1.1952454 433:1.189025 434:1.2026054 435:1.2238625 436:1.2373654 437:1.2283061 438:1.2354022 439:1.2972957 440:1.2902178 441:1.241318 442:1.2394215 443:1.2165652 444:1.2606619 445:1.3221492 446:1.3539191 447:1.405888 448:1.4010004 449:1.4192898 450:1.4161457 
-0.4989092960705792 1:0.7119861 2:0.71429657 3:0.73030388 4:0.71244123 5:0.68357238 6:0.66912252 7:0.66763945 8:0.67376803 9:0.69122653 10:0.6783628 11:0.65938941 12:0.64874436 13:0.61891723 14:0.61158497 15:0.64370427 16:0.62681296 17:0.62368373 18:0.63025425 19:0.63447848 20:0.62781122 21:0.63020854 22:0.61381016 23:0.61526354 24:0.59451722 25:0.56869331 26:0.58185115 27:0.59458415 28:0.60034455 29:0.60117443 30:0.62121454 31:0.61231762 32:0.60967155 33:0.63649412 34:0.61448517 35:0.55234331 36:0.51447143 37:0.48322185 38:0.44526037 39:0.41686848 40:0.37717525 41:0.29868122 42:0.22428123 43:0.13412217 44:0.015623981 45:-0.073696326 46:-0.14711061 47:-0.23584722 48:-0.31399129 49:-0.39282423 50:-0.50043886 51:-0.57510457 52:-0.68786803 53:-0.74912023 54:-0.80325598 55:-0.88900237 56:-1.0194885 57:-1.1331005 58:-1.2198714 59:-1.3022237 60:-1.3761648 61:-1.4764613 62:-1.5195318 63:-1.5167107 64:-1.4878271 65:-1.5127031 66:-1.541995 67:-1.5886852 68:-1.6792039 69:-1.7713597 70:-1.7841334 71:-1.9028004 72:-1.9761752 73:-2.056904 74:-2.0923889 75:-2.1157666 76:-2.1273486 77:-2.1145814 78:-2.1243856 79:-2.1305568 80:-2.1246836 81:-2.0782163 82:-2.0304892 83:-1.9995351 84:-2.0181817 85:-2.0232464 86:-2.0324291 87:-2.0595401 88:-2.0675268 89:-2.0537156 90:-2.0489201 91:-2.0435826 92:-2.029391 93:-2.0219432 94:-2.0296796 95:-2.0156871 96:-2.0012701 97:-1.9797436 98:-1.9354544 99:-1.9043302 100:-1.8816573 101:-1.8524923 102:-1.8377672 103:-1.8238503 104:-1.8199088 105:-1.8073476 106:-1.7954452 107:-1.7749297 108:-1.7641244 109:-1.749814 110:-1.7280875 111:-1.7052076 112:-1.6796163 113:-1.6488376 114:-1.6377449 115:-1.6303092 116:-1.6432221 117:-1.6190318 118:-1.5963419 119:-1.5832658 120:-1.5958577 121:-1.587262 122:-1.5767366 123:-1.5547295 124:-1.5510084 125:-1.5454312 126:-1.54111 127:-1.5424623 128:-1.5230882 129:-1.5342377 130:-1.528592 131:-1.5372573 132:-1.5234262 133:-1.5242555 134:-1.5330541 135:-1.5288649 136:-1.5183735 137:-1.5016089 138:-1.4975529 139:-1.4789054 140:-1.4533575 141:-1.4330156 142:-1.4262739 143:-1.4094803 144:-1.3957563 145:-1.3844415 146:-1.363113 147:-1.3444137 148:-1.3384934 149:-1.3151378 150:-1.283536 151:1.5322436 152:1.3065228 153:1.200442 154:1.218016 155:1.1938196 156:0.92422711 157:0.82619157 158:0.7981242 159:0.87159242 160:0.91427558 161:0.82557098 162:0.77558317 163:0.67781718 164:0.56229169 165:0.34757736 166:0.28124272 167:0.19157275 168:0.18648859 169:0.16758694 170:0.15150818 171:0.11987966 172:0.028010004 173:0.018290024 174:0.16343696 175:0.38115733 176:0.14599722 177:0.09607243 178:0.20180755 179:0.32636466 180:0.29434115 181:0.27797414 182:0.076735447 183:0.14200812 184:0.63925977 185:0.33501426 186:-0.096677429 187:0.075185742 188:0.37697479 189:0.27531492 190:0.04470668 191:0.25546794 192:0.42507719 193:0.35904771 194:0.17123095 195:-0.025702401 196:-0.10600785 197:-0.13170585 198:-0.17820599 199:-0.36768147 200:-0.60999831 201:-0.59146947 202:-0.30700523 203:-0.81253604 204:-1.0020618 205:-0.60865321 206:-0.26476579 207:-0.37165498 208:-0.42825871 209:-0.33970009 210:-0.21945958 211:-0.090546934 212:-0.50802399 213:-1.250931 214:-1.8609821 215:-1.4392734 216:-1.2437977 217:-0.95017896 218:-0.81582569 219:-0.70473201 220:-0.65402891 221:-0.32182318 222:-0.28670213 223:0.049138013 224:-0.24487023 225:-0.11738959 226:-0.13978332 227:-0.39399356 228:-0.41248451 229:-0.43412032 230:-0.87035025 231:-1.4648315 232:-1.3559989 233:-1.0344258 234:-0.82416266 235:-1.1244945 236:-1.2961895 237:-1.1601246 238:-0.91183741 239:-0.86008719 240:-0.89933357 241:-0.90243502 242:-0.80940844 243:-0.65013545 244:-0.67441606 245:-0.79177334 246:-0.82292422 247:-0.70425917 248:-0.69925294 249:-0.82238599 250:-1.0052639 251:-0.89661197 252:-0.69945049 253:-0.71966158 254:-0.74587254 255:-0.84167601 256:-0.74726719 257:-0.56519034 258:-0.57255909 259:-0.66365808 260:-0.7125352 261:-0.67110968 262:-0.6107661 263:-0.63433056 264:-0.68599083 265:-0.63955856 266:-0.61103656 267:-0.66073789 268:-0.63912328 269:-0.8235101 270:-0.94442421 271:-0.88601575 272:-0.73485341 273:-0.74389154 274:-0.852656 275:-0.94042472 276:-0.87718945 277:-0.77412939 278:-0.68117731 279:-0.68449931 280:-0.72637329 281:-0.70733839 282:-0.80328511 283:-0.84686319 284:-0.76411333 285:-0.75734484 286:-0.86222688 287:-0.80523765 288:-0.72666188 289:-0.7240401 290:-0.82025855 291:-0.89797297 292:-0.85251486 293:-0.78400199 294:-0.78044262 295:-0.74059817 296:-0.79853079 297:-0.80975449 298:-0.78494562 299:-0.74723674 300:-0.74704159 301:-0.17499607 302:-0.12057166 303:-0.042141781 304:0.02449246 305:0.026490877 306:0.04402682 307:0.22582994 308:0.29974235 309:0.3204634 310:0.29984033 311:0.21304238 312:0.22140568 313:0.21453952 314:0.12674398 315:0.1846549 316:0.18304312 317:0.18051419 318:0.15687398 319:0.16340282 320:0.29529536 321:0.27783832 322:0.33530487 323:0.31641585 324:0.27231207 325:0.44663751 326:0.43761814 327:0.45303687 328:0.5081088 329:0.65933984 330:0.84476911 331:1.0957758 332:1.1333686 333:1.1435057 334:1.4399888 335:1.7113139 336:1.7646753 337:1.5423555 338:1.5219108 339:1.6978087 340:1.8335908 341:1.7721489 342:1.574391 343:1.4528014 344:1.4403732 345:1.4394191 346:1.3979483 347:1.4860224 348:1.6461734 349:1.6715286 350:1.6477267 351:1.3880101 352:1.1726145 353:0.96146364 354:0.81595139 355:0.73867334 356:0.64056431 357:0.33537818 358:0.22216931 359:0.35765729 360:0.28908097 361:-0.086827318 362:-0.47228574 363:-1.0277414 364:-1.4507613 365:-1.5782999 366:-1.4552459 367:-1.3125673 368:-0.94434354 369:-0.45160815 370:-0.45507659 371:-0.18484905 372:0.0081582038 373:0.1007903 374:0.16223935 375:0.16284367 376:0.091250676 377:0.05709303 378:0.09728818 379:0.0025353731 380:-0.10193503 381:-0.017812075 382:-0.030402324 383:0.04325951 384:0.11919364 385:0.15443877 386:0.13246573 387:0.1595872 388:0.20071752 389:0.2252982 390:0.22279959 391:0.21561395 392:0.24541523 393:0.31651448 394:0.38885656 395:0.47114969 396:0.51751779 397:0.49865998 398:0.48217708 399:0.47682927 400:0.49304961 401:0.5475471 402:0.63126144 403:0.73985935 404:0.79410584 405:0.76717587 406:0.76927326 407:0.79739125 408:0.78356607 409:0.79666927 410:0.83354388 411:0.85506487 412:0.8250894 413:0.89122449 414:0.88230475 415:0.82637658 416:0.8191734 417:0.88310903 418:0.82358014 419:0.87745476 420:0.84928463 421:0.88560867 422:0.87873827 423:0.94448731 424:1.0229573 425:1.0374602 426:0.93502491 427:0.96752904 428:1.0268161 429:1.0354284 430:1.037114 431:1.0645343 432:1.1327138 433:1.1114027 434:1.0463054 435:1.027785 436:0.99278478 437:0.97842657 438:1.0150195 439:1.0191532 440:1.0341028 441:1.0636243 442:1.0516374 443:1.112316 444:1.1851688 445:1.200042 446:1.2571141 447:1.2710809 448:1.2537554 449:1.233155 450:1.2479903 
-4.199889975269055 1:-0.5743797 2:-0.68716263 3:-0.74839062 4:-0.80252794 5:-0.88853028 6:-1.0191441 7:-1.1329504 8:-1.2198596 9:-1.3023045 10:-1.3763229 11:-1.4767078 12:-1.5198643 13:-1.517003 14:-1.4881386 15:-1.5131064 16:-1.5425827 17:-1.5890805 18:-1.6795541 19:-1.771838 20:-1.7847099 21:-1.9034068 22:-1.9768573 23:-2.0575622 24:-2.0932426 25:-2.1168029 26:-2.1282661 27:-2.1153145 28:-2.1251429 29:-2.13159 30:-2.1258538 31:-2.0793653 32:-2.0315931 33:-2.0005367 34:-2.0192429 35:-2.0246172 36:-2.0338579 37:-2.0608553 38:-2.0689842 39:-2.0550132 40:-2.0502426 41:-2.0453792 42:-2.030936 43:-2.0232472 44:-2.0307233 45:-2.0169239 46:-2.0026255 47:-1.9809745 48:-1.9370083 49:-1.9059832 50:-1.88334 51:-1.8537861 52:-1.8388596 53:-1.8253473 54:-1.8206814 55:-1.8080721 56:-1.7959655 57:-1.7756313 58:-1.7648986 59:-1.7508454 60:-1.7288335 61:-1.7060486 62:-1.6803009 63:-1.649672 64:-1.6385272 65:-1.6309035 66:-1.6438737 67:-1.6196598 68:-1.596797 69:-1.5837729 70:-1.59611 71:-1.587571 72:-1.577137 73:-1.5551038 74:-1.5513048 75:-1.5457301 76:-1.5415878 77:-1.5429325 78:-1.5234871 79:-1.5346452 80:-1.5289495 81:-1.537631 82:-1.5237742 83:-1.5246468 84:-1.5334364 85:-1.5291692 86:-1.5184208 87:-1.5009961 88:-1.4963221 89:-1.4769969 90:-1.4501479 91:-1.4275093 92:-1.4180583 93:-1.398511 94:-1.3790197 95:-1.3614191 96:-1.3363703 97:-1.3137363 98:-1.3021021 99:-1.2724802 100:-1.2385434 101:-1.219786 102:-1.2143689 103:-1.2127257 104:-1.2033698 105:-1.1958623 106:-1.1754398 107:-1.1501495 108:-1.1478647 109:-1.1193084 110:-1.0722089 111:-1.044686 112:-1.0287072 113:-1.0090625 114:-0.98904221 115:-0.97838216 116:-0.97122263 117:-0.95514828 118:-0.90147825 119:-0.89144832 120:-0.87986384 121:-0.86941961 122:-0.84497189 123:-0.82048695 124:-0.83082941 125:-0.79810522 126:-0.76539016 127:-0.73878994 128:-0.72408615 129:-0.71432365 130:-0.66275044 131:-0.66320146 132:-0.64421388 133:-0.62523626 134:-0.57800882 135:-0.55594155 136:-0.54103912 137:-0.51157121 138:-0.49677503 139:-0.46509179 140:-0.42655162 141:-0.41003166 142:-0.39492173 143:-0.3725676 144:-0.3367547 145:-0.31225897 146:-0.30610171 147:-0.28641687 148:-0.25588069 149:-0.2106064 150:-0.17563848 151:-0.62409492 152:-0.33722685 153:-0.85155027 154:-1.0500138 155:-0.65245952 156:-0.29362253 157:-0.40238512 158:-0.46919104 159:-0.38917757 160:-0.26261436 161:-0.13522283 162:-0.56127311 163:-1.3283004 164:-1.9608325 165:-1.5219799 166:-1.3271292 167:-1.0295207 168:-0.89829245 169:-0.79208375 170:-0.74263848 171:-0.39577916 172:-0.36043062 173:-0.0059173608 174:-0.32020302 175:-0.1835866 176:-0.20806789 177:-0.47318236 178:-0.48753508 179:-0.5072667 180:-0.95974001 181:-1.5852039 182:-1.4639953 183:-1.1313776 184:-0.91590347 185:-1.2361444 186:-1.4177307 187:-1.2864097 188:-1.0313191 189:-0.98447447 190:-1.0166916 191:-1.0078351 192:-0.92092349 193:-0.74410471 194:-0.77214602 195:-0.89491089 196:-0.90786211 197:-0.7750716 198:-0.78081005 199:-0.92177543 200:-1.1348959 201:-1.0167409 202:-0.80825382 203:-0.82602336 204:-0.84201647 205:-0.95673671 206:-0.84389576 207:-0.65300127 208:-0.66823126 209:-0.78631773 210:-0.78789336 211:-0.75692301 212:-0.74543288 213:-0.71698741 214:-0.73165891 215:-0.70816839 216:-0.69229062 217:-0.72405804 218:-0.70731686 219:-0.8957278 220:-1.0192571 221:-0.9763363 222:-0.8339517 223:-0.83990541 224:-0.95907506 225:-1.0639704 226:-0.98441042 227:-0.85884463 228:-0.76069598 229:-0.76558015 230:-0.80964905 231:-0.79740419 232:-0.88113544 233:-0.89980422 234:-0.80950944 235:-0.80404677 236:-0.91534358 237:-0.86162143 238:-0.77752421 239:-0.76962494 240:-0.86022582 241:-0.93391043 242:-0.88748643 243:-0.80882549 244:-0.80436136 245:-0.76531229 246:-0.82292422 247:-0.82954742 248:-0.80692776 249:-0.76248197 250:-0.7631335 251:-0.75226814 252:-0.67365637 253:-0.58662555 254:-0.59428384 255:-0.64964244 256:-0.76584566 257:-0.66033578 258:-0.39850938 259:-0.43845362 260:-0.73888202 261:-0.73066258 262:-0.51557628 263:-0.58681234 264:-0.68599083 265:-0.63955856 266:-0.60427564 267:-0.61952763 268:-0.79288562 269:-0.74942383 270:-0.53741569 271:-0.82820069 272:-0.84173255 273:-0.69306164 274:-0.62757082 275:-0.81698187 276:-0.86296732 277:-0.77412939 278:-0.43943457 279:-0.65101108 280:-1.1172079 281:-0.65899567 282:-0.40341973 283:-0.50955045 284:-0.91065115 285:-0.66540735 286:-0.43205489 287:-0.39155866 288:-0.35226239 289:-0.48130635 290:-0.53249953 291:-0.38235995 292:-0.28586025 293:-0.34054602 294:-0.47323321 295:-0.43945132 296:-0.27746665 297:-0.16017427 298:-0.31583778 299:-0.58106925 300:-0.45028005 301:1.3887986 302:1.1700026 303:0.95429938 304:0.80500216 305:0.7253782 306:0.62596548 307:0.31551656 308:0.19876863 309:0.33732989 310:0.2684276 311:-0.11421309 312:-0.50452945 313:-1.069241 314:-1.5004312 315:-1.625369 316:-1.5047041 317:-1.3609814 318:-0.98572499 319:-0.48084757 320:-0.48809845 321:-0.21804487 322:-0.020447204 323:0.074818755 324:0.13748223 325:0.13770245 326:0.064538126 327:0.030655129 328:0.07182557 329:-0.025341956 330:-0.13150057 331:-0.04395022 332:-0.056585952 333:0.017706408 334:0.095257972 335:0.13196895 336:0.1102922 337:0.13818173 338:0.17875431 339:0.20444742 340:0.20220587 341:0.19624548 342:0.22669511 343:0.29746962 344:0.37092684 345:0.45614313 346:0.50234188 347:0.48323584 348:0.46684334 349:0.46099304 350:0.47740845 351:0.53364782 352:0.61789542 353:0.72613183 354:0.7806458 355:0.75388629 356:0.75437136 357:0.78136477 358:0.76884937 359:0.78261716 360:0.82055048 361:0.84150066 362:0.81248137 363:0.87987084 364:0.86942287 365:0.81067403 366:0.80441535 367:0.87147168 368:0.81030235 369:0.86390673 370:0.83243481 371:0.86969043 372:0.86047582 373:0.92070565 374:0.99290479 375:1.0033271 376:0.89721742 377:0.92740765 378:0.97779836 379:0.97670375 380:0.96997403 381:0.98959218 382:1.0513036 383:1.0297221 384:0.97275984 385:0.95574933 386:0.92203862 387:0.91420269 388:0.95078926 389:0.94797475 390:0.95963367 391:0.9893917 392:0.97574673 393:1.0546312 394:1.1256828 395:1.1437354 396:1.2165526 397:1.2392065 398:1.2213998 399:1.2060574 400:1.2268558 401:1.282447 402:1.310614 403:1.33996 404:1.3462123 405:1.3089049 406:1.3237256 407:1.3223001 408:1.282757 409:1.3040498 410:1.4186737 411:1.3699217 412:1.3034594 413:1.387199 414:1.3674659 415:1.3489144 416:1.2566965 417:1.3953987 418:1.2769332 419:1.2628355 420:1.2412517 421:1.3486 422:1.3851076 423:1.4094459 424:1.3735878 425:1.3204693 426:1.4481483 427:1.4020873 428:1.2825441 429:1.3833592 430:1.3156247 431:1.3320188 432:1.3158419 433:1.2976961 434:1.345697 435:1.3611167 436:1.352212 437:1.2682028 438:1.2542921 439:1.2656886 440:1.2881012 441:1.2963185 442:1.2874108 443:1.3270694 444:1.3749799 445:1.3635784 446:1.3539191 447:1.3250037 448:1.2977092 449:1.2764422 450:1.2630812 
