svm_type c_svc
kernel_type rbf
gamma 0.001
nr_class 2
total_sv 24
rho 0.610152
label 2 1
probA -3.20357
probB -0.683966
nr_sv 9 15
SV
1 1:0.15074537 2:0.21801388 3:0.29914857 4:0.44596401 5:0.55054237 6:0.64046102 7:0.66993535 8:0.68570498 9:0.78928141 10:0.85643885 11:0.91786505 12:0.95706091 13:1.0005136 14:1.0386196 15:1.0839094 16:1.1580706 17:1.2027067 18:1.2018337 19:1.2143183 20:1.2481437 21:1.284859 22:1.3286452 23:1.3608128 24:1.3835725 25:1.4168338 26:1.4561278 27:1.4914391 28:1.5140623 29:1.5367352 30:1.554222 31:1.5783889 32:1.6176825 33:1.6433975 34:1.6763232 35:1.7291982 36:1.7576111 37:1.7643083 38:1.7760551 39:1.7652406 40:1.757857 41:1.7664273 42:1.7704514 43:1.7763779 44:1.7711785 45:1.7711445 46:1.7695273 47:1.7650749 48:1.7342693 49:1.7320499 50:1.7267338 51:1.7161022 52:1.7144674 53:1.6699479 54:1.649246 55:1.6517472 56:1.6089902 57:1.5767031 58:1.5676082 59:1.5982687 60:1.6119566 61:1.5917956 62:1.5477065 63:1.5439717 64:1.5959306 65:1.6733139 66:1.6491144 67:1.5117053 68:1.4223791 69:1.4505073 70:1.5382656 71:1.6000556 72:1.5788291 73:1.4972076 74:1.42319 75:1.4026178 76:1.4243049 77:1.4515928 78:1.4444141 79:1.4222082 80:1.392547 81:1.3539226 82:1.3013148 83:1.2486058 84:1.2121384 85:1.190228 86:1.1440681 87:1.0809977 88:1.0328399 89:0.99231726 90:0.9575977 91:0.91128035 92:0.87030752 93:0.86113348 94:0.82918966 95:0.78248262 96:0.73787772 97:0.68826144 98:0.65314963 99:0.64184807 100:0.59697183 101:0.54259148 102:0.52389638 103:0.44897575 104:0.44029735 105:0.37207625 106:0.32783869 107:0.32134783 108:0.32280076 109:0.30658642 110:0.27153058 111:0.26048455 112:0.23381883 113:0.20298101 114:0.1886164 115:0.1488952 116:0.10578425 117:0.066576455 118:0.025196175 119:0.0083420388 120:-0.0085422682 121:-0.029931903 122:-0.059861278 123:-0.084245042 124:-0.10097809 125:-0.12550297 126:-0.1425969 127:-0.15444674 128:-0.17454019 129:-0.18882387 130:-0.19380028 131:-0.20794345 132:-0.23024522 133:-0.25237296 134:-0.27482249 135:-0.29685053 136:-0.31396362 137:-0.33108618 138:-0.34346713 139:-0.3684838 140:-0.39506117 141:-0.42239183 142:-0.45651036 143:-0.47181497 144:-0.48579961 145:-0.51724093 146:-0.53176205 147:-0.56142326 148:-0.58659668 149:-0.59040316 150:-0.59547555 151:-0.14797737 152:-0.21050588 153:-0.036593566 154:0.074050799 155:0.34567943 156:-0.00047295112 157:-0.34975132 158:-0.038027324 159:0.21759537 160:-0.24277712 161:-0.32212209 162:-0.011526714 163:-0.035479034 164:-0.26659091 165:-0.44656194 166:-0.16852576 167:-0.21461629 168:-0.42937774 169:-0.44440762 170:-0.40134447 171:-0.3884387 172:-0.49832799 173:-0.58241754 174:-0.60815893 175:-0.62069813 176:-0.59752489 177:-0.56024654 178:-0.55637286 179:-0.5297753 180:-0.43457355 181:-0.43721756 182:-0.59385218 183:-0.5956541 184:-0.53633859 185:-0.69214345 186:-0.8844561 187:-0.77170092 188:-0.73577497 189:-0.91142876 190:-1.0402258 191:-1.0777062 192:-1.060109 193:-1.0649466 194:-1.036666 195:-1.0946784 196:-1.1121336 197:-1.0743084 198:-1.1441897 199:-1.1623518 200:-1.111617 201:-1.1363704 202:-1.1157516 203:-1.00177 204:-1.0170646 205:-0.93701278 206:-0.92276156 207:-0.9918739 208:-0.94352102 209:-0.8742177 210:-0.70857438 211:-0.80855778 212:-0.95272023 213:-0.95561021 214:-0.80525528 215:-0.45142169 216:-0.4150138 217:-0.84618116 218:-1.0696798 219:-0.86048421 220:-0.47974889 221:-0.30632883 222:-0.4319488 223:-0.59193406 224:-0.65324789 225:-0.56724061 226:-0.40452518 227:-0.33090444 228:-0.31963804 229:-0.24664688 230:-0.14181077 231:-0.097874294 232:-0.064740748 233:-0.066102081 234:-0.095658591 235:-0.081222941 236:-0.026566004 237:-0.045597175 238:-0.02129686 239:-0.033665774 240:-0.034441451 241:-0.029705615 242:-0.10730245 243:-0.1518529 244:-0.11966916 245:-0.087191598 246:-0.060778698 247:-0.074832825 248:-0.10604381 249:0.010829205 250:-0.10155218 251:-0.0051399363 252:0.16512424 253:-0.011010081 254:0.004557581 255:-0.01544646 256:-0.027297736 257:-0.053162824 258:-0.13846635 259:-0.027819688 260:-0.0068773438 261:-0.054679094 262:0.018573687 263:0.07483946 264:0.05887351 265:0.012666535 266:-0.0056705121 267:0.058508588 268:0.10832214 269:0.15009425 270:0.17439199 271:0.14268355 272:0.19387114 273:0.20742541 274:0.12176486 275:0.11572075 276:0.080179668 277:-0.05758741 278:-0.092940054 279:-0.012428968 280:-0.017084167 281:-0.082874755 282:-0.075790489 283:-0.091738997 284:-0.16509993 285:-0.19516448 286:-0.25068985 287:-0.27428978 288:-0.24148507 289:-0.38025392 290:-0.44537903 291:-0.46549021 292:-0.49248833 293:-0.57653954 294:-0.48365784 295:-0.60463498 296:-0.56068904 297:-0.56285189 298:-0.58617906 299:-0.65417999 300:-0.79715395 301:-0.67726086 302:-0.36918864 303:-0.73476952 304:-1.4043513 305:-1.7913904 306:-1.5574251 307:-1.4447302 308:-1.6968888 309:-1.8215723 310:-1.5357308 311:-1.50319 312:-1.6063635 313:-1.5610576 314:-1.3975146 315:-1.3819972 316:-1.3399857 317:-1.2380625 318:-1.1649758 319:-1.0506418 320:-0.97146795 321:-0.81284378 322:-0.86674398 323:-0.85389197 324:-0.6908608 325:-0.62142385 326:-0.6556079 327:-0.65851434 328:-0.58181728 329:-0.42282451 330:-0.32297197 331:-0.37732154 332:-0.34338371 333:-0.24399121 334:-0.15266883 335:-0.14456451 336:-0.12161894 337:-0.18475373 338:-0.11059808 339:-0.075140325 340:0.056181585 341:0.02819727 342:-0.050061425 343:-0.12089034 344:-0.14961812 345:-0.022084959 346:-0.17785571 347:0.029343356 348:-0.08802034 349:-0.03846997 350:0.023096694 351:-0.045888043 352:0.24835438 353:0.21296862 354:0.14947246 355:0.19149169 356:0.34627183 357:0.19997065 358:0.055622321 359:0.12886696 360:0.36393403 361:0.049381092 362:-0.055887739 363:-0.19431339 364:-0.3613036 365:-0.23507434 366:0.13209751 367:-0.27660455 368:-0.3756631 369:-0.41128612 370:-0.4828849 371:-0.63987152 372:-0.64756352 373:-0.65815123 374:-0.76196363 375:-0.77881259 376:-0.84379891 377:-0.94565142 378:-1.0267623 379:-1.1076732 380:-1.1107123 381:-1.0716067 382:-1.0442942 383:-0.99976816 384:-1.0984274 385:-1.1330437 386:-1.0545878 387:-1.1039119 388:-1.1170686 389:-1.1561095 390:-1.0871395 391:-1.0232806 392:-1.1858359 393:-1.1443132 394:-1.1685851 395:-1.1341286 396:-1.148636 397:-1.1087249 398:-1.103465 399:-1.1132404 400:-1.1919275 401:-1.15315 402:-1.1932833 403:-1.2404398 404:-1.2603836 405:-1.1941629 406:-1.1689863 407:-1.1676881 408:-1.2568015 409:-1.2520127 410:-1.3083726 411:-1.2970356 412:-1.3045508 413:-1.3677835 414:-1.382746 415:-1.2679337 416:-1.1696843 417:-1.1994378 418:-1.2318612 419:-1.0811418 420:-1.0861539 421:-1.203251 422:-1.1655235 423:-1.1699786 424:-1.2993938 425:-1.1838573 426:-1.0706912 427:-1.0447491 428:-1.0104231 429:-1.0503852 430:-1.1006957 431:-1.108858 432:-1.0845686 433:-0.99315622 434:-0.99754754 435:-1.0612196 436:-1.0447943 437:-0.92024309 438:-0.81954489 439:-0.80456367 440:-0.87409714 441:-0.88656461 442:-0.74966745 443:-0.68525838 444:-0.69186174 445:-0.6206867 446:-0.54834809 447:-0.45474245 448:-0.4282128 449:-0.43713404 450:-0.4416799 
0.9650798294444718 1:-0.94624919 2:-0.94944648 3:-0.95941158 4:-0.95766729 5:-0.95763454 6:-0.95585853 7:-0.95469388 8:-0.94766089 9:-0.96344709 10:-0.95140633 11:-0.94033066 12:-0.93636871 13:-0.9343991 14:-0.93516044 15:-0.93003815 16:-0.92629344 17:-0.92731093 18:-0.90851843 19:-0.88360491 20:-0.86240896 21:-0.85611618 22:-0.82278912 23:-0.7853411 24:-0.72403919 25:-0.67345314 26:-0.64737218 27:-0.61893602 28:-0.59749299 29:-0.58749858 30:-0.57428971 31:-0.52616524 32:-0.46698775 33:-0.46942128 34:-0.49322538 35:-0.45713864 36:-0.3359763 37:-0.20602878 38:-0.18861981 39:-0.18695586 40:-0.060237386 41:0.13948605 42:0.24369613 43:0.24605454 44:0.30648256 45:0.39491295 46:0.59870384 47:0.7472138 48:0.86391557 49:0.99383858 50:1.0624038 51:1.1647401 52:1.2809591 53:1.4365616 54:1.5096654 55:1.544013 56:1.6791402 57:1.771064 58:1.8221681 59:1.8448588 60:1.8734084 61:1.8601268 62:1.813491 63:1.7792567 64:1.7433238 65:1.7097342 66:1.6945333 67:1.6969443 68:1.6783741 69:1.6707966 70:1.6600905 71:1.6486909 72:1.6235541 73:1.6098122 74:1.5898209 75:1.6209577 76:1.660303 77:1.6789759 78:1.6964683 79:1.7403832 80:1.757722 81:1.7468042 82:1.7532856 83:1.7877238 84:1.820601 85:1.8021587 86:1.7737439 87:1.8188083 88:1.8912224 89:1.8876034 90:1.7981925 91:1.7151665 92:1.7254036 93:1.7716643 94:1.7699635 95:1.7523967 96:1.7048625 97:1.5968149 98:1.5317623 99:1.5347161 100:1.5734098 101:1.562966 102:1.4982006 103:1.4581544 104:1.4605933 105:1.4629116 106:1.4149449 107:1.353519 108:1.2971576 109:1.2419265 110:1.1958413 111:1.2000564 112:1.1789013 113:1.1676098 114:1.1369446 115:1.1186577 116:1.1058154 117:1.1104425 118:1.1061389 119:1.0891976 120:1.0640463 121:1.0546924 122:1.0523277 123:1.0393237 124:1.0217154 125:0.98834586 126:0.97017247 127:0.96368722 128:0.96109599 129:0.9456738 130:0.94553041 131:0.96169007 132:0.97276788 133:0.98038058 134:0.975361 135:0.96536594 136:0.95876536 137:0.96047687 138:0.957387 139:0.95043969 140:0.93676675 141:0.90853045 142:0.89879759 143:0.88786999 144:0.85904515 145:0.84501375 146:0.82074783 147:0.80440056 148:0.77423465 149:0.76238061 150:0.73573989 151:-1.3782936 152:-1.4151526 153:-1.4067248 154:-1.4378197 155:-1.4091887 156:-1.3040445 157:-1.3185107 158:-1.3494856 159:-1.3261671 160:-1.3269921 161:-1.332979 162:-1.3989923 163:-1.4040639 164:-1.3969808 165:-1.3165435 166:-1.380395 167:-1.3783685 168:-1.3126933 169:-1.3811361 170:-1.3902303 171:-1.449977 172:-1.5056649 173:-1.7090862 174:-1.5949069 175:-1.2386339 176:-1.0780734 177:-0.9401865 178:-0.77060388 179:-0.63525451 180:-0.66203727 181:-0.67450493 182:-0.53356091 183:-0.42020153 184:-0.45307917 185:-0.59421251 186:-0.66027337 187:-0.35941456 188:-0.02885392 189:-0.24220325 190:-0.44184008 191:0.043736132 192:0.79508171 193:0.59665188 194:0.30215065 195:0.074389682 196:0.055108921 197:0.34114495 198:0.28749029 199:0.1996992 200:0.29478436 201:0.12900404 202:-0.18423748 203:-0.099418725 204:-0.10564117 205:-0.34431902 206:-0.44108442 207:-0.59526309 208:-0.55761651 209:-0.4335235 210:-0.62441891 211:-0.72977967 212:-0.70203065 213:-0.65486043 214:-1.0039578 215:-0.97167328 216:-0.73578488 217:-0.84618116 218:-0.93982451 219:-0.88999823 220:-0.93091851 221:-0.92606453 222:-0.85874034 223:-0.83192623 224:-0.93749004 225:-1.0614748 226:-1.0118441 227:-1.101127 228:-1.1324063 229:-0.97944984 230:-0.91130075 231:-0.92824949 232:-0.95935035 233:-0.8099877 234:-0.57075293 235:-0.69550436 236:-0.93283665 237:-0.75497523 238:-0.53208524 239:-0.54374655 240:-0.74623144 241:-0.89950051 242:-0.7031887 243:-0.53539887 244:-0.55154572 245:-0.54105721 246:-0.57667978 247:-0.57721445 248:-0.60544465 249:-0.65245959 250:-0.61310945 251:-0.57754193 252:-0.65789471 253:-0.57421806 254:-0.52436169 255:-0.60477017 256:-0.43711226 257:-0.4179738 258:-0.27957244 259:-0.10554399 260:-0.24758438 261:-0.2551691 262:-0.1720576 263:-0.11654293 264:-0.092005255 265:-0.094755427 266:-0.10835609 267:-0.068506891 268:-0.028537782 269:-0.027696682 270:-0.12954152 271:-0.072788282 272:-0.10334453 273:-0.066964108 274:-0.052523695 275:-0.054859319 276:-0.11597206 277:-0.16481517 278:-0.15862365 279:-0.12869631 280:-0.11009796 281:-0.071610225 282:-0.097668156 283:-0.14323053 284:-0.10647749 285:-0.056196446 286:-0.037201301 287:-0.01261233 288:0.010509072 289:-0.0015457476 290:-0.0051340522 291:-0.10007438 292:-0.10833318 293:0.01127647 294:0.00086521975 295:-0.062565401 296:-0.018213466 297:0.046581655 298:0.10657801 299:0.20437764 300:0.27418787 301:0.19364515 302:0.1229088 303:0.19033562 304:0.18997126 305:0.22677379 306:0.28420529 307:0.30284513 308:0.29276861 309:0.32471312 310:0.28414721 311:0.32004802 312:0.36724261 313:0.39124414 314:0.28223465 315:0.17195135 316:0.2183562 317:0.45594369 318:0.47489689 319:0.44472408 320:0.45364818 321:0.63317858 322:0.72008855 323:0.77717897 324:0.53659956 325:0.37476829 326:0.47226255 327:0.12235908 328:-0.37607267 329:-0.43627219 330:-0.24197644 331:-0.317957 332:-0.61597313 333:-0.70620244 334:-0.41464141 335:-0.14456451 336:-0.61728655 337:-1.0672654 338:-0.63947554 339:-0.32298037 340:-0.772816 341:-1.2817787 342:-1.1004017 343:-0.55312471 344:-0.53852875 345:-0.78746545 346:-1.1055671 347:-0.97177796 348:-1.1856149 349:-1.4679331 350:-1.3203333 351:-1.2037202 352:-0.87592193 353:-1.122705 354:-0.93703221 355:-0.92435799 356:-0.60957471 357:-0.62338639 358:-0.72708357 359:-0.57089632 360:-0.55122477 361:-0.47905335 362:-0.39526527 363:-0.34106537 364:-0.22513711 365:-0.099483712 366:-0.32263843 367:-0.27887294 368:-0.20192346 369:-0.24853119 370:-0.27596632 371:-0.29904633 372:-0.26169286 373:-0.060119583 374:-0.1177446 375:-0.18226304 376:-0.081557598 377:-0.060958293 378:-0.021701833 379:-0.17176423 380:-0.06169858 381:0.085962082 382:-0.048024874 383:-0.18601807 384:0.14400213 385:0.22246617 386:-0.12952131 387:-0.27720726 388:-0.30739237 389:-0.033654963 390:-0.032777846 391:-0.35001718 392:-0.30198559 393:-0.28908244 394:-0.46184889 395:-0.44537391 396:-0.449453 397:-0.34253324 398:-0.31748411 399:-0.45958593 400:-0.40237573 401:-0.43494335 402:-0.50100324 403:-0.52516986 404:-0.69961223 405:-0.69418523 406:-0.70514416 407:-0.7752748 408:-0.70775305 409:-0.67897158 410:-0.78170293 411:-0.79646978 412:-0.86493885 413:-0.81350749 414:-0.87758203 415:-0.87193046 416:-0.90569491 417:-1.047354 418:-1.0065746 419:-0.91811855 420:-1.0905661 421:-1.0788127 422:-1.1453684 423:-1.2077843 424:-1.195829 425:-1.1533044 426:-1.1825404 427:-1.2453369 428:-1.207668 429:-1.1662754 430:-1.2397188 431:-1.2846963 432:-1.2601883 433:-1.256655 434:-1.2853159 435:-1.2705899 436:-1.328448 437:-1.3543786 438:-1.3457775 439:-1.354345 440:-1.2856053 441:-1.2356083 442:-1.3071584 443:-1.3343871 444:-1.3020271 445:-1.32317 446:-1.3918006 447:-1.3206651 448:-1.3336768 449:-1.3065479 450:-1.2701828 
0.9179110045751732 1:-0.96303992 2:-0.9773095 3:-0.98710267 4:-0.98096976 5:-0.96445887 6:-0.95585853 7:-0.95069889 8:-0.94372191 9:-0.95301418 10:-0.94879572 11:-0.93249568 12:-0.92070975 13:-0.93179491 14:-0.92477213 15:-0.91969031 16:-0.91598757 17:-0.90932526 18:-0.91236476 19:-0.88871245 20:-0.8776476 21:-0.85738228 22:-0.86066648 23:-0.83713175 24:-0.84288472 25:-0.83541242 26:-0.84275155 27:-0.82193036 28:-0.81928964 29:-0.81191671 30:-0.76106952 31:-0.73557361 32:-0.69597059 33:-0.67000534 34:-0.63866997 35:-0.58853559 36:-0.50340884 37:-0.45523055 38:-0.42129679 39:-0.38148569 40:-0.35817206 41:-0.29981582 42:-0.20657199 43:-0.1118996 44:-0.06975687 45:-0.0086332186 46:0.09952643 47:0.2523421 48:0.36254678 49:0.4507059 50:0.56834332 51:0.69992086 52:0.82244076 53:0.89383485 54:0.92807964 55:0.98897767 56:1.0208093 57:1.0308952 58:1.0361815 59:1.0763851 60:1.1583379 61:1.2514731 62:1.351314 63:1.4354791 64:1.5124512 65:1.5588503 66:1.5959095 67:1.6244032 68:1.626658 69:1.6450318 70:1.6716318 71:1.7011659 72:1.7347275 73:1.7045024 74:1.703899 75:1.705725 76:1.7183353 77:1.7062619 78:1.7003862 79:1.7154025 80:1.7630144 81:1.7828852 82:1.8317716 83:1.8547715 84:1.856474 85:1.8730871 86:1.8856862 87:1.8666815 88:1.8728082 89:1.89186 90:1.9292683 91:1.9603232 92:1.9648305 93:1.9543414 94:1.9070109 95:1.8739936 96:1.8446502 97:1.7975922 98:1.7745368 99:1.7233704 100:1.6449962 101:1.6016057 102:1.5551775 103:1.4963166 104:1.4270033 105:1.3778208 106:1.3157413 107:1.2598088 108:1.2034694 109:1.1513238 110:1.1210416 111:1.0864524 112:1.0440802 113:1.0223826 114:0.99576087 115:0.96280304 116:0.93980757 117:0.91513 118:0.87760423 119:0.84289351 120:0.83121608 121:0.7864801 122:0.75861582 123:0.75126254 124:0.74169321 125:0.70140588 126:0.67920097 127:0.66102448 128:0.63833624 129:0.61427754 130:0.60292507 131:0.57407108 132:0.54527348 133:0.53487369 134:0.49312746 135:0.46553383 136:0.45221358 137:0.43733004 138:0.42023256 139:0.38722371 140:0.35310854 141:0.32383957 142:0.29612113 143:0.25878336 144:0.22592482 145:0.19250521 146:0.14665345 147:0.10057583 148:0.067870933 149:0.032853906 150:-0.0019218282 151:0.42730937 152:-0.0078008916 153:-0.17956378 154:0.056264088 155:0.16960571 156:0.016908002 157:-0.28055423 158:-0.35253994 159:-0.17285041 160:0.041905012 161:-0.072452615 162:-0.50266496 163:-0.68894749 164:-0.53860987 165:-0.24856615 166:-0.30859104 167:-0.68132942 168:-0.81471674 169:-0.72898337 170:-0.65445217 171:-0.77082079 172:-0.93727927 173:-0.97131839 174:-0.9796405 175:-0.90318304 176:-0.92175037 177:-0.90049128 178:-1.0342728 179:-0.99610446 180:-0.83700936 181:-0.89484321 182:-0.7582829 183:-0.60597484 184:-0.58531472 185:-0.5323614 186:-0.5782553 187:-0.55441486 188:-0.40149447 189:-0.37173077 190:-0.36775423 191:-0.47294935 192:-0.31803269 193:0.12859597 194:0.19962866 195:-0.099471729 196:-0.066841788 197:0.5875599 198:1.0239512 199:0.85682905 200:0.70978805 201:0.99717574 202:1.1900333 203:0.82062575 204:0.37344036 205:0.2944092 206:0.39760048 207:0.12996809 208:-0.31788795 209:-0.41565752 210:-0.26375258 211:-0.214692 212:-0.28013843 213:-0.45231465 214:-0.44397792 215:-0.39760255 216:-0.45132751 217:-0.61121281 218:-0.73913909 219:-0.84867861 220:-0.93091851 221:-0.72706683 222:-0.58918779 223:-0.82621214 224:-0.73445993 225:-0.58489183 226:-0.91930029 227:-1.1237806 228:-1.1324063 229:-1.1682021 230:-1.2785573 231:-1.1429043 232:-1.0965604 233:-1.0786131 234:-0.88911512 235:-0.82455508 236:-0.89988135 237:-0.93930181 238:-0.86711848 239:-0.92359394 240:-0.94139967 241:-1.0178399 242:-0.99528981 243:-1.0074555 244:-1.0503327 245:-0.87389199 246:-0.82290529 247:-0.79664551 248:-0.75407586 249:-0.72481836 250:-0.71774617 251:-0.74353851 252:-0.76222105 253:-0.72243068 254:-0.63014555 255:-0.69721311 256:-0.6989382 257:-0.57187843 258:-0.52062868 259:-0.48220792 260:-0.3920086 261:-0.35237638 262:-0.23355157 263:-0.26470994 264:-0.27909492 265:-0.28572781 266:-0.23520298 267:-0.1773773 268:-0.27845589 269:-0.35364672 270:-0.30488777 271:-0.36197416 272:-0.29401119 273:-0.28418914 274:-0.28490844 275:-0.29014218 276:-0.31212379 277:-0.34540929 278:-0.28999084 279:-0.2781829 280:-0.11591133 281:-0.16735873 282:-0.042973989 283:-0.0042033905 284:-0.1309035 285:-0.13854787 286:-0.075519758 287:-0.079423594 288:-0.05522853 289:-0.09892785 290:-0.15950567 291:-0.14722481 292:-0.096692112 293:-0.13567753 294:-0.096039392 295:0.11210146 296:0.040117241 297:-0.085653925 298:-0.18947202 299:-0.25191872 300:-0.18330404 301:0.32357052 302:0.20526821 303:0.22905148 304:0.31663245 305:0.30085323 306:0.2435512 307:0.18900308 308:0.20567271 309:0.29668327 310:0.31750122 311:0.22188973 312:0.1866919 313:0.16294219 314:0.13569403 315:0.23410929 316:0.21182684 317:0.04750742 318:0.092918504 319:0.13391402 320:0.10935407 321:0.017849913 322:0.040649796 323:-0.018572621 324:0.070033806 325:0.035501114 326:0.073169932 327:0.18687569 328:0.23221574 329:0.32352204 330:0.12925307 331:0.10638951 332:0.15782909 333:0.16956622 334:0.095869261 335:0.039397188 336:-0.16688539 337:-0.27322608 338:-0.2816393 339:-0.35200668 340:-0.31697905 341:-0.4779792 342:-0.61511789 343:-0.58223895 344:-0.30647158 345:-0.43666606 346:-0.86829531 347:-1.1983692 348:-1.0186339 349:-0.85038881 350:-1.2653748 351:-1.7572006 352:-1.814878 353:-1.4177004 354:-1.3231624 355:-1.5030235 356:-1.4652452 357:-1.2015751 358:-0.91277654 359:-0.93635132 360:-1.0088042 361:-0.84489258 362:-0.70902941 363:-0.77913098 364:-0.78542875 365:-0.62435067 366:-0.57773421 367:-0.30836199 368:-0.28211099 369:-0.36289952 370:-0.27376506 371:-0.28134112 372:-0.11448209 373:-0.1509318 374:-0.2316881 375:-0.093322927 376:-0.040178784 377:-0.14138494 378:-0.1832294 379:-0.29520546 380:-0.2733022 381:-0.36078025 382:-0.42849857 383:-0.33859621 384:-0.36192413 385:-0.30883921 386:-0.25618078 387:-0.19542097 388:-0.35237438 389:-0.35276231 390:-0.2494581 391:-0.24794176 392:-0.32413723 393:-0.4256507 394:-0.38021978 395:-0.31144938 396:-0.39172229 397:-0.42080013 398:-0.40504157 399:-0.3867328 400:-0.42069007 401:-0.48784243 402:-0.54221039 403:-0.48827914 404:-0.52295899 405:-0.64854411 406:-0.72603796 407:-0.7650557 408:-0.77363887 409:-0.78693585 410:-0.78812573 411:-0.88203659 412:-0.92469193 413:-0.95591042 414:-1.0161668 415:-1.0119537 416:-1.1230979 417:-1.1177211 418:-1.1783277 419:-1.237556 420:-1.2008698 421:-1.263248 422:-1.349159 423:-1.4368421 424:-1.4668602 425:-1.4566509 426:-1.5619506 427:-1.563122 428:-1.654303 429:-1.4730435 430:-1.4744625 431:-1.5584699 432:-1.5736361 433:-1.4486965 434:-1.4258012 435:-1.4730579 436:-1.3833487 437:-1.4192752 438:-1.3776704 439:-1.3407702 440:-1.3670025 441:-1.3629324 442:-1.4015721 443:-1.4387925 444:-1.3172813 445:-1.2649889 446:-1.2552003 447:-1.2017311 448:-1.2078606 449:-1.0973964 450:-1.0346483 
1 1:-0.93225691 2:-0.93690813 3:-0.91372128 4:-0.897355 5:-0.88666151 6:-0.86005237 7:-0.83750751 8:-0.83736931 9:-0.83433986 10:-0.83001311 11:-0.83847594 12:-0.83850019 13:-0.82372105 14:-0.80400795 15:-0.77611409 16:-0.73949939 17:-0.69221248 18:-0.64312178 19:-0.57587545 20:-0.50557063 21:-0.46615736 22:-0.42760195 23:-0.36596318 24:-0.32830885 25:-0.32675905 26:-0.30482393 27:-0.29848584 28:-0.25261845 29:-0.20186051 30:-0.21629505 31:-0.17802382 32:-0.17182491 33:-0.081625432 34:-0.0016765155 35:0.056257689 36:0.091453116 37:0.15818919 38:0.20927161 39:0.29867888 40:0.34162799 41:0.39863258 42:0.44042867 43:0.47914096 44:0.54111158 45:0.59251142 46:0.64357372 47:0.6698901 48:0.70477323 49:0.76227038 50:0.82095618 51:0.83811036 52:0.84467195 53:0.88278698 54:0.93629027 55:1.0012512 56:1.0248564 57:1.0388826 58:1.0755465 59:1.103784 60:1.1008185 61:1.0852387 62:1.0802924 63:1.0943157 64:1.0989675 65:1.1061986 66:1.1495072 67:1.2047009 68:1.2517158 69:1.2869006 70:1.3112865 71:1.324882 72:1.3526488 73:1.3679683 74:1.3821732 75:1.4308736 76:1.4642827 77:1.5100627 78:1.5345267 79:1.5707775 80:1.6174737 81:1.6545973 82:1.7153959 83:1.7439376 84:1.7764495 85:1.806331 86:1.8283158 87:1.8357048 88:1.86006 89:1.8734151 90:1.8908004 91:1.890482 92:1.8850216 93:1.8630028 94:1.852763 95:1.8625492 96:1.8821191 97:1.8669254 98:1.8467911 99:1.8241781 100:1.8096448 101:1.8205641 102:1.8044512 103:1.790307 104:1.7657023 105:1.754452 106:1.7318454 107:1.7134209 108:1.7000166 109:1.7002698 110:1.6646752 111:1.6357611 112:1.6594517 113:1.6405977 114:1.5858021 115:1.5475912 116:1.5573567 117:1.5380184 118:1.4581348 119:1.4206599 120:1.4329121 121:1.4471981 122:1.3865065 123:1.3052262 124:1.2626646 125:1.2492004 126:1.2165808 127:1.1685463 128:1.1018883 129:1.0833101 130:1.0933209 131:1.066049 132:0.9988012 133:0.94164085 134:0.89870538 135:0.87691251 136:0.81484257 137:0.7761704 138:0.72941694 139:0.70233948 140:0.65924299 141:0.61118155 142:0.54033363 143:0.46752574 144:0.42029133 145:0.3828202 146:0.31085593 147:0.249129 148:0.21635147 149:0.14630392 150:0.11364993 151:1.2247365 152:1.3763846 153:1.3216235 154:1.170898 155:1.1262729 156:1.1061144 157:1.0572564 158:1.1784837 159:1.3168504 160:1.3744597 161:1.4255642 162:1.4434703 163:1.4255778 164:1.2808947 165:1.1614039 166:1.1042414 167:1.0218704 168:0.91634461 169:0.84211191 170:0.72881081 171:0.73017158 172:0.90856712 173:1.4307163 174:1.8354933 175:1.7156875 176:1.5330997 177:2.0086013 178:2.6625855 179:3.0176572 180:2.2133375 181:2.0317011 182:1.9383809 183:2.5315299 184:2.9507618 185:2.730285 186:1.9916443 187:2.3594468 188:2.9303505 189:2.8070905 190:2.316433 191:2.5273493 192:2.9633358 193:2.9369314 194:2.5395424 195:2.5743969 196:2.9819259 197:3.1032846 198:2.7148654 199:2.5175754 200:2.9692526 201:3.2782543 202:2.9610601 203:2.5604534 204:2.7630056 205:3.1312832 206:3.1459936 207:2.9175754 208:2.8336656 209:2.9610129 210:3.0543776 211:2.8515946 212:2.6608783 213:2.6288362 214:2.6509648 215:2.6461683 216:2.5929716 217:2.5277234 218:2.5662678 219:2.6339755 220:2.6315637 221:2.4568964 222:2.3085022 223:2.3851118 224:2.4734158 225:2.3099085 226:2.0768065 227:2.2176261 228:2.0362916 229:1.7074943 230:1.7411079 231:1.5854713 232:1.7628973 233:1.5198207 234:1.4863566 235:1.5086819 236:1.7200647 237:1.8255969 238:1.664854 239:1.4640182 240:1.5154239 241:1.6329635 242:1.5576739 243:1.4295367 244:1.3949402 245:1.4317453 246:1.3579493 247:1.316822 248:1.3921587 249:1.6147821 250:1.7819087 251:1.7349621 252:1.8401417 253:2.0936092 254:2.1672497 255:2.0067427 256:2.1299204 257:2.2896076 258:2.2544578 259:1.939203 260:1.990991 261:2.2600692 262:2.0847709 263:2.1183095 264:2.4246525 265:2.4177249 266:2.0903234 267:2.3629323 268:2.8871735 269:2.6865782 270:2.4772728 271:2.5072034 272:2.7061847 273:2.8712903 274:2.7302836 275:2.7626529 276:2.8724572 277:2.7754828 278:2.7205073 279:2.7281584 280:2.8430901 281:3.0261355 282:2.8558169 283:2.4313461 284:2.2335348 285:2.4143464 286:2.7764683 287:2.5262157 288:2.4482785 289:2.4762877 290:2.7392502 291:2.8762965 292:2.8484974 293:2.8621841 294:2.901947 295:2.5574376 296:2.5891691 297:2.7142907 298:2.7295813 299:2.689992 300:2.4631998 301:1.4157557 302:1.5312546 303:1.4333183 304:1.2816701 305:1.3539825 306:1.3981274 307:1.3933322 308:1.4753373 309:1.6401138 310:1.7287927 311:1.6942641 312:1.6435494 313:1.5540905 314:1.4895544 315:1.3829595 316:1.4719944 317:1.4446719 318:1.3683751 319:1.3597663 320:1.4168001 321:1.6440757 322:1.9417504 323:2.030158 324:2.1085337 325:2.3325776 326:2.5913576 327:2.6718775 328:2.5580244 329:2.5356663 330:2.4871229 331:2.6238856 332:2.626522 333:2.6818723 334:2.3394293 335:2.4876775 336:2.7143241 337:2.7613754 338:2.6868261 339:2.6466345 340:2.7264029 341:2.8262886 342:2.6311869 343:2.5397026 344:2.6544061 345:2.7715538 346:2.6565805 347:2.4497498 348:2.4289126 349:2.5957106 350:2.6122528 351:2.2982642 352:2.243636 353:2.3598796 354:2.425176 355:2.3713393 356:2.3143139 357:2.3472368 358:2.3917598 359:2.4358017 360:2.294748 361:2.1502824 362:2.2386459 363:2.3179929 364:2.1588927 365:1.9715538 366:2.0796983 367:2.2208915 368:2.1056953 369:1.8628842 370:1.8196347 371:1.9473015 372:1.8527891 373:1.6630975 374:1.5147152 375:1.6594481 376:1.5431053 377:1.4492754 378:1.461211 379:1.4195054 380:1.3655003 381:1.250133 382:1.2341495 383:1.0036492 384:1.2901714 385:1.2305841 386:1.0171992 387:1.0181108 388:1.0645589 389:1.0441691 390:0.94116639 391:0.98782233 392:1.0160369 393:0.98256959 394:0.96666046 395:1.0022865 396:1.0921708 397:1.1980887 398:1.2117172 399:1.2079412 400:1.3781857 401:1.432801 402:1.2750249 403:1.3460092 404:1.4222808 405:1.1065641 406:0.97053796 407:1.2665005 408:1.518389 409:1.0962103 410:0.95459424 411:1.6036791 412:1.73432 413:1.4014058 414:1.4247137 415:2.064182 416:1.9826592 417:1.6629159 418:1.9444569 419:2.0889996 420:2.2913458 421:2.1588045 422:1.9988303 423:2.216964 424:2.3187625 425:2.1900537 426:2.1553916 427:2.2210002 428:2.367679 429:2.4876738 430:2.4272981 431:2.5748436 432:2.4211566 433:2.2827144 434:2.548574 435:2.4083455 436:2.5260399 437:2.4006699 438:2.6453894 439:2.6796472 440:2.6892919 441:2.7355865 442:2.7189151 443:2.5626551 444:2.5136858 445:2.4284356 446:2.5197374 447:2.5937225 448:2.4511215 449:2.3392488 450:2.337214 
1 1:-0.94345073 2:-0.94944648 3:-0.94833514 4:-0.94670142 5:-0.93989128 6:-0.93426841 7:-0.93338727 8:-0.92665297 9:-0.92823603 10:-0.93052147 11:-0.92857819 12:-0.92070975 13:-0.90314883 14:-0.89880134 15:-0.8886468 16:-0.87991699 17:-0.87720798 18:-0.88287625 19:-0.90148131 20:-0.90685501 21:-0.89283308 22:-0.87834259 23:-0.85734274 24:-0.83277021 25:-0.81896343 26:-0.79707845 27:-0.77596938 28:-0.74364801 29:-0.68423053 30:-0.62228174 31:-0.56935572 32:-0.52654976 33:-0.48814246 34:-0.41646295 35:-0.31084101 36:-0.21754841 37:-0.15810536 38:-0.056448263 39:0.08207475 40:0.15870996 41:0.15611577 42:0.19382028 43:0.34733614 44:0.57720835 45:0.72470758 46:0.82725979 47:1.0115203 48:1.1779752 49:1.2773342 50:1.3624688 51:1.4257647 52:1.5032711 53:1.5884698 54:1.6834569 55:1.7935744 56:1.884194 57:1.9148378 58:1.9507602 59:1.9831579 60:1.9858326 61:1.9844754 62:1.9627493 63:1.8799065 64:1.7837591 65:1.7149371 66:1.6776634 67:1.6658552 68:1.6305367 69:1.5896374 70:1.5716072 71:1.5808574 72:1.6248319 73:1.6686737 74:1.6769817 75:1.6787536 76:1.6848055 77:1.6750779 78:1.6977743 79:1.7390684 80:1.7630144 81:1.7655129 82:1.735694 83:1.7535158 84:1.7571332 85:1.7214951 86:1.6785928 87:1.6371718 88:1.599429 89:1.5754593 90:1.5046967 91:1.479987 92:1.4631742 93:1.4034559 94:1.3416901 95:1.3489811 96:1.396465 97:1.4075931 98:1.394479 99:1.3921452 100:1.388717 101:1.3425766 102:1.2588978 103:1.2023262 104:1.1624821 105:1.1030196 106:1.0332866 107:1.0044822 108:0.99467867 109:0.9901042 110:0.97277786 111:0.95146414 112:0.92527748 113:0.90513486 114:0.89986252 115:0.88687383 116:0.85481156 117:0.83199023 118:0.82244069 119:0.81407069 120:0.79851521 121:0.77339657 122:0.73642425 123:0.717373 124:0.70262035 125:0.68836315 126:0.6844437 127:0.68481457 128:0.70474771 129:0.71449818 130:0.70369135 131:0.69875971 132:0.69873301 133:0.68153124 134:0.65480113 135:0.61576427 136:0.60601343 137:0.5876107 138:0.56271384 139:0.54834626 140:0.51475898 141:0.48966877 142:0.4832079 143:0.466096 144:0.43601215 145:0.39999147 146:0.37279195 147:0.3645101 148:0.34897486 149:0.32006914 150:0.2791601 151:-1.0251473 152:-1.0444921 153:-1.0731276 154:-1.0583698 155:-1.0805177 156:-0.99698096 157:-0.92062739 158:-0.95189417 159:-0.9897831 160:-0.93328272 161:-0.94934052 162:-0.98766398 163:-1.0095169 164:-1.0101094 165:-0.99255034 166:-1.0028277 167:-1.0146959 168:-0.98663722 169:-1.0076305 170:-0.96642212 171:-0.88496469 172:-0.82472766 173:-0.8969697 174:-0.9448141 175:-0.99734467 176:-1.0143862 177:-1.0706137 178:-1.1441349 179:-1.145996 180:-1.2394452 181:-1.2168761 182:-1.1638787 183:-1.0188044 184:-0.8057073 185:-0.61482955 186:-0.37047619 187:-0.40955749 188:-0.54397469 189:-0.45808245 190:-0.12839996 191:-0.13827807 192:-0.086133852 193:-0.0118208 194:0.072983844 195:0.45808383 196:0.50226152 197:0.28956973 198:0.38764897 199:0.014508062 200:-0.24126206 201:-0.23982708 202:-0.27623887 203:-0.35891845 204:-0.67235957 205:-0.82768092 206:-0.91709477 207:-0.92954934 208:-1.1774025 209:-1.5829016 210:-1.4719848 211:-1.2327476 212:-1.4846713 213:-1.5386965 214:-1.1002985 215:-1.0135326 216:-1.1352357 217:-0.95462809 218:-0.76865165 219:-0.94312347 220:-1.2824793 221:-1.2956317 222:-1.038442 223:-1.106203 224:-1.4885718 225:-1.4733366 226:-1.2084998 227:-1.2483754 228:-1.1873231 229:-1.0849291 230:-0.76556401 231:-0.58932084 232:-0.58613898 233:-0.45870838 234:-0.41402078 235:-0.5045093 236:-0.41653701 237:-0.40866468 238:-0.42223828 239:-0.5111882 240:-0.59698515 241:-0.6687386 242:-0.79666106 243:-0.81863282 244:-0.80702199 245:-0.63788187 246:-0.45356702 247:-0.47904793 248:-0.33196324 249:-0.19418733 250:-0.11317849 251:-0.2512728 252:-0.26377296 253:-0.064366626 254:0.004557581 255:-0.11944476 256:-0.15251884 257:-0.11586471 258:-0.097310408 259:-0.039777272 260:-0.0068773438 261:0.048603639 262:0.061619463 263:0.00075595414 264:-0.013548297 265:0.00073076165 266:0.0064101441 267:-0.014071686 268:0.0012143737 269:-0.003991225 270:0.02827011 271:0.080310124 272:0.048067224 273:0.07023065 274:0.11595524 275:0.056900038 276:0.022487983 277:0.11736314 278:0.13695253 279:0.15366724 280:0.18057015 281:0.19873849 282:0.20314976 283:0.19146444 284:0.12312706 285:0.15482909 286:0.20365757 287:0.18225386 288:0.16937494 289:0.18780834 290:0.10349782 291:0.10031495 292:0.10120599 293:0.087692551 294:0.079600217 295:-0.026427429 296:-0.22237094 297:-0.240887 298:-0.20723502 299:-0.28794212 300:-0.39757241 301:0.10229137 302:0.12702678 303:0.14143139 304:0.13970889 305:0.16670938 306:0.16021031 307:0.16903079 308:0.19405993 309:0.19657667 310:0.17991594 311:0.15714703 312:0.16178835 313:0.16294219 314:0.21005792 315:0.18481161 316:0.14653318 317:0.15687014 318:0.17633907 319:0.17303697 320:0.1529356 321:0.099161201 322:0.034010329 323:0.10452707 324:0.19648621 325:0.22134173 326:0.23584355 327:0.38932436 328:0.47597838 329:0.52075476 330:0.54098035 331:0.47576885 332:0.37546097 333:0.36196993 334:0.1899107 335:-0.062803753 336:-0.049192621 337:-0.045409786 338:-0.44142781 339:-0.67352889 340:-0.56500798 341:-0.54532456 342:-0.39352712 343:-0.94056796 344:-1.2196595 345:-1.3423663 346:-1.1461812 347:-1.6350723 348:-1.6213945 349:-1.4618589 350:-1.2938718 351:-1.1325003 352:-0.9006313 353:-0.77444654 354:-0.6166263 355:-0.55517352 356:-0.54487768 357:-0.43338092 358:-0.38764479 359:-0.3237989 360:-0.2454591 361:-0.37850105 362:-0.46997102 363:-0.44401079 364:-0.40148388 365:-0.57842481 366:-0.72635522 367:-0.71440358 368:-0.58504164 369:-0.37829526 370:-0.36401678 371:-0.42962221 372:-0.21708354 373:-0.0047462829 374:-0.10678849 375:0.0086328135 376:0.34529754 377:0.24287571 378:0.0052194283 379:-0.055056162 380:0.048605434 381:-0.041678585 382:-0.076615383 383:-0.4381037 384:-0.49176362 385:-0.58130351 386:-0.52080859 387:-0.53803921 388:-0.55929163 389:-0.60269253 390:-0.66718189 391:-0.64538435 392:-0.66970278 393:-0.54206954 394:-0.73036568 395:-0.81951229 396:-0.74024472 397:-0.75240459 398:-0.85911864 399:-0.94729713 400:-0.92331711 401:-0.78692567 402:-0.76472899 403:-0.90432443 404:-0.8023176 405:-0.83318316 406:-0.90154581 407:-0.92651741 408:-0.98127903 409:-1.0277792 410:-1.038615 411:-1.0959536 412:-1.0847448 413:-1.1487021 414:-1.177104 415:-1.151977 416:-1.1918682 417:-1.2720749 418:-1.2697807 419:-1.2706013 420:-1.2780824 421:-1.2899133 422:-1.3402012 423:-1.3456638 424:-1.2883763 425:-1.2733336 426:-1.4281701 427:-1.4166253 428:-1.4956002 429:-1.5389418 430:-1.419765 431:-1.4672121 432:-1.4913839 433:-1.5045225 434:-1.5368299 435:-1.5581865 436:-1.4588372 437:-1.4528423 438:-1.4414562 439:-1.4606813 440:-1.466488 441:-1.3585419 442:-1.5274572 443:-1.5091526 444:-1.4872559 445:-1.3619574 446:-1.2725464 447:-1.2977129 448:-1.2264237 449:-1.2224772 450:-1.2619185 
1 1:-0.76155112 2:-0.78087524 3:-0.8001878 4:-0.80414511 5:-0.79658035 6:-0.79393263 7:-0.79489428 8:-0.82030037 9:-0.84216454 10:-0.86134039 11:-0.88026249 12:-0.8776476 13:-0.87840903 14:-0.88321886 15:-0.87829897 16:-0.86961111 17:-0.86179169 18:-0.86877304 19:-0.87338982 20:-0.87002828 21:-0.86624498 22:-0.86697938 23:-0.86744823 24:-0.87069963 25:-0.87590224 26:-0.86178201 27:-0.84235746 28:-0.84621293 29:-0.85963781 30:-0.8492711 31:-0.85074821 32:-0.86009701 33:-0.85989158 34:-0.85953028 35:-0.86081175 36:-0.86413749 37:-0.86189498 38:-0.84672395 39:-0.87953723 40:-0.89584023 41:-0.90680073 42:-0.90206305 43:-0.92076497 44:-0.91664268 45:-0.9326148 46:-0.94510046 47:-0.9117311 48:-0.9049586 49:-0.9064241 50:-0.90825558 51:-0.92764439 52:-0.91159238 53:-0.88763451 54:-0.85225706 55:-0.79340862 56:-0.69381885 57:-0.59854135 58:-0.48592934 59:-0.31704433 60:-0.14369174 61:0.010605025 62:0.14284548 63:0.34009632 64:0.56026472 65:0.69386942 66:0.8173008 67:1.0103943 68:1.2840384 69:1.4711192 70:1.5139006 71:1.5821373 72:1.7590067 73:2.0090467 74:2.1896921 75:2.2297408 76:2.2058066 77:2.2311921 78:2.2541218 79:2.1939797 80:2.1228971 81:2.1022686 82:2.057757 83:2.0011817 84:1.9502959 85:1.8842131 86:1.8954812 87:1.8976583 88:1.8926388 89:1.8762527 90:1.8964994 91:1.9360926 92:1.9306267 93:1.9272252 94:1.9212867 95:1.9226324 96:1.908059 97:1.9622585 98:1.8930339 99:1.8126572 100:1.8010545 101:1.8019598 102:1.8087245 103:1.7747595 104:1.7041207 105:1.6777308 106:1.61473 107:1.5803251 108:1.5554692 109:1.5190644 110:1.4937044 111:1.4660234 112:1.4351949 113:1.4167612 114:1.41798 115:1.4263709 116:1.3913488 117:1.346665 118:1.3149723 119:1.2765458 120:1.2353988 121:1.209078 122:1.1828663 123:1.1501164 124:1.1363291 125:1.14225 126:1.1340078 127:1.1328612 128:1.1377505 129:1.1434425 130:1.1390017 131:1.1283933 132:1.1234871 133:1.1132025 134:1.1049787 135:1.0973441 136:1.0942221 137:1.0937446 138:1.064248 139:1.051676 140:1.0397653 141:1.0157476 142:1.0073365 143:0.99081143 144:0.95908674 145:0.91369886 146:0.88988571 147:0.87218696 148:0.8664944 149:0.86865024 150:0.84417759 151:-0.7802232 152:-0.81282926 153:-0.79314428 154:-0.77378246 155:-0.79879976 156:-0.71309205 157:-0.67267112 158:-0.72046036 159:-0.78554993 160:-0.79397019 161:-0.82755053 162:-0.96924629 163:-1.2746032 164:-1.4272051 165:-1.47854 166:-1.4412929 167:-1.2450219 168:-1.0399918 169:-0.93055786 170:-0.8251527 171:-0.73087042 172:-0.70654847 173:-0.69680015 174:-0.71844252 175:-0.77959589 176:-0.82911452 177:-0.87213755 178:-0.86947973 179:-0.82955833 180:-0.87783618 181:-0.91744201 182:-0.95559976 183:-0.94139887 184:-0.96732853 185:-0.93439366 186:-1.0102171 187:-0.97227266 188:-0.8892152 189:-0.846665 190:-0.90345189 191:-0.93679199 192:-0.92676712 193:-1.0356931 194:-1.0788809 195:-1.136645 196:-1.0250259 197:-1.0685778 198:-1.0558144 199:-1.0249519 200:-0.93293487 201:-0.94911769 202:-1.0180001 203:-1.0430541 204:-0.97616737 205:-1.0118188 206:-1.2911029 207:-1.4338116 208:-1.2183318 209:-1.1124308 210:-1.1113184 211:-0.96005415 212:-0.68980189 213:-0.25590663 214:0.18223616 215:0.30204614 216:0.093378105 217:-0.056928491 218:0.37053322 219:0.53848025 220:-0.1106101 221:-0.86920804 222:-0.96543822 223:-0.47193797 224:-0.3458023 225:-0.70845038 226:-0.90194832 227:-0.53478688 228:0.14166286 229:-0.24109535 230:-1.3893173 231:-1.0186305 232:-0.081205955 233:-0.30373221 234:-0.93809391 235:-0.95360579 236:-0.37259661 237:-0.26343768 238:-0.71333273 239:-1.1352232 240:-0.97010088 241:-0.70424043 242:-1.0712361 243:-1.0546611 244:-1.1537398 245:-1.2974999 246:-0.95774307 247:-0.54256744 248:-0.68273288 249:-1.1529411 250:-1.0897878 251:-0.45161349 252:0.055001985 253:-0.35486337 254:-0.65365307 255:-0.51810492 256:-0.25497247 257:-0.19566711 258:-0.54414637 259:-0.67950807 260:-0.64475098 261:-0.71082822 262:-0.71320449 263:-0.54869671 264:-0.41186824 265:-0.41105343 266:-0.40433217 267:-0.28624771 268:-0.21300115 269:-0.2410458 270:-0.14707614 271:-0.033096103 272:-0.024834732 273:0.053081305 274:0.092716771 275:0.056900038 276:0.039795488 277:-0.029369579 278:-0.027256458 279:0.048472975 280:0.10499644 281:0.052299603 282:-0.010157488 283:-0.081440691 284:-0.062510661 285:-0.035608589 286:-0.091941954 287:-0.0849912 288:-0.093575465 289:-0.066467149 290:-0.073743659 291:-0.041136345 292:-0.038486787 293:-0.05338329 294:-0.065756701 295:-0.12881835 296:-0.094043385 297:-0.10290204 298:-0.10657801 299:-0.059793938 300:-0.050110197 301:-0.22658223 302:-0.18593896 303:-0.18255918 304:-0.16990734 305:-0.1476277 306:-0.21584004 307:-0.17648983 308:-0.07496962 309:-0.037672769 310:0.054838413 311:0.13417382 312:0.18046601 313:0.17787783 314:0.18162467 315:0.18909837 316:0.1117099 317:0.020724713 318:0.038036553 319:0.062188626 320:0.015653775 321:0.017849913 322:0.071633973 323:0.07155394 324:0.091835944 325:0.12409955 326:0.12956345 327:0.14238148 328:0.19867043 329:0.20473415 330:0.16750096 331:0.099793447 332:0.072095325 333:0.074470124 334:0.12049916 335:0.14386926 336:0.095660016 337:0.11162863 338:0.21348002 339:0.19502765 340:0.13885789 341:0.1976469 342:0.16488162 343:0.26879247 344:0.34028036 345:0.34572289 346:0.33088926 347:0.33833142 348:0.2255781 349:0.31990817 350:0.4078062 351:0.51166206 352:0.62929049 353:0.72101625 354:0.90940957 355:1.1559343 356:1.4064684 357:1.4523723 358:1.2975689 359:0.93452913 360:0.47298332 361:0.27829804 362:0.095658204 363:-0.14612617 364:-0.36800032 365:-0.72932406 366:-0.65315383 367:-0.81421268 368:-1.5851583 369:-1.9376635 370:-1.6891762 371:-1.2684063 372:-1.1628012 373:-1.2428933 374:-1.1892518 375:-1.1302345 376:-0.92002304 377:-0.81830923 378:-0.78895779 379:-0.97974318 380:-1.2953027 381:-0.93736396 382:-0.49007813 383:-0.63490738 384:-0.74920397 385:-0.60854994 386:-0.46426419 387:-0.4275172 388:-0.22417565 389:-0.28135367 390:-0.28743299 391:-0.076368191 392:0.059086103 393:0.10942823 394:0.14822127 395:0.0074185601 396:0.0038399868 397:-0.0026901616 398:0.50107635 399:-0.13579426 400:-0.078822286 401:0.026906281 402:0.071776125 403:0.056883642 404:-0.15321965 405:-0.18176001 406:-0.19324626 407:-0.26432003 408:-0.31443467 409:-0.3467738 410:-0.37706647 411:-0.53335186 412:-0.4957502 413:-0.50022104 414:-0.63170579 415:-0.68596209 416:-0.70603909 417:-0.75680578 418:-0.74336842 419:-0.75068927 420:-0.77289137 421:-0.80327082 422:-0.88335181 423:-0.90311511 424:-0.91818732 425:-0.95689307 426:-0.97858008 427:-1.0492567 428:-1.1056448 429:-1.1299177 430:-1.1645096 431:-1.1667288 432:-1.1846051 433:-1.1963629 434:-1.2626569 435:-1.2889961 436:-1.3170103 437:-1.3252871 438:-1.291104 439:-1.2864708 440:-1.3217818 441:-1.2619512 442:-1.3925803 443:-1.2889935 444:-1.2105023 445:-1.2369757 446:-1.2313494 447:-1.1599999 448:-1.1521715 449:-1.1261035 450:-1.2433236 
1 1:-0.94345073 2:-0.92994237 3:-0.90818306 4:-0.87542327 5:-0.81841821 6:-0.72106597 7:-0.62710471 8:-0.51568551 9:-0.34920965 10:-0.17736143 11:-0.024944013 12:0.10625725 13:0.30128877 14:0.51920379 15:0.65059378 16:0.77031186 17:0.95990013 18:1.2313222 19:1.4160662 20:1.4564052 21:1.5216197 22:1.6935305 23:1.938089 24:2.1143461 25:2.1507118 26:2.1234626 27:2.1451064 28:2.1653496 29:2.1042293 30:2.0328453 31:2.0102936 32:1.9631422 33:1.905494 34:1.8527421 35:1.7833826 36:1.7916421 37:1.7930623 38:1.7870694 39:1.7721388 40:1.7925006 41:1.8301746 42:1.8244836 43:1.8207753 44:1.8156053 45:1.8170653 46:1.8031797 47:1.8564575 48:1.7920112 49:1.7138052 50:1.7030077 51:1.7049354 52:1.7116885 53:1.6823767 54:1.6150351 55:1.5890159 56:1.5307459 57:1.4994913 58:1.4757566 59:1.4377895 60:1.4119461 61:1.3862932 62:1.3591697 63:1.3413651 64:1.3389707 65:1.3416295 66:1.309122 67:1.2746513 68:1.24913 69:1.2096061 70:1.1638142 71:1.1341802 72:1.1098563 73:1.082618 74:1.0732651 75:1.0802453 76:1.0709527 77:1.0682898 78:1.0735157 79:1.0803674 80:1.0776497 81:1.0692839 82:1.0672101 83:1.0597777 84:1.053469 85:1.0469806 86:1.0461185 87:1.0486129 88:1.0215081 89:1.0107621 90:1.0003398 91:0.97827086 92:0.97149389 93:0.95532632 94:0.92483737 95:0.88119069 96:0.85893096 97:0.84281663 98:0.83812071 99:0.8405832 100:0.81745783 101:0.79589624 102:0.74468169 103:0.73165884 104:0.71041684 105:0.69570002 106:0.69709658 107:0.66359407 108:0.61992605 109:0.59704817 110:0.58942934 111:0.55852797 112:0.54083715 113:0.54672995 114:0.53358409 115:0.52454497 116:0.50685916 117:0.49283275 118:0.47963868 119:0.46557667 120:0.45057795 121:0.43976667 122:0.42574236 123:0.41888433 124:0.39785206 125:0.38446763 126:0.38298675 127:0.36629177 128:0.35807982 129:0.34434995 130:0.3288408 131:0.32604914 132:0.31782453 133:0.31903805 134:0.31891014 135:0.30968731 136:0.26454955 137:0.24451711 138:0.21933394 139:0.20471322 140:0.17715276 141:0.13513738 142:0.12474394 143:0.084354797 144:0.045849963 145:0.017930552 146:-0.021870147 147:-0.063842249 148:-0.11376545 149:-0.14234739 150:-0.17171244 151:-0.96249226 152:-1.0387005 153:-1.0731276 154:-1.0168675 155:-1.0687795 156:-1.3503937 157:-1.4799706 158:-1.2604726 159:-1.1459614 160:-1.1331659 161:-0.97369852 162:-0.70525948 163:-0.26974131 164:0.17468428 165:0.29742225 166:0.08115584 167:-0.069147267 168:0.36501343 169:0.53382152 170:-0.11880565 171:-0.8792575 172:-0.97104475 173:-0.47375407 174:-0.34696095 175:-0.70897466 176:-0.90438115 177:-0.53756355 178:0.14125122 179:-0.24109535 180:-1.3910877 181:-1.0191366 182:-0.078635916 183:-0.30151303 184:-0.93794285 185:-0.94985643 186:-0.36500832 187:-0.25912869 188:-0.70837493 189:-1.121911 190:-0.95474209 191:-0.6901921 192:-1.0543115 193:-1.0356931 194:-1.1331573 195:-1.2745351 196:-0.93791828 197:-0.52990324 198:-0.66696304 199:-1.1324822 200:-1.0712694 201:-0.43842845 202:0.063016259 203:-0.34712301 204:-0.64314728 205:-0.51119396 206:-0.24841356 207:-0.18732055 208:-0.53422836 209:-0.67173658 210:-0.64245223 211:-0.70554025 212:-0.70203065 213:-0.53824316 214:-0.40785019 215:-0.41554226 216:-0.40896151 217:-0.27984718 218:-0.20201047 219:-0.23478703 220:-0.15162552 221:-0.039103339 222:-0.027619968 223:0.053759181 224:0.095063076 225:0.056435877 226:0.035058062 227:-0.036407579 228:-0.034070815 229:0.04203307 230:0.097197482 231:0.043345977 232:-0.020833528 233:-0.091931443 234:-0.071169192 235:-0.045088741 236:-0.1034617 237:-0.095868061 238:-0.10368208 239:-0.077076904 240:-0.086103628 241:-0.053373503 242:-0.048882226 243:-0.063342287 244:-0.07708978 245:-0.14165547 246:-0.1076788 247:-0.11525434 248:-0.11793431 249:-0.073589369 250:-0.060860129 251:-0.096724256 252:-0.11307935 253:-0.064366626 254:-0.042457465 255:-0.061667927 256:0.012545342 257:0.072240949 258:0.090831047 259:0.049904615 260:0.077370117 261:0.048603639 262:0.0062748944 263:-0.085674803 264:-0.10407556 265:-0.16040218 266:-0.1325174 267:-0.020120042 268:0.054768254 269:0.037493325 270:0.057494486 271:0.10299137 272:0.13218487 273:0.17312672 274:0.20309952 275:0.2510084 276:0.20133221 277:0.089145311 278:0.043900771 279:0.059546055 280:0.075929631 281:0.035402808 282:0.00078134525 283:0.04213899 284:0.044963809 285:0.057036767 286:0.028487483 287:-0.0014771198 288:-0.00044719457 289:0.0038643691 290:-0.079461126 291:-0.088286774 292:-0.067589449 293:0.034789111 294:-0.017304395 295:-0.038473419 296:-0.099876456 297:-0.19489201 298:-0.24868202 299:-0.20388753 300:-0.18909508 301:0.51439842 302:0.62941914 303:0.72828223 304:0.91777046 305:1.1517657 306:1.4001601 307:1.4492546 308:1.2972746 309:0.94136976 310:0.49677901 311:0.30751718 312:0.12858362 313:-0.10589936 314:-0.32579957 315:-0.68111281 316:-0.60869678 317:-0.77159702 318:-1.5359778 319:-1.8917851 320:-1.6513399 321:-1.2435738 322:-1.1389621 323:-1.2187946 324:-1.1705078 325:-1.1162785 326:-0.90720977 327:-0.80534524 328:-0.77861647 329:-0.97417961 330:-1.2926685 331:-0.93358924 332:-0.48847163 333:-0.63543326 334:-0.75050369 335:-0.61014657 336:-0.46790727 337:-0.43026449 338:-0.22762629 339:-0.28502288 340:-0.29239961 341:-0.080424289 342:0.056302144 343:0.10754441 344:0.14689938 345:0.0055537814 346:0.0059765101 347:-0.0056752909 348:0.50048582 349:-0.13970673 350:-0.082749308 351:0.025331861 352:0.06509322 353:0.051130864 354:-0.15861015 355:-0.18806313 356:-0.20260948 357:-0.26993536 358:-0.31776033 359:-0.35286918 360:-0.38658172 361:-0.53681744 362:-0.49771887 363:-0.49876899 364:-0.62470764 365:-0.68339821 366:-0.71082765 367:-0.75296618 368:-0.73650696 369:-0.74339417 370:-0.76464638 371:-0.79036576 372:-0.87061014 373:-0.89071909 374:-0.90220178 375:-0.93933865 376:-0.95922402 377:-1.0260781 378:-1.0783614 379:-1.0986956 380:-1.1332233 381:-1.1376278 382:-1.1564569 383:-1.1700365 384:-1.2305055 385:-1.2533821 386:-1.285289 387:-1.2917994 388:-1.2565128 389:-1.2498333 390:-1.288183 391:-1.231775 392:-1.3519732 393:-1.2517767 394:-1.1728814 395:-1.200028 396:-1.1935377 397:-1.1252021 398:-1.1177186 399:-1.0909797 400:-1.2021022 401:-1.1857033 402:-1.2386112 403:-1.1092728 404:-1.1843816 405:-1.1796407 406:-1.1982377 407:-1.1840386 408:-1.1569745 409:-1.210488 410:-1.2569902 411:-1.2756439 412:-1.2469317 413:-1.2691969 414:-1.3603936 415:-1.3445089 416:-1.3183169 417:-1.3810304 418:-1.3880004 419:-1.3829551 420:-1.3883861 421:-1.3899084 422:-1.3849903 423:-1.4257228 424:-1.4778778 425:-1.4304627 426:-1.4193976 427:-1.4662088 428:-1.4615925 429:-1.4684988 430:-1.4790207 431:-1.4649863 432:-1.4936069 433:-1.47326 434:-1.5232346 435:-1.5696904 436:-1.5663511 437:-1.4461289 438:-1.4756271 439:-1.4697312 440:-1.4280504 441:-1.3563466 442:-1.4015721 443:-1.3979382 444:-1.3303562 445:-1.2973117 446:-1.185816 447:-1.2205102 448:-1.0366681 449:-0.96206314 450:-0.95200466 
1 1:-0.26342604 2:-0.32113547 3:-0.34882299 4:-0.3641396 5:-0.38712056 6:-0.4403944 7:-0.48062174 8:-0.50255556 9:-0.52135263 10:-0.53893046 11:-0.54988757 12:-0.56577325 13:-0.58413563 14:-0.60662995 15:-0.62348351 16:-0.64159354 17:-0.6600952 18:-0.67517452 19:-0.67419565 20:-0.6782753 21:-0.70671637 22:-0.74198408 23:-0.75628781 24:-0.74679684 25:-0.75316747 26:-0.77170451 27:-0.78490623 28:-0.80262284 29:-0.81836551 30:-0.84019153 31:-0.86252743 32:-0.86009701 33:-0.84250763 34:-0.84875661 35:-0.84997489 36:-0.85869253 37:-0.87011042 38:-0.85636146 39:-0.85746292 40:-0.82932458 41:-0.84028184 42:-0.82863471 43:-0.79034757 44:-0.73477048 45:-0.7016194 46:-0.60997855 47:-0.47590659 48:-0.35993129 49:-0.2889089 50:-0.16018657 51:-0.030110555 52:0.14855769 53:0.28896386 54:0.42175791 55:0.49940102 56:0.62823905 57:0.76464737 58:0.91283805 59:1.0646427 60:1.1413435 61:1.1729372 62:1.2282414 63:1.2433296 64:1.3063615 65:1.4326801 66:1.5452999 67:1.6244032 68:1.6964748 69:1.7609735 70:1.8293631 71:1.8675499 72:1.8599573 73:1.8260642 74:1.7846509 75:1.7827862 76:1.781526 77:1.7647318 78:1.7447896 79:1.7324945 80:1.7444911 81:1.7748672 82:1.8047075 83:1.8137219 84:1.8274996 85:1.8689148 86:1.9038769 87:1.9384914 88:1.9719613 89:2.0096234 90:2.0517957 91:2.0486937 92:2.0289628 93:2.0057193 94:1.9855277 95:1.9541045 96:1.9368812 97:1.8784809 98:1.8164443 99:1.7248105 100:1.6292472 101:1.5286196 102:1.4483459 103:1.3578019 104:1.2842458 105:1.2536721 106:1.1614246 107:1.0221378 108:0.90634412 109:0.82755222 110:0.76975007 111:0.70287187 112:0.6382821 113:0.58403604 114:0.53757985 115:0.48591432 116:0.42319121 117:0.34766806 118:0.29050654 119:0.23106378 120:0.17196654 121:0.12707041 122:0.075898878 123:0.018727032 124:-0.033251799 125:-0.064202155 126:-0.09541233 127:-0.13065665 128:-0.17188373 129:-0.2142131 130:-0.23948099 131:-0.2743537 132:-0.31519603 133:-0.35198941 134:-0.40583391 135:-0.47235337 136:-0.53690284 137:-0.59195073 138:-0.64125301 139:-0.67504439 140:-0.70262615 141:-0.72545899 142:-0.74356716 143:-0.76920137 144:-0.77877855 145:-0.80199795 146:-0.80399247 147:-0.81381943 148:-0.83022008 149:-0.85464117 150:-0.84516762 151:-0.27898326 152:-0.43058558 153:-0.45359002 154:-0.35875918 155:-0.37622283 156:-0.24959995 157:-0.2517221 158:-0.25759274 159:-0.30500128 160:-0.30940486 161:-0.34648008 162:-0.36146271 163:-0.40536684 164:-0.46607148 165:-0.51856041 166:-0.55218285 167:-0.61465612 168:-0.6961509 169:-0.770484 170:-0.7780629 171:-0.7536992 172:-0.77407943 173:-0.83405927 174:-0.84033491 175:-0.83256181 176:-0.85227348 177:-0.85512532 178:-0.88046594 179:-0.96279523 180:-1.0878027 181:-1.1829779 182:-1.246094 183:-1.0807288 184:-0.86447866 185:-0.86223402 186:-0.82977739 187:-0.82184385 188:-0.83989513 189:-0.80348916 190:-0.86355951 191:-0.93679199 192:-0.91517218 193:-0.93623121 194:-1.2839249 195:-1.3884443 196:-1.5012144 197:-1.6244441 198:-1.7451418 199:-1.4013081 200:-1.2960631 201:-1.2271596 202:-0.77074635 203:-0.14660049 204:-0.12316855 205:0.50731861 206:0.49393591 207:0.68522321 208:0.63517926 209:0.49550751 210:0.39746901 211:0.19131828 212:-0.04167761 213:-0.39707489 214:-0.82934044 215:-1.1570503 216:-1.2320722 217:-1.2438199 218:-1.2113401 219:-1.2028468 220:-1.159433 221:-0.94880712 222:-0.63411321 223:-0.36908418 224:-0.4038109 225:-0.59665931 226:-0.66480473 227:-0.60841109 228:-0.74798889 229:-1.0349652 230:-1.1328206 231:-1.2276365 232:-1.3106081 233:-1.2490869 234:-1.2417625 235:-1.4388365 236:-1.5370171 237:-1.5425524 238:-1.5481697 239:-1.3902636 240:-0.98158136 241:-0.69832346 242:-0.61555837 243:-0.67701585 244:-0.69753216 245:-0.60762416 246:-0.48874209 247:-0.53679294 248:-0.59355416 249:-0.6042204 250:-0.66542781 251:-0.69774635 252:-0.76222105 253:-0.81728676 254:-0.79469821 255:-0.71454616 256:-0.66478699 257:-0.53197723 258:-0.52062868 259:-0.4941655 260:-0.48829141 261:-0.46173457 262:-0.41803346 263:-0.44991871 264:-0.47221974 265:-0.37524611 266:-0.34392889 267:-0.28624771 268:-0.32605934 269:-0.35957309 270:-0.31073265 271:-0.2825898 272:-0.3220504 273:-0.35278652 274:-0.35462386 275:-0.36072703 276:-0.35827713 277:-0.39055782 278:-0.45967347 279:-0.43320602 280:-0.38913936 281:-0.43207518 282:-0.54069091 283:-0.59120687 284:-0.60476821 285:-0.74074269 286:-0.98968866 287:-1.1762418 288:-1.2275491 289:-1.3216142 290:-1.3944786 291:-1.3908174 292:-1.2724397 293:-1.1525992 294:-0.99846359 295:-0.79134784 296:-0.70068274 297:-0.70083684 298:-0.72236207 299:-0.73223068 300:-0.74503462 301:-0.73410322 302:-0.73774697 303:-0.79589982 304:-0.85146515 305:-0.82034908 306:-0.74027783 307:-0.6777943 308:-0.63625429 309:-0.64231662 310:-0.60390323 311:-0.58217285 312:-0.59776983 313:-0.5945082 314:-0.57732452 315:-0.49678236 316:-0.43458037 317:-0.38994345 318:-0.34613711 319:-0.33338781 320:-0.33299849 321:-0.28981442 322:-0.23599465 323:-0.15266336 324:-0.1043833 325:-0.10279888 326:-0.06130693 327:0.07119074 328:0.27023377 329:0.43782737 330:0.49823271 331:0.47576885 332:0.40403889 333:0.39293145 334:0.42725338 335:0.51179265 336:0.3966819 337:0.38810471 338:0.49704836 339:0.50985148 340:0.66172969 341:0.63865043 342:0.78311987 343:0.9496176 344:1.0386006 345:0.97928786 346:0.84604698 347:0.67203852 348:0.75299365 349:0.65398949 350:0.2042562 351:0.039575842 352:-0.32407935 353:-0.8174667 354:-0.90211618 355:-1.1815427 356:-1.0207139 357:-1.1300676 358:-1.5676937 359:-1.8541417 360:-1.6780675 361:-1.4888552 362:-1.4582213 363:-1.2631935 364:-1.1403545 365:-1.0158139 366:-0.95261408 367:-0.90267984 368:-0.79664761 369:-0.71480208 370:-0.66999213 371:-0.57569015 372:-0.6096456 373:-0.60942272 374:-0.56475372 375:-0.51199225 376:-0.45832259 377:-0.3983034 378:-0.32680947 379:-0.36702581 380:-0.39486173 381:-0.35197745 382:-0.28334676 383:-0.19044063 384:-0.28133411 385:-0.358791 386:-0.31724873 387:-0.24626109 388:-0.45133481 389:-0.59376645 390:-0.446034 391:-0.40431262 392:-0.45040156 393:-0.60699544 394:-0.66806979 395:-0.61543681 396:-0.54780902 397:-0.54231977 398:-0.67993127 399:-0.71659557 400:-0.65470671 401:-0.71368079 402:-0.65140933 403:-0.75881105 404:-0.99745781 405:-0.98047947 406:-0.90781395 407:-0.9898758 408:-0.98127903 409:-1.096295 410:-1.070729 411:-1.138737 412:-1.0868789 413:-1.2516704 414:-1.270984 415:-1.2898123 416:-1.2717306 417:-1.3061235 418:-1.2876252 419:-1.2551801 420:-1.2449913 421:-1.2343605 422:-1.2506229 423:-1.196665 424:-1.1142993 425:-1.1227516 426:-1.1233261 427:-1.0244649 428:-0.93107175 429:-0.95267386 430:-0.89102169 431:-0.72156853 432:-0.72443699 433:-0.62023843 434:-0.46959462 435:-0.21453531 436:0.053220083 437:0.32174256 438:0.61563498 439:0.64568255 440:0.68375503 441:0.72035334 442:0.64405981 443:0.44050339 444:0.14057819 445:-0.11429536 446:-0.090845597 447:-0.085421233 448:-0.18689323 449:-0.074194778 450:-0.036725842 
1 1:-0.043747284 2:0.13303169 3:0.27145747 4:0.4007298 5:0.47547474 6:0.60132892 7:0.73651851 8:0.88396723 9:1.0318465 10:1.1057518 11:1.1346328 12:1.1880306 13:1.2010362 14:1.2619684 15:1.3852901 16:1.4930116 17:1.5688437 18:1.6403151 19:1.7033655 20:1.7687975 21:1.80396 22:1.7932742 23:1.7574534 24:1.7148229 25:1.710385 26:1.7060612 27:1.6867733 28:1.6653456 29:1.6515238 30:1.6618798 31:1.6896371 32:1.7156289 33:1.7222939 34:1.7328849 35:1.7684819 36:1.7998095 37:1.8327703 38:1.8641695 39:1.9018254 40:1.9435465 41:1.9396536 42:1.920079 43:1.8970833 44:1.8780805 45:1.8476792 46:1.8312234 47:1.7749161 48:1.7173692 49:1.6281951 50:1.5355296 51:1.4383274 52:1.3601578 53:1.2749864 54:1.2045039 55:1.174444 56:1.0869122 57:0.95235206 58:0.83935684 59:0.76064545 60:0.70341187 61:0.63889268 62:0.57752755 63:0.52440297 64:0.47678536 65:0.42331901 66:0.36311238 67:0.29405065 68:0.24066485 69:0.18158946 70:0.12124918 71:0.07572172 72:0.026235148 73:-0.028072806 74:-0.077769803 75:-0.10778077 76:-0.13869853 77:-0.17387187 78:-0.21418075 79:-0.25544152 80:-0.2798487 81:-0.31381987 82:-0.35365628 83:-0.38927303 84:-0.44216244 85:-0.5078798 86:-0.57144862 87:-0.62554133 88:-0.67400976 89:-0.70744953 90:-0.73498982 91:-0.75778104 92:-0.7757525 93:-0.80151296 94:-0.81109729 95:-0.83404087 96:-0.83581438 97:-0.84573499 98:-0.86274616 99:-0.88754841 100:-0.87770725 101:-0.87706008 102:-0.87773428 103:-0.87398113 104:-0.86971222 105:-0.86801659 106:-0.86398248 107:-0.86157471 108:-0.86302359 109:-0.84859859 110:-0.83577227 111:-0.84882504 112:-0.85008932 113:-0.85491303 114:-0.84229089 115:-0.82486362 116:-0.82651569 117:-0.8123297 118:-0.8061972 119:-0.80786764 120:-0.79728726 121:-0.7966265 122:-0.79609905 123:-0.78419445 124:-0.76391423 125:-0.75937947 126:-0.76123899 127:-0.76638057 128:-0.77489991 129:-0.77678497 130:-0.76883983 131:-0.76633165 132:-0.77009393 133:-0.76705794 134:-0.76959968 135:-0.76017804 136:-0.75702005 137:-0.76066204 138:-0.77661023 139:-0.79196517 140:-0.78845824 141:-0.79693709 142:-0.81640247 143:-0.81352338 144:-0.80879102 145:-0.80342889 146:-0.81551545 147:-0.82391528 148:-0.83022008 149:-0.85464117 150:-0.85658212 151:-1.2415918 152:-0.78966298 153:-0.16764959 154:-0.15124755 155:0.48066928 156:0.47460645 157:0.67667231 158:0.62066891 159:0.47589026 160:0.38715781 161:0.18330636 162:-0.05450131 163:-0.41153163 164:-0.84085315 165:-1.1665466 166:-1.2525093 167:-1.2632055 168:-1.2237689 169:-1.2151336 170:-1.17244 171:-0.95915823 172:-0.6390175 173:-0.37080973 174:-0.40500494 175:-0.59715772 176:-0.66700178 177:-0.61128325 178:-0.74863146 179:-1.0349652 180:-1.1344619 181:-1.2281755 182:-1.3063853 183:-1.2458607 184:-1.2415949 185:-1.4343568 186:-1.5241971 187:-1.5349878 188:-1.5413362 189:-1.375569 190:-0.96613991 191:-0.68432068 192:-0.60210876 193:-0.66124837 194:-0.68085434 195:-0.59107986 196:-0.47334415 197:-0.52417266 198:-0.57858773 199:-0.58885662 200:-0.65050181 201:-0.68242442 202:-0.74774601 203:-0.80714524 204:-0.78336627 205:-0.70684045 206:-0.65642243 207:-0.5216068 208:-0.5108402 209:-0.48712144 210:-0.48616348 211:-0.4570862 212:-0.40854041 213:-0.44003915 214:-0.46806308 215:-0.37966284 216:-0.34843867 217:-0.27984718 218:-0.31415821 219:-0.3528431 220:-0.3156872 221:-0.28927188 222:-0.32525091 223:-0.35194188 224:-0.35160316 225:-0.36130969 226:-0.36403725 227:-0.39886525 228:-0.46791334 229:-0.4409507 230:-0.39830743 231:-0.44245176 232:-0.55320857 233:-0.60335281 234:-0.61483385 235:-0.75228667 236:-1.0042398 237:-1.1906562 238:-1.2405982 239:-1.3359997 240:-1.4120995 241:-1.4083601 242:-1.2873909 243:-1.1667746 244:-1.0138361 245:-0.80732503 246:-0.71738007 247:-0.71580249 248:-0.73624011 249:-0.74893795 250:-0.75843822 251:-0.74353851 252:-0.76222105 253:-0.81728676 254:-0.84171325 255:-0.84743288 256:-0.88676986 257:-0.79988529 258:-0.80284087 259:-0.78114754 260:-0.77713985 261:-0.74728095 262:-0.75010087 263:-0.72155823 264:-0.74983667 265:-0.76315875 266:-0.74259055 267:-0.73987442 268:-0.73663909 269:-0.7388604 270:-0.68480466 271:-0.64548973 272:-0.65291312 273:-0.67862407 274:-0.75548755 275:-0.80776446 276:-0.77365726 277:-0.75174605 278:-0.72788148 279:-0.61591185 280:-0.56935359 281:-0.62357218 282:-0.63914041 283:-0.6324001 284:-0.63407943 285:-0.63265644 286:-0.61197816 287:-0.69186018 288:-0.61399815 289:-0.58583836 290:-0.63977291 291:-0.70124236 292:-0.69038643 293:-0.69410274 294:-0.64718437 295:-0.68293392 296:-0.79984494 297:-0.83882179 298:-0.86446608 299:-0.87032037 300:-0.79136292 301:0.043418938 302:-0.32389096 303:-0.80201285 304:-0.85548614 305:-1.104654 306:-0.96387534 307:-1.0752429 308:-1.4801168 309:-1.7474935 310:-1.6003542 311:-1.4175626 312:-1.3822316 313:-1.1940675 314:-1.0825616 315:-0.96189523 316:-0.90251824 317:-0.85864081 318:-0.75884938 319:-0.68332081 320:-0.64242737 321:-0.55572431 322:-0.59009953 323:-0.59010691 324:-0.54914691 325:-0.50041136 326:-0.44738566 327:-0.38709965 328:-0.31792745 329:-0.36230992 330:-0.39271812 331:-0.34873861 332:-0.28183126 333:-0.19091432 334:-0.28253558 335:-0.36032205 336:-0.32079131 337:-0.24889618 338:-0.45493107 339:-0.59761392 340:-0.45104874 341:-0.4084614 342:-0.45335663 343:-0.60911362 344:-0.66959809 345:-0.6173809 346:-0.54552014 347:-0.54537444 348:-0.6805992 349:-0.72080575 350:-0.65879582 351:-0.71535514 352:-0.65765584 353:-0.76420364 354:-1.0027565 355:-0.98658009 356:-0.91636389 357:-0.99522505 358:-0.9846577 359:-1.1024672 360:-1.0793655 361:-1.1422707 362:-1.0889615 363:-1.2500515 364:-1.2631276 365:-1.2869952 366:-1.2764748 367:-1.3019163 368:-1.2800002 369:-1.2470547 370:-1.2357164 371:-1.219717 372:-1.2364066 373:-1.1830901 374:-1.0972205 375:-1.1042033 376:-1.102961 377:-1.0015033 378:-0.90561659 379:-0.92363353 380:-0.86309101 381:-0.69748753 382:-0.70120805 383:-0.59952695 384:-0.44699138 385:-0.19304188 386:0.069514999 387:0.3350847 388:0.62598435 389:0.65588468 390:0.6932127 391:0.72937606 392:0.65496516 393:0.45420713 394:0.15896194 395:-0.092493393 396:-0.068857945 397:-0.064479812 398:-0.1647676 399:-0.052822646 400:-0.013704612 401:0.18153435 402:0.12534542 403:0.056883642 404:0.0070007336 405:0.065116911 406:0.038674836 407:0.083129212 408:0.088866402 409:0.043558586 410:0.025429048 411:0.063476599 412:0.048429607 413:0.045291733 414:0.025454349 415:0.0032148194 416:0.010503435 417:0.021772585 418:-0.038511309 419:-0.03250574 420:-0.11106909 421:-0.12774877 422:-0.068189202 423:-0.035808725 424:-0.10068672 425:-0.13196529 426:-0.12326242 427:-0.17478412 428:-0.16022966 429:-0.052820694 430:-0.0249767 431:-0.062731265 432:-0.11310254 433:-0.12227037 434:-0.10252007 435:-0.076488951 436:-0.1137696 437:-0.13029546 438:-0.054115626 439:-0.060209528 440:-0.037514701 441:-0.030419797 442:-0.064043557 443:-0.02251153 444:-0.04682975 445:-0.056114229 446:0.0045577674 447:0.068984246 448:0.019362812 449:0.02012842 450:-0.011932736 
-0.508941764164624 1:-0.93505537 2:-0.93830128 3:-0.93725871 4:-0.94670142 5:-0.95763454 6:-0.95585853 7:-0.95469388 8:-0.95816485 9:-0.95301418 10:-0.9409639 11:-0.91943738 12:-0.91549009 13:-0.93309701 14:-0.91568235 15:-0.90934248 16:-0.89666404 17:-0.89647835 18:-0.90339 19:-0.90786574 20:-0.918284 21:-0.91688898 22:-0.92127027 23:-0.93439711 24:-0.93391534 25:-0.91765737 26:-0.90618641 27:-0.88704175 28:-0.89749539 29:-0.90348963 30:-0.89337189 31:-0.89001228 32:-0.88392181 33:-0.88931058 34:-0.89993156 35:-0.9041592 36:-0.91586462 37:-0.91118763 38:-0.90867936 39:-0.91126905 40:-0.9013832 41:-0.91927302 42:-0.92838642 43:-0.92492722 44:-0.93469106 45:-0.93678941 46:-0.94510046 47:-0.93984881 48:-0.9443921 49:-0.94431707 50:-0.96129033 51:-0.96254073 52:-0.95327587 53:-0.94977879 54:-0.95078453 55:-0.95432797 56:-0.94474004 57:-0.93667605 58:-0.92812879 59:-0.92634351 60:-0.93458323 61:-0.93182645 62:-0.91898331 63:-0.91083604 64:-0.91105906 65:-0.90602001 66:-0.90212677 67:-0.89381035 68:-0.89062617 69:-0.88507446 70:-0.87643296 71:-0.86882773 72:-0.84781777 73:-0.82910095 74:-0.84299013 75:-0.84243041 76:-0.84282384 77:-0.84432731 78:-0.83060341 79:-0.84314483 80:-0.8487808 81:-0.84300737 82:-0.82863162 83:-0.82303042 84:-0.80917163 85:-0.82218968 86:-0.83451317 87:-0.83252256 88:-0.82698881 89:-0.83798254 90:-0.84326983 91:-0.8461515 92:-0.85128599 93:-0.85859953 94:-0.86534525 95:-0.87266577 96:-0.90354655 97:-0.9020682 98:-0.90609876 99:-0.89906929 100:-0.90061489 101:-0.89995768 102:-0.90052502 103:-0.9079031 104:-0.90330221 105:-0.90149491 106:-0.89705035 107:-0.89416959 108:-0.88577643 109:-0.90056193 110:-0.88786492 111:-0.87555539 112:-0.87144712 113:-0.86823663 114:-0.86892932 115:-0.86482636 116:-0.86104532 117:-0.86115782 118:-0.84165948 119:-0.81703853 120:-0.79597923 121:-0.79008474 122:-0.75563208 123:-0.71641537 124:-0.65320781 125:-0.60156248 126:-0.57512209 127:-0.54566146 128:-0.52386454 129:-0.51353875 130:-0.50012976 131:-0.45054415 132:-0.38918545 133:-0.3921127 134:-0.41698382 135:-0.37968787 136:-0.2547013 137:-0.12126035 138:-0.10409857 139:-0.10327324 140:0.026946605 141:0.2323476 142:0.33896543 143:0.34170842 144:0.40314135 145:0.49300256 146:0.7011969 147:0.85199527 148:0.96884507 149:1.1012946 150:1.1694907 151:0.76336796 152:0.76247805 153:0.78548516 154:0.79144817 155:0.656743 156:0.73532075 157:0.75740226 158:0.64440571 159:0.74019202 160:0.70818235 161:0.76180879 162:0.85410444 163:0.95705324 164:0.88193356 165:0.8974095 166:1.0250741 167:1.2643188 168:0.67328462 169:0.6286801 170:0.51102047 171:0.55895572 172:0.74536729 173:0.35551981 174:0.349567 175:0.67402436 176:1.0004436 177:1.1126235 178:0.89929943 179:0.84700602 180:0.87188475 181:0.87916241 182:1.039493 183:1.1175886 184:1.0113071 185:0.87475151 186:0.7613732 187:0.77715865 188:0.87534743 189:0.93973537 190:0.98288773 191:0.77179294 192:0.62695506 193:0.66100957 194:0.76651498 195:0.84177798 196:0.77519882 197:0.69071034 198:0.66455827 199:0.62384665 200:0.59450925 201:0.56592705 202:0.56327383 203:0.5552283 204:0.50197443 205:0.38072383 206:0.31826542 207:0.31127588 208:0.28435697 209:0.14414322 210:0.01876937 211:0.015582484 212:0.14786817 213:0.23511343 214:0.14610843 215:-0.014888739 216:-0.11239957 217:-0.17140025 218:-0.18430294 219:-0.16395338 220:-0.15748487 221:-0.1869302 222:-0.26909413 223:-0.30051499 224:-0.3458023 225:-0.30835603 226:-0.19051755 227:-0.35922144 228:-0.64913869 229:-0.74073373 230:-0.54987364 231:-0.73054111 232:-1.3106081 233:-1.8276646 234:-1.9176699 235:-1.7485582 236:-1.4820916 237:-1.3973254 238:-1.3833992 239:-1.3739844 240:-1.4293202 241:-1.5207826 242:-1.4977037 243:-1.5326184 244:-1.646444 245:-1.7332109 246:-1.6495195 247:-1.5877522 248:-1.5864106 249:-1.5629742 250:-1.4502032 251:-1.3846288 252:-1.4113628 253:-1.3864232 254:-1.4058938 255:-1.355869 256:-1.2567413 257:-1.2901 258:-1.3202299 259:-1.3013025 260:-1.3066953 261:-1.3244492 262:-1.3957875 263:-1.400657 264:-1.3895626 265:-1.3002686 266:-1.3526637 267:-1.3689035 268:-1.3197814 269:-1.3789078 270:-1.3686551 271:-1.4279927 272:-1.4940895 273:-1.7075848 274:-1.5978822 275:-1.2371557 276:-1.0678849 277:-0.92669661 278:-0.76072328 279:-0.62698493 280:-0.65074066 281:-0.66299804 282:-0.52428266 283:-0.4109865 284:-0.44355651 285:-0.58633376 286:-0.65577068 287:-0.35223626 288:-0.022359729 289:-0.23959089 290:-0.43966156 291:0.047270712 292:0.7996699 293:0.59909248 294:0.30369213 295:0.075963492 296:0.057616454 297:0.34554905 298:0.29012903 299:0.20437764 300:0.29735202 301:1.4319964 302:1.4180104 303:1.3986778 304:1.4083312 305:1.3299568 306:1.3412117 307:1.3254264 308:1.2682427 309:1.2396874 310:1.3639832 311:1.3601082 312:1.2077373 313:1.2767143 314:1.3145805 315:1.3208016 316:1.34576 317:1.3955703 318:1.2564159 319:1.2858674 320:1.2686228 321:1.2770761 322:1.2512459 323:1.1662619 324:1.1492396 325:1.1807979 326:1.0860844 327:1.1257036 328:1.2027936 329:1.1841739 330:1.0584518 331:0.9089101 332:1.0041753 333:1.0939887 334:1.0273273 335:0.92059642 336:0.84708307 337:0.83267825 338:0.84813297 339:0.82020973 340:0.78239241 341:0.68427149 342:0.69669947 343:0.70998507 344:0.66687935 345:0.66888354 346:0.59594967 347:0.57316234 348:0.55750371 349:0.55072799 350:0.48922621 351:0.4831741 352:0.47691604 353:0.44240948 354:0.42674681 355:0.42793567 356:0.41096887 357:0.33685631 358:0.28524267 359:0.27837128 360:0.29337272 361:0.32108625 362:0.32831324 363:0.31384272 364:0.30836768 365:0.24386676 366:0.19420778 367:0.17026804 368:0.21237875 369:0.22213849 370:0.19730491 371:0.14801009 372:0.077338002 373:0.057271813 374:0.081656528 375:0.11926564 376:0.090491155 377:0.021702429 378:0.045601321 379:0.21427015 380:0.28046897 381:0.25321537 382:0.12351818 383:-0.064397813 384:-0.11343823 385:-0.022751696 386:-0.016432497 387:-0.025217064 388:0.072705617 389:0.068994952 390:0.092315909 391:0.064799939 392:0.14990782 393:0.19226472 394:0.14607314 395:0.11583366 396:0.17275577 397:0.19709637 398:0.23229531 399:0.21632918 400:0.17554363 401:0.19170725 402:0.12946613 403:0.18600114 404:0.17132933 405:0.20411484 406:0.27059593 407:0.2854673 408:0.26456192 409:0.30101186 410:0.26521362 411:0.29450697 412:0.34292691 413:0.36295981 414:0.24674297 415:0.13886234 416:0.19463046 417:0.43035599 418:0.44998143 419:0.42131575 420:0.43162518 421:0.61443664 422:0.70442371 423:0.76255792 424:0.51849838 425:0.35688081 426:0.45572184 427:0.1001789 428:-0.40508538 429:-0.46411721 430:-0.26427861 431:-0.34095646 432:-0.63996169 433:-0.72742438 434:-0.43560624 435:-0.16391831 436:-0.63761395 437:-1.0947924 438:-0.66235852 439:-0.34301885 440:-0.79496097 441:-1.3080513 442:-1.1340664 443:-0.57858337 444:-0.56547034 445:-0.81677866 446:-1.1446191 447:-1.0014213 448:-1.220236 449:-1.5033963 450:-1.3590248 
-0.6686705303548277 1:-0.97843143 2:-0.9717369 3:-0.97048802 4:-0.97411609 5:-0.9794724 6:-0.97205112 7:-0.96534718 8:-0.95816485 9:-0.95823064 10:-0.96706997 11:-0.96514142 12:-0.95202767 13:-0.94481586 14:-0.94554876 15:-0.94038598 16:-0.93659932 17:-0.92859562 18:-0.92518586 19:-0.91935771 20:-0.91066467 21:-0.90296188 22:-0.88213032 23:-0.86365867 24:-0.8770212 25:-0.87590224 26:-0.87573768 27:-0.8768282 28:-0.86287973 29:-0.87511493 30:-0.88040107 31:-0.87430665 32:-0.86009701 33:-0.85454268 34:-0.84067635 35:-0.8526841 36:-0.86413749 37:-0.86189498 38:-0.85636146 39:-0.86712043 40:-0.8722826 41:-0.87492709 42:-0.879896 43:-0.88746691 44:-0.89442928 45:-0.90200095 46:-0.93248081 47:-0.93141349 48:-0.93594207 49:-0.92887919 50:-0.930586 51:-0.9304361 52:-0.93104468 53:-0.93873092 54:-0.93436328 55:-0.9325084 56:-0.92855157 57:-0.92602613 58:-0.91763147 59:-0.93156235 60:-0.91889612 61:-0.90695673 62:-0.90327191 63:-0.90037893 64:-0.90062414 65:-0.89561423 66:-0.89174532 67:-0.89251497 68:-0.87381841 69:-0.8490037 70:-0.82770298 71:-0.82147227 72:-0.78775858 73:-0.74976589 74:-0.68789522 75:-0.63693401 76:-0.61069462 77:-0.58186219 78:-0.56026551 79:-0.54995056 80:-0.53652969 81:-0.48754304 82:-0.42672941 83:-0.42895431 84:-0.45320031 85:-0.41609019 86:-0.29159272 87:-0.15807354 88:-0.13999954 89:-0.13849587 90:-0.0083739642 91:0.19719004 92:0.30451892 93:0.30739372 94:0.36950959 95:0.46060847 96:0.67014556 97:0.82259446 98:0.94072185 99:1.073881 100:1.1438916 101:1.248124 102:1.3671538 103:1.5231715 104:1.5963528 105:1.6316981 106:1.7662911 107:1.8573816 108:1.9088074 109:1.9347711 110:1.9652097 111:1.9498428 112:1.8983921 113:1.8631019 114:1.8308757 115:1.8033527 116:1.7857834 117:1.7768803 118:1.751027 119:1.7455716 120:1.7416083 121:1.7350357 122:1.7076315 123:1.6871353 124:1.6612078 125:1.6913488 126:1.7329896 127:1.7540467 128:1.771316 129:1.8142527 130:1.8295865 131:1.8155361 132:1.8181655 133:1.8492574 134:1.8798973 135:1.8597284 136:1.8279461 137:1.8692496 138:1.939083 139:1.9328594 140:1.8408647 141:1.7548312 142:1.7628243 143:1.808624 144:1.8051527 145:1.7851412 146:1.7353844 147:1.6250487 148:1.5584425 149:1.560839 150:1.5975342 151:0.55831526 152:0.5539815 153:0.54124438 154:0.48314517 155:0.35154855 156:0.29500326 157:0.29608827 158:0.26461689 159:0.12148564 160:0.0055626123 161:0.0067108768 162:0.13581476 163:0.22344243 164:0.13841509 165:-0.020570991 166:-0.12589719 167:-0.18431025 168:-0.19224605 169:-0.1716892 170:-0.16589546 171:-0.19439406 172:-0.27322477 173:-0.30218016 174:-0.34696095 175:-0.30878771 176:-0.19224303 177:-0.36177043 178:-0.64975561 179:-0.74073373 180:-0.55122161 181:-0.73100192 182:-1.3063853 183:-1.8238221 184:-1.9174654 185:-1.7436124 186:-1.4695183 187:-1.3901305 188:-1.3769359 189:-1.3593781 190:-1.410655 191:-1.5004489 192:-1.4775269 193:-1.5095997 194:-1.6216444 195:-1.706191 196:-1.6231651 197:-1.5671383 198:-1.5624995 199:-1.5387079 200:-1.4286337 201:-1.3633434 202:-1.3917557 203:-1.3733265 204:-1.3909819 205:-1.3455687 206:-1.2457686 207:-1.2751673 208:-1.3060374 209:-1.2910906 210:-1.3036738 211:-1.3175856 212:-1.3807268 213:-1.3852528 214:-1.3832991 215:-1.3065479 216:-1.3591702 217:-1.3582917 218:-1.2998778 219:-1.3681253 220:-1.3762288 221:-1.4377729 222:-1.4989276 223:-1.7061835 224:-1.5929872 225:-1.237987 226:-1.075468 227:-0.93688836 228:-0.7699556 229:-0.63525451 230:-0.66063356 231:-0.674053 232:-0.53674336 233:-0.42254727 234:-0.45320382 235:-0.59742581 236:-0.66919428 237:-0.36397945 238:-0.032281557 239:-0.25072142 240:-0.45347911 241:0.035381078 242:0.79236896 243:0.59163622 244:0.2939591 245:0.064096939 246:0.044746522 247:0.33515678 248:0.28039731 249:0.19172615 250:0.28792892 251:0.1207885 252:-0.19422206 253:-0.10586616 254:-0.11298003 255:-0.3505521 256:-0.44849599 257:-0.60607946 258:-0.56766405 259:-0.44035637 260:-0.62669795 261:-0.73513004 262:-0.71320449 263:-0.6659956 264:-1.0093481 265:-0.9660669 266:-0.73050989 267:-0.85479319 268:-0.95680505 269:-0.89887224 270:-0.92444454 271:-0.91766467 272:-0.85479546 273:-0.83296818 274:-0.94139534 275:-1.0606935 276:-1.004424 277:-1.09036 278:-1.1219831 279:-0.97025043 280:-0.90071524 281:-0.91644996 282:-0.94542775 283:-0.79717301 284:-0.56080138 285:-0.68412608 286:-0.91852581 287:-0.74196863 288:-0.52086988 289:-0.53173719 290:-0.73125239 291:-0.88395028 292:-0.69038643 293:-0.5236361 294:-0.53816668 295:-0.52633604 296:-0.56068904 297:-0.56285189 298:-0.59210006 299:-0.63616829 300:-0.6002587 301:0.48597724 302:0.47705424 303:0.45115822 304:0.44530413 305:0.44901211 306:0.43056002 307:0.35876754 308:0.31599418 309:0.30869606 310:0.32167047 311:0.34928666 312:0.35479084 313:0.34216989 314:0.33691398 315:0.27269008 316:0.22270911 317:0.1970442 318:0.23561158 319:0.24258887 320:0.21612883 321:0.16289167 322:0.091552373 323:0.07155394 324:0.094016158 325:0.12842142 326:0.099197711 327:0.031145949 328:0.053307388 329:0.21818184 330:0.28224463 331:0.25590019 332:0.12485457 333:-0.064856708 334:-0.11460444 335:-0.024194509 336:-0.019769429 337:-0.027715317 338:0.069445308 339:0.065525644 340:0.087464512 341:0.060783738 342:0.14715436 343:0.190408 344:0.14475071 345:0.11398268 346:0.17484564 347:0.19413699 348:0.23168716 349:0.2125972 350:0.1716882 351:0.19015507 352:0.12274842 353:0.18019135 354:0.16590353 355:0.1977139 356:0.26070478 357:0.27965036 358:0.26128229 359:0.29498287 360:0.25488473 361:0.2911345 362:0.34111994 363:0.36422026 364:0.25256174 365:0.14108031 366:0.18977134 367:0.43340113 368:0.45516876 369:0.42668186 370:0.43724242 371:0.62162432 372:0.71079041 373:0.76826499 374:0.52647443 375:0.36656254 376:0.46507831 377:0.11329944 378:-0.38513887 379:-0.44109055 380:-0.24403787 381:-0.32116763 382:-0.61763579 383:-0.70566826 384:-0.41341221 385:-0.14309009 386:-0.61354142 387:-1.064124 388:-0.63576105 389:-0.31928951 390:-0.76770366 391:-1.2773832 392:-1.0972294 393:-0.55102484 394:-0.53703359 395:-0.78549971 396:-1.1080107 397:-0.96866836 398:-1.1849138 399:-1.4633401 400:-1.3160581 401:-1.20198 402:-0.86980722 403:-1.1174708 404:-0.93172637 405:-0.91824159 406:-0.6006752 407:-0.61790073 408:-0.72372537 409:-0.56477859 410:-0.54191836 411:-0.47559427 412:-0.39331635 413:-0.34248241 414:-0.23159809 415:-0.10180261 416:-0.31781946 417:-0.28239506 418:-0.2080339 419:-0.25501045 420:-0.28314288 421:-0.30996195 422:-0.27197985 423:-0.069166663 424:-0.12933229 425:-0.1952534 426:-0.094751831 427:-0.07561713 428:-0.0378018 429:-0.19143444 430:-0.079674279 431:0.07081683 432:-0.064195788 433:-0.20265983 434:0.12860095 435:0.20650608 436:-0.14808255 437:-0.29813136 438:-0.32976128 439:-0.053422104 440:-0.051080903 441:-0.37068248 442:-0.32705338 443:-0.3130307 444:-0.48919966 445:-0.47200158 446:-0.47679557 447:-0.36710691 448:-0.34158526 449:-0.48634614 450:-0.43134944 
-1 1:1.1539917 2:1.2684496 3:1.4220224 4:1.4904631 5:1.5209621 6:1.6524979 7:1.743256 8:1.7938728 9:1.8117064 10:1.8367217 11:1.8201934 12:1.771327 13:1.734895 14:1.6969791 15:1.6608013 16:1.6411586 17:1.6407864 18:1.6223656 19:1.6139835 20:1.6011724 21:1.5874569 22:1.5596971 23:1.5439748 24:1.5226471 25:1.5509564 26:1.5868036 27:1.6025115 28:1.6179093 29:1.6592623 30:1.6748506 31:1.6621522 32:1.6653321 33:1.6968866 34:1.7261514 35:1.7034607 36:1.6732142 37:1.7163849 38:1.7856926 39:1.783176 40:1.6968843 41:1.615374 42:1.6249802 43:1.6695466 44:1.6684415 45:1.6514722 46:1.6054718 47:1.5007684 48:1.4399263 49:1.4429405 50:1.4810992 51:1.4718279 52:1.4087885 53:1.3730363 54:1.376927 55:1.3790025 56:1.3351353 57:1.2771744 58:1.2225089 59:1.16641 60:1.1204274 61:1.1258156 62:1.1077873 63:1.09693 64:1.0637496 65:1.0411625 66:1.0301205 67:1.0427787 68:1.0435582 69:1.0253876 70:0.99582402 71:0.98315472 72:0.98207079 73:0.97385217 74:0.96046883 75:0.92869172 76:0.9097518 77:0.90197523 78:0.89982037 79:0.88578103 80:0.88712363 81:0.904915 82:0.91835747 83:0.92841898 84:0.92515374 85:0.9162499 86:0.91178767 87:0.91625757 88:0.91527264 89:0.91002471 90:0.89775875 91:0.87137111 92:0.86318172 93:0.85257049 94:0.82490692 95:0.8125242 96:0.78975768 97:0.7749279 98:0.74563517 99:0.73401509 100:0.70864656 101:0.68140821 102:0.63927451 103:0.63978684 104:0.61804437 105:0.60223971 106:0.56620293 107:0.52642395 108:0.48340903 109:0.46114405 110:0.40510149 111:0.39814586 112:0.39934175 113:0.4108292 114:0.38973656 115:0.36336191 116:0.35147583 117:0.31335641 118:0.2799992 119:0.25202583 120:0.23606024 121:0.21865508 122:0.19207824 123:0.16471276 124:0.14648335 125:0.12622165 126:0.11036481 127:0.088740791 128:0.071182256 129:0.053041945 130:0.046695229 131:0.044144421 132:0.021866865 133:-0.00056471909 134:-0.016980856 135:-0.035702293 136:-0.051516181 137:-0.065968408 138:-0.091275255 139:-0.1317905 140:-0.16474506 141:-0.18365496 142:-0.20230086 143:-0.23018851 144:-0.26856645 145:-0.26539553 146:-0.28545833 147:-0.31912294 148:-0.33576548 149:-0.35488666 150:-0.38002696 151:0.11973032 152:-0.19892273 153:-0.11999286 154:-0.13346084 155:-0.38796108 156:-0.481346 157:-0.62653972 158:-0.58990795 159:-0.46117959 160:-0.64254352 161:-0.74229754 162:-0.71753794 163:-0.6704531 164:-1.0161543 165:-0.98055059 166:-0.75314608 167:-0.8631657 168:-0.95106746 169:-0.90091455 170:-0.94287721 171:-0.93632945 172:-0.86412072 173:-0.83405927 174:-0.9390097 175:-1.0620808 176:-1.0143862 177:-1.1046381 178:-1.1331487 179:-0.97944984 180:-0.9128306 181:-0.9287414 182:-0.95559976 183:-0.80722925 184:-0.57062188 185:-0.69214345 186:-0.9227312 187:-0.74941517 188:-0.52753466 189:-0.53364017 190:-0.73248455 191:-0.88394916 192:-0.68907082 193:-0.5208316 194:-0.53611741 195:-0.52513243 196:-0.5604518 197:-0.56428672 198:-0.59037111 199:-0.63664788 200:-0.59862635 201:-0.5632636 202:-0.64424444 203:-0.56533868 204:-0.51461321 205:-0.59750859 206:-0.42975084 207:-0.40828943 208:-0.27111164 209:-0.10002519 210:-0.24571927 211:-0.25105113 212:-0.16396521 213:-0.10860061 214:-0.088721854 215:-0.098607386 216:-0.11239957 217:-0.062953321 218:-0.019032591 219:-0.022286095 220:-0.13404748 221:-0.078902879 222:-0.10623946 223:-0.066236908 224:-0.049958429 225:-0.05535519 226:-0.12110967 227:-0.17232921 228:-0.16587107 229:-0.13561613 230:-0.11849289 231:-0.080927861 232:-0.10864797 233:-0.15392191 234:-0.11525011 235:-0.065736855 236:-0.048536202 237:-0.023254559 238:0.00067253243 239:-0.011960209 240:-0.017220726 241:-0.11254322 242:-0.11898649 243:0.0015654938 244:-0.010179327 245:-0.075088515 246:-0.031466137 247:0.034882703 248:0.096094622 249:0.19172615 250:0.26467631 251:0.25244096 252:0.21728741 253:0.27355816 254:0.2748941 255:0.17521709 256:0.25729568 257:0.35724952 258:0.41419917 259:0.32492907 260:0.28197109 261:0.18226365 262:0.27069894 263:0.2785691 264:0.25199833 265:0.28122144 266:0.41111213 267:0.33673297 268:0.26898378 269:0.25676881 270:0.34389337 271:0.42619911 272:0.39014563 273:0.36748596 274:0.36576885 275:0.29806497 276:0.27633139 277:0.2076602 278:0.19168886 279:0.22564226 280:0.29102404 281:0.2775902 282:0.20861918 283:0.11937629 284:0.040078605 285:0.093065516 286:0.15986505 287:0.076469355 288:0.010509072 289:-0.061057032 290:-0.188093 291:-0.29456991 292:-0.30041075 293:-0.30614417 294:-0.33830092 295:-0.38780715 296:-0.51402448 297:-0.47661129 298:-0.37894404 299:-0.37199671 300:-0.43231863 301:-1.1969624 302:-0.87569897 303:-1.1056267 304:-0.88966456 305:-0.85638773 306:-0.56343253 307:-0.57993008 308:-0.66528625 309:-0.51017591 310:-0.50175659 311:-0.43180271 312:-0.34873436 313:-0.29579537 314:-0.18582047 315:-0.063820152 316:-0.28440496 317:-0.24487046 318:-0.17271014 319:-0.22253947 320:-0.25237265 321:-0.28102401 322:-0.24484727 323:-0.044951127 324:-0.1043833 325:-0.17194888 326:-0.072151838 327:-0.051168344 328:-0.013783246 329:-0.16731848 330:-0.059736499 331:0.088800014 332:-0.04661297 333:-0.18649124 334:0.14288998 335:0.22108775 336:-0.13293555 337:-0.2798615 338:-0.31089635 339:-0.037182841 340:-0.037667199 341:-0.35415062 342:-0.30489081 343:-0.29109662 344:-0.46332504 345:-0.44729634 346:-0.44719128 347:-0.34556216 348:-0.31812828 349:-0.46366437 350:-0.40639382 351:-0.43658009 352:-0.50734051 353:-0.53066562 354:-0.70494331 355:-0.70035842 356:-0.71392477 357:-0.78070275 358:-0.71110998 359:-0.68510101 360:-0.79070558 361:-0.79996496 362:-0.8669787 363:-0.8119859 364:-0.87025378 365:-0.86928859 366:-0.91046782 367:-1.0433199 368:-0.99934385 369:-0.91054789 370:-1.081628 371:-1.0647964 372:-1.1315747 373:-1.1941648 374:-1.1782956 375:-1.134573 376:-1.1617624 377:-1.2204425 378:-1.1793161 379:-1.1346058 380:-1.2075097 381:-1.2542649 382:-1.2312321 383:-1.229741 384:-1.2528916 385:-1.2352178 386:-1.2965978 387:-1.3205351 388:-1.3104912 389:-1.3167789 390:-1.252442 391:-1.2057132 392:-1.267797 393:-1.2965532 394:-1.263103 395:-1.2850595 396:-1.3517626 397:-1.2837956 398:-1.2969059 399:-1.2690651 400:-1.2285562 401:-1.2182566 402:-1.2283094 403:-1.2404398 404:-1.2583295 405:-1.2667737 406:-1.3340473 407:-1.2984925 408:-1.2488154 409:-1.2395553 410:-1.1756347 411:-1.2071904 412:-1.2938806 413:-1.3349213 414:-1.1592221 415:-1.3291939 416:-1.207397 417:-1.2266767 418:-1.2920863 419:-1.3212707 420:-1.326616 421:-1.3454661 422:-1.3894693 423:-1.4123796 424:-1.2839693 425:-1.332257 426:-1.3623765 427:-1.4211329 428:-1.3006225 429:-1.2071778 430:-1.2647885 431:-1.2913737 432:-1.2379579 433:-1.2320916 434:-1.2853159 435:-1.2981992 436:-1.2643971 437:-1.2290611 438:-1.2387085 439:-1.2095466 440:-1.1047226 441:-1.0358411 442:-1.0778677 443:-1.0665648 444:-1.0034819 445:-0.94391521 446:-0.89526942 447:-0.81989054 448:-0.80566135 449:-0.70780061 450:-0.72060234 
-0.02106303461131631 1:1.4618218 2:1.3966195 3:1.3583328 4:1.3575019 5:1.3558133 6:1.3084054 7:1.2492089 8:1.1938341 9:1.1335674 10:1.0848669 11:1.0876229 12:1.0679786 13:1.0552016 14:1.02044 15:0.99595281 16:0.98158238 17:0.99201741 18:0.99284983 19:0.97426379 20:0.94337075 21:0.92908488 22:0.92588255 23:0.91617114 24:0.90186885 25:0.86895596 26:0.84842185 27:0.83904848 28:0.83585178 29:0.82091871 30:0.8213706 31:0.83760677 32:0.84867083 33:0.85710797 34:0.85213712 35:0.84057557 36:0.83469026 37:0.83870172 38:0.83708644 39:0.83260117 40:0.82109496 41:0.79497432 42:0.78678876 43:0.77604865 44:0.74936219 45:0.73723143 46:0.7150851 47:0.70081958 48:0.67378976 49:0.66262589 50:0.63812588 51:0.61198208 52:0.57095037 53:0.57344656 54:0.55312787 55:0.53758527 56:0.50412749 57:0.46644984 58:0.42471285 59:0.40185042 60:0.34653026 61:0.34045604 62:0.34316584 63:0.35447485 64:0.33200083 65:0.30365248 66:0.2930376 67:0.26037084 68:0.23032162 69:0.20220133 70:0.1840852 71:0.16531313 72:0.13996426 73:0.11524213 74:0.099115298 75:0.079734702 76:0.063769741 77:0.041817285 78:0.024813624 79:0.0075129858 80:0.0019711458 81:0.00021817667 82:-0.020767571 83:-0.041719793 84:-0.057216715 85:-0.075356034 86:-0.090096467 87:-0.10316015 88:-0.12725128 89:-0.16687261 90:-0.19928872 91:-0.21758098 92:-0.23561679 93:-0.26347201 94:-0.301452 95:-0.29758396 96:-0.31701479 97:-0.3502917 98:-0.36708147 99:-0.38639024 100:-0.41096416 101:-0.42626346 102:-0.45895439 103:-0.47257114 104:-0.50162193 105:-0.51091449 106:-0.51263635 107:-0.52747719 108:-0.54448387 109:-0.56080163 110:-0.56729474 111:-0.57483894 112:-0.58311687 113:-0.61242347 114:-0.60254501 115:-0.60906481 116:-0.62597824 117:-0.62889434 118:-0.6275724 119:-0.6323105 120:-0.61677846 121:-0.62915738 122:-0.63814733 123:-0.64211906 124:-0.64799809 125:-0.6432992 126:-0.64065621 127:-0.65403851 128:-0.65801572 129:-0.65919275 130:-0.64926385 131:-0.64977489 132:-0.66047998 133:-0.67712643 134:-0.71106266 135:-0.73069356 136:-0.74008796 137:-0.75215558 138:-0.76378692 139:-0.77770654 140:-0.79418038 141:-0.80265534 142:-0.81211804 143:-0.82639107 144:-0.82879934 145:-0.81773828 146:-0.82271732 147:-0.85131829 148:-0.86049281 149:-0.85176902 150:-0.84802125 151:-0.5751705 152:-0.66224842 153:-0.59060314 154:-0.54848411 155:-0.64620254 156:-0.4697587 157:-0.4362477 158:-0.29913214 159:-0.12479554 160:-0.26094832 161:-0.26122709 162:-0.17728587 163:-0.12178619 164:-0.097334674 165:-0.10456921 166:-0.12589719 167:-0.075208476 168:-0.026253866 169:-0.029401321 170:-0.14235055 171:-0.08595735 172:-0.11002494 173:-0.067695826 174:-0.050936568 175:-0.055728315 176:-0.12276614 177:-0.17463582 178:-0.16636255 179:-0.13561613 180:-0.11962378 181:-0.081286492 182:-0.10604104 183:-0.15186231 184:-0.11514388 185:-0.063323762 186:-0.042403901 187:-0.019556882 188:0.0040261284 189:-0.0047361253 190:-0.0087228233 191:-0.10304952 192:-0.10932374 193:0.011581996 194:0.00061537811 195:-0.063500403 196:-0.020384375 197:0.043154778 198:0.10484798 199:0.1996992 200:0.2717286 201:0.25951351 202:0.22401869 203:0.27803542 204:0.27996104 205:0.17932304 206:0.26159752 207:0.3622687 208:0.41883885 209:0.32875836 210:0.28325801 211:0.18525842 212:0.27627015 213:0.28421544 214:0.25449163 215:0.27812653 216:0.4080969 217:0.34071026 218:0.27609302 219:0.26104848 220:0.34055953 221:0.4214342 222:0.38794022 223:0.36803465 224:0.3677035 225:0.29766923 226:0.27220165 227:0.20145527 228:0.18559628 229:0.21968227 230:0.28374051 231:0.26929841 232:0.19870257 233:0.10953758 234:0.031686284 235:0.083961977 236:0.14919558 237:0.066115904 238:0.00067253243 239:-0.071650513 240:-0.20090847 241:-0.3078033 242:-0.31177322 243:-0.3170727 244:-0.35081436 245:-0.40187175 246:-0.52977968 247:-0.49059693 248:-0.39141572 249:-0.38714407 250:-0.44452808 251:-0.44016545 252:-0.32752795 253:-0.28964982 254:-0.47146976 255:-0.52966029 256:-0.51679841 257:-0.43507431 258:-0.5265081 259:-0.58384739 260:-0.58457422 261:-0.54679094 262:-0.51642381 263:-0.56104397 264:-0.66534456 265:-0.71541566 266:-0.65198562 267:-0.55237538 268:-0.67118435 269:-0.81590314 270:-0.80754704 271:-0.82126938 272:-0.87161899 273:-0.91299845 274:-0.93558572 275:-0.91364175 276:-0.8775023 277:-0.94927087 278:-0.9796686 279:-0.88166578 280:-0.91815533 281:-0.99530167 282:-1.1149797 283:-1.1112714 284:-1.0932885 285:-1.121618 286:-1.0827478 287:-0.94240242 288:-0.69069202 289:-0.54255743 290:-0.51398863 291:-0.48906543 292:-0.38189821 293:-0.27087521 294:-0.18688747 295:-0.080634387 296:-0.076544173 297:-0.039658941 298:0.029605003 299:0.18636594 300:0.29735202 301:-0.43162071 302:-0.50714064 303:-0.51673813 304:-0.66247862 305:-0.64015585 306:-0.66506776 307:-0.73371671 308:-0.64980254 309:-0.62029317 310:-0.73523464 311:-0.74507385 312:-0.80737469 313:-0.75453293 314:-0.8179136 315:-0.81828895 316:-0.86116559 317:-0.99701813 318:-0.95861969 319:-0.87676204 320:-1.0499147 321:-1.0413944 322:-1.1079779 323:-1.170434 324:-1.1596068 325:-1.1206004 326:-1.1479667 327:-1.2057932 328:-1.1677421 329:-1.128828 330:-1.2049233 331:-1.2502001 332:-1.2292993 333:-1.2303367 334:-1.2542971 335:-1.236979 336:-1.3008099 337:-1.3238352 338:-1.3146383 339:-1.3210389 340:-1.2577014 341:-1.2100885 342:-1.2710266 343:-1.298897 344:-1.2647818 345:-1.2870888 346:-1.3492517 347:-1.2869458 348:-1.2976143 349:-1.2735585 350:-1.2328068 351:-1.219999 352:-1.2342078 353:-1.2456197 354:-1.2635998 355:-1.2728018 356:-1.3421121 357:-1.3037286 358:-1.2522153 359:-1.2457422 360:-1.1841383 361:-1.2107318 362:-1.2960031 363:-1.333284 364:-1.1515157 365:-1.3263602 366:-1.2121463 367:-1.2225227 368:-1.2844551 369:-1.3130364 370:-1.317163 371:-1.3303745 372:-1.3746955 373:-1.3979385 374:-1.2659445 375:-1.3124533 376:-1.3403447 377:-1.3947002 378:-1.2712971 379:-1.1750048 380:-1.2322718 381:-1.260867 382:-1.2092394 383:-1.205417 384:-1.2528916 385:-1.2624642 386:-1.2332681 387:-1.1967504 388:-1.2047835 389:-1.1739616 390:-1.0737366 391:-1.0080779 392:-1.0418503 393:-1.032372 394:-0.9688086 395:-0.91092109 396:-0.86212067 397:-0.78947838 398:-0.77563362 399:-0.67814531 400:-0.68726555 401:-0.75233781 402:-0.70909934 403:-0.69732653 404:-0.75096492 405:-0.58630623 406:-0.560977 407:-0.6362951 408:-0.66981879 409:-0.61253202 410:-0.62327384 411:-0.53976937 412:-0.49148212 413:-0.51117511 414:-0.43724004 415:-0.43435782 416:-0.46201532 417:-0.35049229 418:-0.3887093 419:-0.42243974 420:-0.39565267 421:-0.41884544 422:-0.41530515 423:-0.34937334 424:-0.40917751 425:-0.45277053 426:-0.52679691 427:-0.47679268 428:-0.41415411 429:-0.39594652 430:-0.33265058 431:-0.22076318 432:-0.23759247 433:-0.26071889 434:-0.2407395 435:-0.15011367 436:-0.042856172 437:0.035302626 438:0.11901718 439:0.15925051 440:0.19537176 441:0.14959014 442:0.10455248 443:0.066006029 444:0.0098284659 445:-0.019481664 446:0.0132308 447:0.098196094 448:0.05855146 449:0.038582958 450:0.047983936 
-1 1:0.94970442 2:0.99678518 3:1.0177324 4:1.0696478 5:1.1647321 6:1.243635 7:1.3251137 8:1.3829054 9:1.404823 10:1.4151087 11:1.4623961 12:1.5220885 13:1.5591123 14:1.5801106 15:1.5857795 16:1.5986469 17:1.6099538 18:1.5980055 19:1.5935534 20:1.6087917 21:1.5950535 22:1.5836861 23:1.5793441 24:1.5934487 25:1.586385 26:1.602028 27:1.6191085 28:1.632012 29:1.645075 30:1.6463148 31:1.6490642 32:1.6785681 33:1.699561 34:1.7301915 35:1.757645 36:1.7644173 37:1.7547236 38:1.7498962 39:1.7624813 40:1.8091295 41:1.8177023 42:1.7967748 43:1.8041262 44:1.8544787 45:1.8629861 46:1.8115928 47:1.7791338 48:1.7779278 49:1.7699429 50:1.7211512 51:1.632351 52:1.5505124 53:1.5028488 54:1.4781914 55:1.4635534 56:1.4538507 57:1.414292 58:1.3812808 59:1.3686399 60:1.3413541 61:1.293359 62:1.2413342 63:1.2211082 64:1.2033167 65:1.1699341 66:1.1183628 67:1.0751632 68:1.0849312 69:1.0627466 70:1.0009535 71:0.98059497 72:0.95268013 73:0.93930303 74:0.91688845 75:0.92483867 76:0.92522709 77:0.91886655 78:0.89198448 79:0.86868898 80:0.8434614 81:0.84344373 82:0.8358119 83:0.82169003 84:0.81201557 85:0.81611578 86:0.80684171 87:0.79375848 88:0.76087712 89:0.7255759 90:0.71824189 91:0.68322756 92:0.63515609 93:0.58997226 94:0.54510167 95:0.51496944 96:0.49000681 97:0.45715086 98:0.42338087 99:0.39270909 100:0.37075892 101:0.37085944 102:0.35581465 103:0.33166227 104:0.30593739 105:0.26745649 106:0.2148568 107:0.15973154 108:0.10999481 109:0.077414772 110:0.067167086 111:0.041295666 112:0.021575733 113:0.0031269679 114:-0.012503753 115:0.015686056 116:-0.019053633 117:-0.091785015 118:-0.094324831 119:-0.14101254 120:-0.14457789 121:-0.15160869 122:-0.17865141 123:-0.19503778 124:-0.20126509 125:-0.22332342 126:-0.23041262 127:-0.25489376 128:-0.27282917 129:-0.28369941 130:-0.31471981 131:-0.3353427 132:-0.35219074 133:-0.36167434 134:-0.36959671 135:-0.37968787 136:-0.37604796 137:-0.38779586 138:-0.41613258 139:-0.44405455 140:-0.46372684 141:-0.47814475 142:-0.50078281 143:-0.52328569 144:-0.53582041 145:-0.56446194 146:-0.59081733 147:-0.59315307 148:-0.60389538 149:-0.61912468 150:-0.63827991 151:0.34187074 152:0.43815008 153:0.2970036 154:0.24006011 155:0.22829695 156:-0.18007614 157:-0.21712355 158:-0.10923773 159:-0.34704929 160:-0.67888592 161:-0.59614956 162:-0.53950033 163:-0.68278269 164:-0.82876342 165:-0.97455072 166:-1.051546 167:-0.89347175 168:-0.87399966 169:-1.0254164 170:-0.69565575 171:-0.53111858 172:-0.98792749 173:-0.76542971 174:-0.49787533 175:-0.85021712 176:-1.0780734 177:-0.97421098 178:-0.80356249 179:-0.80180064 180:-1.0703055 181:-1.1321306 182:-1.0652202 183:-1.0291252 184:-0.98202137 185:-0.95501069 186:-0.98287779 187:-1.07813 188:-0.93305527 189:-0.74412238 190:-0.72108673 191:-0.77239207 192:-0.95575448 193:-0.9830368 194:-0.86177551 195:-0.98676445 196:-1.158591 197:-1.0628472 198:-0.86728041 199:-0.86365637 200:-0.86376759 201:-0.83563119 202:-0.88574809 203:-0.88381562 204:-0.78920873 205:-0.71259475 206:-0.69042317 207:-0.62925831 208:-0.59269874 209:-0.56454069 210:-0.52824122 211:-0.49344533 212:-0.45745545 213:-0.4461769 214:-0.42591405 215:-0.48730111 216:-0.49974578 217:-0.39431894 218:-0.34367077 219:-0.40006553 220:-0.3918587 221:-0.33475707 222:-0.34209795 223:-0.28908679 224:-0.36900574 225:-0.38484465 226:-0.32933331 227:-0.39320185 228:-0.45692998 229:-0.41874455 230:-0.36333061 231:-0.32947554 232:-0.4105101 233:-0.48453774 234:-0.3601441 235:-0.31351423 236:-0.30668602 237:-0.34163684 238:-0.30140662 239:-0.15847277 240:-0.063142661 241:-0.10662625 242:-0.089776381 243:-0.11644865 244:-0.17441407 245:-0.14165547 246:-0.13112885 247:-0.16145035 248:-0.1417153 249:-0.18212753 250:-0.28175986 251:-0.29706496 252:-0.25218114 253:-0.24815028 254:-0.21288701 255:-0.15988855 256:-0.038681473 257:-0.093064024 258:-0.20313998 259:-0.23707742 260:-0.18740762 261:-0.18226365 262:-0.27044795 263:-0.25236269 264:-0.17046221 265:-0.10072331 266:-0.11439642 267:-0.10479703 268:-0.070190801 269:-0.027696682 270:-0.10616202 271:-0.14650233 272:-0.24914844 273:-0.28418914 274:-0.19776416 275:-0.19602903 276:-0.21981709 277:-0.21560726 278:-0.24072815 279:-0.15084247 280:-0.18567167 281:-0.29126856 282:-0.36566958 283:-0.36979328 284:-0.34585244 285:-0.37530823 286:-0.37659335 287:-0.41904752 288:-0.40582908 289:-0.46681579 290:-0.5368585 291:-0.55979107 292:-0.55069365 293:-0.57066138 294:-0.57450591 295:-0.53838203 296:-0.53735676 297:-0.56285189 298:-0.64538906 299:-0.73223068 300:-0.65816907 301:-1.2517746 302:-1.3080858 303:-1.3318087 304:-1.2053123 305:-0.98452514 306:-1.0126602 307:-0.95940359 308:-0.97302509 309:-0.79247652 310:-0.74148851 311:-0.76178164 312:-0.60607101 313:-0.37687457 314:-0.50733497 315:-0.31673867 316:-0.26699331 317:-0.17121802 318:-0.076117907 319:-0.16385505 320:-0.19571666 321:-0.015114122 322:-0.025744871 323:0.10452707 324:0.041691027 325:0.063593301 326:-0.017927297 327:0.048943634 328:0.073434578 329:-0.0059462555 330:0.03250841 331:-0.0013461346 332:-0.21808051 333:-0.17543356 334:-0.20864587 335:-0.25357884 336:-0.14877881 337:-0.19581277 338:-0.17361327 339:-0.16668484 340:-0.2544132 341:-0.069562133 342:-0.036765979 343:-0.25750328 344:-0.098049857 345:0.07571366 346:-0.12655369 347:-0.23226654 348:-0.11042023 349:-0.056692587 350:-0.16416931 351:-0.1639096 352:-0.21082807 353:-0.17011569 354:-0.20995725 355:-0.34776652 356:-0.4196576 357:-0.41499329 358:-0.47749623 359:-0.56259052 360:-0.74152649 361:-0.69085501 362:-0.73464281 363:-0.77255999 364:-0.78766099 365:-0.93052307 366:-0.89715848 367:-1.1816917 368:-1.0461199 369:-0.99852353 370:-1.0287978 371:-1.0825016 372:-1.1115005 373:-1.185305 374:-1.171722 375:-1.2170053 376:-1.1813629 377:-1.2115062 378:-1.2825143 379:-1.2154037 380:-1.2660383 381:-1.3092825 382:-1.328 383:-1.3602064 384:-1.40064 385:-1.4463776 386:-1.5092048 387:-1.5172643 388:-1.5106612 389:-1.5644776 390:-1.5540073 391:-1.4185513 392:-1.4051371 393:-1.4532709 394:-1.3576209 395:-1.25955 396:-1.2277485 397:-1.1025459 398:-1.0769942 399:-1.088956 400:-1.0840764 401:-1.0717669 402:-1.2138869 403:-1.2896274 404:-1.2706541 405:-1.2854451 406:-1.2650978 407:-1.1431622 408:-1.2128777 409:-1.2167167 410:-1.1542254 411:-1.1579895 412:-1.1573021 413:-1.1903276 414:-1.1882802 415:-1.3051274 416:-1.273949 417:-1.0541637 418:-1.1627138 419:-1.1604504 420:-1.0376203 421:-1.0788127 422:-1.0893819 423:-1.0788003 424:-1.1142993 425:-1.0245459 426:-1.066305 427:-1.1101091 428:-1.0172247 429:-1.0708364 430:-0.97534713 431:-0.89963266 432:-0.93784829 433:-0.87033899 434:-0.91370952 435:-0.87715782 436:-0.8023161 437:-0.86877342 438:-0.81954489 439:-0.77741398 440:-0.73165202 441:-0.68679748 442:-0.68897288 443:-0.64440412 444:-0.68314509 445:-0.67455812 446:-0.5375068 447:-0.44848277 448:-0.44677584 449:-0.43098253 450:-0.4685391 
